{"learner":{"attributes":{"scikit_learn":"{\"_estimator_type\": \"classifier\"}"},"feature_names":["income_level","attendance_rate","academic_score","payment_history"],"feature_types":["int","float","float","int"],"gradient_booster":{"model":{"gbtree_model_param":{"num_parallel_tree":"1","num_trees":"150"},"iteration_indptr":[0,1,2,3,4,5,6,7,8,9,10,11,12,13,14,15,16,17,18,19,20,21,22,23,24,25,26,27,28,29,30,31,32,33,34,35,36,37,38,39,40,41,42,43,44,45,46,47,48,49,50,51,52,53,54,55,56,57,58,59,60,61,62,63,64,65,66,67,68,69,70,71,72,73,74,75,76,77,78,79,80,81,82,83,84,85,86,87,88,89,90,91,92,93,94,95,96,97,98,99,100,101,102,103,104,105,106,107,108,109,110,111,112,113,114,115,116,117,118,119,120,121,122,123,124,125,126,127,128,129,130,131,132,133,134,135,136,137,138,139,140,141,142,143,144,145,146,147,148,149,150],"tree_info":[0,0,0,0,0,0,0,0,0,0,0,0,0,0,0,0,0,0,0,0,0,0,0,0,0,0,0,0,0,0,0,0,0,0,0,0,0,0,0,0,0,0,0,0,0,0,0,0,0,0,0,0,0,0,0,0,0,0,0,0,0,0,0,0,0,0,0,0,0,0,0,0,0,0,0,0,0,0,0,0,0,0,0,0,0,0,0,0,0,0,0,0,0,0,0,0,0,0,0,0,0,0,0,0,0,0,0,0,0,0,0,0,0,0,0,0,0,0,0,0,0,0,0,0,0,0,0,0,0,0,0,0,0,0,0,0,0,0,0,0,0,0,0,0,0,0,0,0,0,0],"trees":[{"base_weights":[1.3102408E-1,-1.7484975E0,1.8615259E-1,-9.439047E-3,-2.3338053E0,8.4338844E-1,1.1481408E-1,-8.1606075E-2,-2.909344E-1,-1.998761E-2,9.178946E-1,-1.1266369E0,1.4161138E-1,9.7610134E-1,-5.7834503E-4,-2.1663988E-1,-2.6464382E-1,3.124213E-1,-7.075384E-2,4.2325977E-2,1.1187818E-1,6.54995E-2,-8.1606075E-2,-1.0402621E-2,5.367396E-2,-3.0046627E-2,5.8279824E-2],"categories":[],"categories_nodes":[],"categories_segments":[],"categories_sizes":[],"default_left":[0,0,0,0,0,0,0,0,0,0,0,0,0,0,0,0,0,0,0,0,0,0,0,0,0,0,0],"id":0,"left_children":[1,3,5,-1,7,9,11,-1,-1,-1,13,15,17,19,-1,-1,21,23,25,-1,-1,-1,-1,-1,-1,-1,-1],"loss_changes":[4.461605E1,1.1307301E1,1.929258E1,0E0,3.8894768E0,3.4888039E0,1.2705915E1,0E0,0E0,0E0,2.1530075E0,6.1290503E0,1.3519702E1,1.9701309E0,0E0,0E0,3.9482586E0,1.9392097E1,2.5216244E1,0E0,0E0,0E0,0E0,0E0,0E0,0E0,0E0],"parents":[2147483647,0,0,1,1,2,2,4,4,5,5,6,6,10,10,11,11,12,12,13,13,16,16,17,17,18,18],"right_children":[2,4,6,-1,8,10,12,-1,-1,-1,14,16,18,20,-1,-1,22,24,26,-1,-1,-1,-1,-1,-1,-1,-1],"split_conditions":[5.7267003E-2,8.924164E-3,5.7762492E-2,-9.439047E-3,2E0,1E0,7.701917E-2,-8.1606075E-2,-2.909344E-1,-1.998761E-2,7.817842E-1,5.0455403E-1,5.4568076E-1,4.1973564E-1,-5.7834503E-4,-2.1663988E-1,5.109476E-1,3.1402424E-1,9.312566E-1,4.2325977E-2,1.1187818E-1,6.54995E-2,-8.1606075E-2,-1.0402621E-2,5.367396E-2,-3.0046627E-2,5.8279824E-2],"split_indices":[1,1,2,0,3,0,2,0,0,0,1,1,2,1,0,0,1,2,2,0,0,0,0,0,0,0,0],"split_type":[0,0,0,0,0,0,0,0,0,0,0,0,0,0,0,0,0,0,0,0,0,0,0,0,0,0,0],"sum_hessian":[4.258894E2,1.0771248E1,4.1511816E2,3.3151712E0,7.456077E0,3.891962E1,3.7619852E2,3.0949755E0,4.3611016E0,2.3365228E0,3.6583096E1,6.569177E0,3.6962936E2,3.4436188E1,2.1469097E0,1.8961312E0,4.6730456E0,2.0472711E2,1.6490224E2,8.428609E0,2.600758E1,1.5780704E0,3.0949755E0,7.179609E1,1.3293103E2,1.22728615E2,4.2173626E1],"tree_param":{"num_deleted":"0","num_feature":"4","num_nodes":"27","size_leaf_vector":"1"}},{"base_weights":[1.4632006E-1,-1.2550274E0,1.9114657E-1,-5.954844E-1,-2.2648226E-1,7.788294E-1,1.282881E-1,-1.266527E0,8.550897E-2,8.76488E-1,-3.7417095E-2,-3.559115E-1,2.1248664E-1,3.7771013E-2,-2.3544185E-1,3.307631E-3,9.515518E-1,-2.4407278E-1,-4.666585E-2,-3.089311E-1,2.7105525E-1,3.292818E-2,1.0302577E-1,-8.808135E-2,5.792581E-2,-2.6438493E-1,7.9661645E-3,4.8162382E-2,1.3163778E-2],"categories":[],"categories_nodes":[],"categories_segments":[],"categories_sizes":[],"default_left":[0,0,0,0,0,0,0,0,0,0,0,0,0,0,0,0,0,0,0,0,0,0,0,0,0,0,0,0,0],"id":1,"left_children":[1,3,5,7,-1,9,11,13,-1,15,-1,17,19,-1,-1,-1,21,-1,23,25,27,-1,-1,-1,-1,-1,-1,-1,-1],"loss_changes":[2.6735258E1,6.4797306E0,1.4900397E1,1.1475053E1,0E0,4.950947E0,1.5273968E1,1.5022006E1,0E0,2.1730766E0,0E0,3.5376854E1,9.839067E0,0E0,0E0,0E0,9.943886E-1,0E0,2.6860146E1,3.0206488E1,8.27E0,0E0,0E0,0E0,0E0,0E0,0E0,0E0,0E0],"parents":[2147483647,0,0,1,1,2,2,3,3,5,5,6,6,7,7,9,9,11,11,12,12,16,16,18,18,19,19,20,20],"right_children":[2,4,6,8,-1,10,12,14,-1,16,-1,18,20,-1,-1,-1,22,-1,24,26,28,-1,-1,-1,-1,-1,-1,-1,-1],"split_conditions":[5.7267003E-2,2.847622E-2,5.7762492E-2,2.7272556E-2,-2.2648226E-1,7.817842E-1,1E0,1.4227204E-1,8.550897E-2,1E0,-3.7417095E-2,2.9394093E-1,1.7274188E-1,3.7771013E-2,-2.3544185E-1,3.307631E-3,2.276567E-1,-2.4407278E-1,6.6066587E-1,3.6985165E-1,3.9404684E-1,3.292818E-2,1.0302577E-1,-8.808135E-2,5.792581E-2,-2.6438493E-1,7.9661645E-3,4.8162382E-2,1.3163778E-2],"split_indices":[1,1,2,1,0,1,3,2,0,0,0,2,1,0,0,0,1,0,1,2,2,0,0,0,0,0,0,0,0],"split_type":[0,0,0,0,0,0,0,0,0,0,0,0,0,0,0,0,0,0,0,0,0,0,0,0,0,0,0,0,0],"sum_hessian":[4.2006732E2,1.1696274E1,4.0837106E2,8.577507E0,3.1187665E0,3.7654213E1,3.7071683E2,6.041798E0,2.5357091E0,3.5125553E1,2.5286572E0,5.402243E1,3.166944E2,2.7590547E0,3.2827435E0,3.1561725E0,3.1969381E1,5.600932E0,4.8421497E1,3.116075E1,2.8553366E2,4.60524E0,2.7364141E1,2.0564634E1,2.7856863E1,3.2406545E0,2.7920095E1,1.1199041E2,1.7354326E2],"tree_param":{"num_deleted":"0","num_feature":"4","num_nodes":"29","size_leaf_vector":"1"}},{"base_weights":[9.939908E-2,8.2869744E-1,1.4084649E-2,-1.8651552E-2,8.9684916E-1,-3.8562918E-1,1.2079998E-1,4.6199158E-1,1.074758E0,-1.4921367E0,-1.7114246E-1,7.760266E-1,-3.9227713E-2,-1.6931586E-1,8.334436E-1,1.3725899E-2,1.1687074E-1,-5.354688E-1,-2.4923837E-1,2.7747792E-1,-9.296718E-1,3.1949526E-1,9.76212E-1,-1.2388675E0,1.1092698E-2,9.98645E-2,7.955193E-3,-1.7455809E-1,1.4357443E-2,-2.9494444E-2,8.1160024E-2,4.1296273E-2,-1.6269124E-1,-9.3547E-2,9.534163E-2,1.058556E-1,-0E0,-2.6210803E-1,5.951557E-3,3.7691891E-3,-2.002712E-1],"categories":[],"categories_nodes":[],"categories_segments":[],"categories_sizes":[],"default_left":[0,0,0,0,0,0,0,0,0,0,0,0,0,0,0,0,0,0,0,0,0,0,0,0,0,0,0,0,0,0,0,0,0,0,0,0,0,0,0,0,0],"id":2,"left_children":[1,3,5,-1,7,9,11,13,15,17,19,21,23,-1,25,-1,-1,27,-1,29,31,33,35,37,39,-1,-1,-1,-1,-1,-1,-1,-1,-1,-1,-1,-1,-1,-1,-1,-1],"loss_changes":[2.5579062E1,3.3024578E0,1.5875729E1,0E0,2.2517357E0,1.8050978E1,3.0977333E1,1.3731584E1,2.059927E0,9.613766E0,2.3393887E1,4.699814E0,1.4500409E1,0E0,1.4558773E0,0E0,0E0,7.379266E0,0E0,1.369079E1,2.4984364E1,1.7290804E1,3.260498E0,1.7840458E1,1.2218791E1,0E0,0E0,0E0,0E0,0E0,0E0,0E0,0E0,0E0,0E0,0E0,0E0,0E0,0E0,0E0,0E0],"parents":[2147483647,0,0,1,1,2,2,4,4,5,5,6,6,7,7,8,8,9,9,10,10,11,11,12,12,14,14,17,17,19,19,20,20,21,21,22,22,23,23,24,24],"right_children":[2,4,6,-1,8,10,12,14,16,18,20,22,24,-1,26,-1,-1,28,-1,30,32,34,36,38,40,-1,-1,-1,-1,-1,-1,-1,-1,-1,-1,-1,-1,-1,-1,-1,-1],"split_conditions":[5.7762492E-2,1E0,3.1402424E-1,-1.8651552E-2,2.3391707E-2,2.8376812E-1,3.959868E-1,5.059414E-1,1E0,1.6505632E-1,6.6686875E-1,5.346435E-1,4.3366757E-1,-1.6931586E-1,1.757924E-2,1.3725899E-2,1.1687074E-1,1.2127906E-1,-2.4923837E-1,5.346435E-1,8.189312E-2,3.6985165E-1,3.753636E-1,8.001826E-1,9.833204E-1,9.98645E-2,7.955193E-3,-1.7455809E-1,1.4357443E-2,-2.9494444E-2,8.1160024E-2,4.1296273E-2,-1.6269124E-1,-9.3547E-2,9.534163E-2,1.058556E-1,-0E0,-2.6210803E-1,5.951557E-3,3.7691891E-3,-2.002712E-1],"split_indices":[2,0,2,0,2,1,2,1,3,2,1,1,2,0,2,0,0,2,0,1,2,2,2,1,2,0,0,0,0,0,0,0,0,0,0,0,0,0,0,0,0],"split_type":[0,0,0,0,0,0,0,0,0,0,0,0,0,0,0,0,0,0,0,0,0,0,0,0,0,0,0,0,0,0,0,0,0,0,0,0,0,0,0,0,0],"sum_hessian":[4.1124478E2,4.1578083E1,3.696667E2,2.3593833E0,3.92187E1,7.687302E1,2.9279367E2,1.3116262E1,2.6102438E1,1.0955206E1,6.591781E1,5.6462257E1,2.3633142E2,1.1040527E0,1.201221E1,2.8107252E0,2.3291714E1,6.827832E0,4.127374E0,4.1935287E1,2.3982521E1,1.8550524E1,3.791173E1,8.167839E0,2.2816359E2,9.344837E0,2.6673722E0,1.6603115E0,5.1675205E0,2.0475758E1,2.145953E1,8.357375E0,1.5625145E1,5.9332547E0,1.26172695E1,3.4928383E1,2.9833503E0,3.2533584E0,4.9144807E0,2.2669093E2,1.4726486E0],"tree_param":{"num_deleted":"0","num_feature":"4","num_nodes":"41","size_leaf_vector":"1"}},{"base_weights":[1.08693264E-1,-4.2551455E-1,1.830747E-1,-1.1171918E-1,-2.3144148E-1,3.3589906E-1,-6.488409E-2,-9.4415784E-1,1.9885217E-1,3.6890814E-1,-5.256337E-1,-1.4944196E0,-2.0078395E-3,-1.2474574E0,2.9196067E-2,-7.769987E-1,4.5736194E-1,6.5716064E-1,2.6926062E-1,-1.7986369E0,7.654736E-2,-2.4646302E-1,3.9451566E-2,4.2881295E-2,-1.4678526E0,-1.700001E-2,-1.5129386E-1,6.3523956E-2,-1.9455634E-1,6.6057965E-2,-4.0452104E-2,-1.5433282E-2,7.464225E-2,-2.6308528E-1,3.5940293E-2,-1.3390146E-2,-2.2180906E-1,-1.4957018E-2,6.187855E-2,-1.8807681E-1,-1.2818786E-2],"categories":[],"categories_nodes":[],"categories_segments":[],"categories_sizes":[],"default_left":[0,0,0,0,0,0,0,0,0,0,0,0,0,0,0,0,0,0,0,0,0,0,0,0,0,0,0,0,0,0,0,0,0,0,0,0,0,0,0,0,0],"id":3,"left_children":[1,3,5,7,-1,9,11,13,15,17,19,21,23,25,-1,27,29,31,33,35,-1,-1,-1,37,39,-1,-1,-1,-1,-1,-1,-1,-1,-1,-1,-1,-1,-1,-1,-1,-1],"loss_changes":[1.689464E1,3.0172127E1,1.4170937E1,1.2296613E1,0E0,6.8410664E0,1.2699488E1,5.4774027E0,9.276945E0,6.05748E0,1.7004217E1,1.2580444E1,9.35337E0,2.5083065E0,0E0,1.4791723E1,5.4230413E0,4.2940617E0,4.5313E1,2.8329506E0,0E0,0E0,0E0,1.5239333E1,1.774868E0,0E0,0E0,0E0,0E0,0E0,0E0,0E0,0E0,0E0,0E0,0E0,0E0,0E0,0E0,0E0,0E0],"parents":[2147483647,0,0,1,1,2,2,3,3,5,5,6,6,7,7,8,8,9,9,10,10,11,11,12,12,13,13,15,15,16,16,17,17,18,18,19,19,23,23,24,24],"right_children":[2,4,6,8,-1,10,12,14,16,18,20,22,24,26,-1,28,30,32,34,36,-1,-1,-1,38,40,-1,-1,-1,-1,-1,-1,-1,-1,-1,-1,-1,-1,-1,-1,-1,-1],"split_conditions":[1.7274188E-1,1.24970675E-1,5.6165946E-1,5.7267003E-2,-2.3144148E-1,9.5703745E-1,5.948525E-1,8.05712E-1,3.6985165E-1,1.2508321E-1,9.88264E-1,8.9500344E-1,9.81243E-1,8.924164E-3,2.9196067E-2,5.0324626E-2,7.90653E-1,2.8376812E-1,1.6201474E-1,8.0344394E-2,7.654736E-2,-2.4646302E-1,3.9451566E-2,9.312566E-1,2E0,-1.700001E-2,-1.5129386E-1,6.3523956E-2,-1.9455634E-1,6.6057965E-2,-4.0452104E-2,-1.5433282E-2,7.464225E-2,-2.6308528E-1,3.5940293E-2,-1.3390146E-2,-2.2180906E-1,-1.4957018E-2,6.187855E-2,-1.8807681E-1,-1.2818786E-2],"split_indices":[1,1,2,1,0,1,2,2,2,2,1,1,2,1,0,2,2,1,2,2,0,0,0,2,0,0,0,0,0,0,0,0,0,0,0,0,0,0,0,0,0],"split_type":[0,0,0,0,0,0,0,0,0,0,0,0,0,0,0,0,0,0,0,0,0,0,0,0,0,0,0,0,0,0,0,0,0,0,0,0,0,0,0,0,0],"sum_hessian":[4.2135068E2,5.0467484E1,3.708832E2,4.4685688E1,5.7817945E0,2.293805E2,1.415027E2,1.1397726E1,3.3287964E1,2.2185406E2,7.526426E0,4.45577E0,1.3704694E2,9.206032E0,2.191694E0,6.2603507E0,2.7027613E1,5.457835E1,1.6727573E2,3.5318794E0,3.9945464E0,2.6767154E0,1.7790549E0,1.3432146E2,2.7254786E0,2.3807867E0,6.8252454E0,3.1058598E0,3.1544907E0,2.224822E1,4.7793927E0,5.1891556E0,4.9389194E1,3.7346485E0,1.6354108E2,1.1570412E0,2.3748384E0,1.0137987E2,3.2941593E1,1.5631654E0,1.1623133E0],"tree_param":{"num_deleted":"0","num_feature":"4","num_nodes":"41","size_leaf_vector":"1"}},{"base_weights":[4.4454273E-2,-2.0806897E-1,2.1298765E-1,-1.6232835E-1,-2.0391254E-1,3.8978636E-1,-7.578885E-2,-1.2953122E0,-1.07372046E-1,3.0376396E-1,9.865255E-1,-2.0514095E-1,1.2114557E-2,-0E0,-1.8915471E-1,-1.848571E-1,5.657801E-1,3.49053E-1,-8.201796E-1,1.01831555E-1,1.5751122E-2,-1.72146E-1,6.6374224E-1,-8.393822E-3,-1.4319782E-1,-3.035438E-3,7.9270385E-2,1.6366517E-2,5.637145E-2,7.559967E-2,-2.2540584E-1,5.3384967E-2,-4.754394E-2,9.203647E-2,-1.0201192E-1],"categories":[],"categories_nodes":[],"categories_segments":[],"categories_sizes":[],"default_left":[0,0,0,0,0,0,0,0,0,0,0,0,0,0,0,0,0,0,0,0,0,0,0,0,0,0,0,0,0,0,0,0,0,0,0],"id":4,"left_children":[1,3,5,7,-1,9,11,13,15,17,19,-1,21,-1,-1,23,25,27,29,-1,-1,31,33,-1,-1,-1,-1,-1,-1,-1,-1,-1,-1,-1,-1],"loss_changes":[1.7228735E1,1.2845357E1,1.2473114E1,9.592529E0,0E0,7.1764145E0,1.643557E1,5.689704E0,8.151177E0,7.2211266E0,1.2199974E-1,0E0,1.1113426E1,0E0,0E0,1.720829E1,2.2947087E0,4.9736633E0,1.5285868E1,0E0,0E0,1.5747822E1,1.0225162E1,0E0,0E0,0E0,0E0,0E0,0E0,0E0,0E0,0E0,0E0,0E0,0E0],"parents":[2147483647,0,0,1,1,2,2,3,3,5,5,6,6,7,7,8,8,9,9,10,10,12,12,15,15,16,16,17,17,18,18,21,21,22,22],"right_children":[2,4,6,8,-1,10,12,14,16,18,20,-1,22,-1,-1,24,26,28,30,-1,-1,32,34,-1,-1,-1,-1,-1,-1,-1,-1,-1,-1,-1,-1],"split_conditions":[4.8158282E-1,9.763217E-1,5.6165946E-1,2.7272556E-2,-2.0391254E-1,5.176951E-1,5.948525E-1,1.4227204E-1,9.312566E-1,4.9339476E-1,8.7084836E-1,-2.0514095E-1,9.581346E-1,-0E0,-1.8915471E-1,7.9487264E-1,2.1326828E-1,3.1402424E-1,5.1852846E-1,1.01831555E-1,1.5751122E-2,5.8937174E-1,7.619658E-1,-8.393822E-3,-1.4319782E-1,-3.035438E-3,7.9270385E-2,1.6366517E-2,5.637145E-2,7.559967E-2,-2.2540584E-1,5.3384967E-2,-4.754394E-2,9.203647E-2,-1.0201192E-1],"split_indices":[1,2,2,1,0,2,2,2,2,2,1,0,2,0,0,2,1,2,1,0,0,1,1,0,0,0,0,0,0,0,0,0,0,0,0],"split_type":[0,0,0,0,0,0,0,0,0,0,0,0,0,0,0,0,0,0,0,0,0,0,0,0,0,0,0,0,0,0,0,0,0,0,0],"sum_hessian":[4.0175037E2,1.6042746E2,2.4132292E2,1.5816405E2,2.2634158E0,1.4957169E2,9.175123E1,5.666597E0,1.5249745E2,1.3285172E2,1.671998E1,2.5296466E0,8.922158E1,2.2157001E0,3.4508965E0,1.3786478E2,1.4632675E1,1.2878546E2,4.066246E0,1.5656463E1,1.063518E0,7.0294655E1,1.8926928E1,1.2909903E2,8.765741E0,4.271089E0,1.0361586E1,7.07732E1,5.8012264E1,2.241596E0,1.8246502E0,2.0681952E1,4.96127E1,1.7065624E1,1.8613033E0],"tree_param":{"num_deleted":"0","num_feature":"4","num_nodes":"35","size_leaf_vector":"1"}},{"base_weights":[9.267951E-2,6.489167E-1,1.3054474E-2,-3.8105246E-1,8.222998E-1,3.2373816E-2,-1.416944E0,5.241089E-1,-1.8725501E-1,8.5458744E-1,-1.52146695E-2,-2.8590633E-2,5.829431E-1,-1.7539313E-1,-1.13009885E-2,1.7060159E-2,7.066917E-2,1.44E-1,9.115639E-1,4.5986444E-2,-5.23491E-1,6.8995845E-1,-8.38271E-2,6.443051E-2,-3.0619977E-2,1.0097175E-1,5.2797318E-2,-2.3610545E-2,1.4115094E-2,-1.8353108E-1,-2.7248723E-2,-4.420598E-3,7.961179E-2],"categories":[],"categories_nodes":[],"categories_segments":[],"categories_sizes":[],"default_left":[0,0,0,0,0,0,0,0,0,0,0,0,0,0,0,0,0,0,0,0,0,0,0,0,0,0,0,0,0,0,0,0,0],"id":5,"left_children":[1,3,5,7,9,11,13,15,-1,17,-1,19,21,-1,-1,-1,-1,23,25,27,29,31,-1,-1,-1,-1,-1,-1,-1,-1,-1,-1,-1],"loss_changes":[1.8561821E1,9.892303E0,1.0148323E1,1.3093862E1,1.6970444E0,1.2380882E1,1.6667728E0,1.4614356E-1,0E0,1.4940834E0,0E0,1.2307787E1,6.444668E0,0E0,0E0,0E0,0E0,1.5022224E0,5.777588E-1,7.799501E0,1.3418178E1,2.8621063E0,0E0,0E0,0E0,0E0,0E0,0E0,0E0,0E0,0E0,0E0,0E0],"parents":[2147483647,0,0,1,1,2,2,3,3,4,4,5,5,6,6,7,7,9,9,11,11,12,12,17,17,18,18,19,19,20,20,21,21],"right_children":[2,4,6,8,10,12,14,16,-1,18,-1,20,22,-1,-1,-1,-1,24,26,28,30,32,-1,-1,-1,-1,-1,-1,-1,-1,-1,-1,-1],"split_conditions":[8.189312E-2,2.3137408E-1,9.81243E-1,7.925493E-2,8.6899287E-1,9.312566E-1,2E0,6.520211E-2,-1.8725501E-1,1E0,-1.52146695E-2,7.9487264E-1,8.863497E-1,-1.7539313E-1,-1.13009885E-2,1.7060159E-2,7.066917E-2,3.2268533E-1,5.7762492E-2,3.1402424E-1,3.0977643E-1,3.0105546E-1,-8.38271E-2,6.443051E-2,-3.0619977E-2,1.0097175E-1,5.2797318E-2,-2.3610545E-2,1.4115094E-2,-1.8353108E-1,-2.7248723E-2,-4.420598E-3,7.961179E-2],"split_indices":[2,1,2,1,1,2,0,1,0,0,0,2,1,0,0,0,0,1,2,2,1,1,0,0,0,0,0,0,0,0,0,0,0],"split_type":[0,0,0,0,0,0,0,0,0,0,0,0,0,0,0,0,0,0,0,0,0,0,0,0,0,0,0,0,0,0,0,0,0],"sum_hessian":[4.19375E2,5.1015465E1,3.6835953E2,7.008516E0,4.400695E1,3.649648E2,3.394719E0,4.9253016E0,2.0832145E0,4.2873493E1,1.1334592E0,3.296979E2,3.526692E1,2.2252707E0,1.1694481E0,2.8522286E0,2.073073E0,3.7055461E0,3.9167946E1,2.8752847E2,4.216942E1,3.3580513E1,1.6864071E0,1.5539929E0,2.1515532E0,2.9030483E1,1.0137462E1,7.1704796E1,2.1582368E2,5.188189E0,3.6981228E1,4.2338676E0,2.9346643E1],"tree_param":{"num_deleted":"0","num_feature":"4","num_nodes":"33","size_leaf_vector":"1"}},{"base_weights":[5.720756E-2,-4.40338E-1,1.4057149E-1,-2.5562012E-1,-2.0929766E-1,7.443329E-1,9.077191E-2,-6.600604E-1,5.102908E-2,4.260308E-2,1.07601E-1,-9.339289E-1,1.505614E-1,-3.164891E-1,-1.941527E-1,-1.3589597E-1,2.1293421E-1,6.2405163E-1,-1.6256149E-1,-1.7564718E-1,-2.5300112E-1,2.5908422E-1,-1.0929587E-1,-1.2172305E-1,4.3911498E-2,9.234341E-2,-1.5098537E-2,-3.348672E-2,8.976966E-2,-2.0396355E-1,3.9215658E-2,-1.3292158E-3,3.8279306E-2,-1.560111E-1,1.0826672E-2],"categories":[],"categories_nodes":[],"categories_segments":[],"categories_sizes":[],"default_left":[0,0,0,0,0,0,0,0,0,0,0,0,0,0,0,0,0,0,0,0,0,0,0,0,0,0,0,0,0,0,0,0,0,0,0],"id":6,"left_children":[1,3,5,7,-1,9,11,13,15,17,-1,19,21,23,-1,-1,25,27,-1,29,-1,31,33,-1,-1,-1,-1,-1,-1,-1,-1,-1,-1,-1,-1],"loss_changes":[1.6730902E1,1.6625635E1,1.0203275E1,6.7845297E0,0E0,5.862606E0,1.9801163E1,9.177618E0,7.5913515E0,1.1113725E1,0E0,2.0624107E1,8.650661E0,1.4727815E1,0E0,0E0,8.026253E0,2.7475715E0,0E0,1.5897863E1,0E0,7.311553E0,2.8980679E1,0E0,0E0,0E0,0E0,0E0,0E0,0E0,0E0,0E0,0E0,0E0,0E0],"parents":[2147483647,0,0,1,1,2,2,3,3,5,5,6,6,7,7,8,8,9,9,11,11,12,12,13,13,16,16,17,17,19,19,21,21,22,22],"right_children":[2,4,6,8,-1,10,12,14,16,18,-1,20,22,24,-1,-1,26,28,-1,30,-1,32,34,-1,-1,-1,-1,-1,-1,-1,-1,-1,-1,-1,-1],"split_conditions":[1.7274188E-1,1.3956207E-1,2.096241E-1,5.201602E-1,-2.0929766E-1,2E0,2.8376812E-1,9.011522E-2,2.30662E-2,1.8551226E-1,1.07601E-1,2.4481638E-1,6.878224E-1,6.187072E-2,-1.941527E-1,-1.3589597E-1,6.12236E-2,1.8267229E-1,-1.6256149E-1,2.2429146E-1,-2.5300112E-1,5.5668306E-1,7.7059937E-1,-1.2172305E-1,4.3911498E-2,9.234341E-2,-1.5098537E-2,-3.348672E-2,8.976966E-2,-2.0396355E-1,3.9215658E-2,-1.3292158E-3,3.8279306E-2,-1.560111E-1,1.0826672E-2],"split_indices":[1,1,1,2,0,0,1,1,1,1,0,1,2,1,0,0,1,1,0,1,0,1,2,0,0,0,0,0,0,0,0,0,0,0,0],"split_type":[0,0,0,0,0,0,0,0,0,0,0,0,0,0,0,0,0,0,0,0,0,0,0,0,0,0,0,0,0,0,0,0,0,0,0],"sum_hessian":[4.0035858E2,5.635991E1,3.439987E2,5.23061E1,4.0538096E0,2.4464724E1,3.1953397E2,2.1951534E1,3.0354563E1,8.492113E0,1.597261E1,1.6315098E1,3.0321887E2,1.8847002E1,3.1045334E0,1.9205991E0,2.8433964E1,7.0379076E0,1.4542058E0,1.2231683E1,4.0834155E0,2.1416681E2,8.905205E1,8.2400875E0,1.06069145E1,8.942881E0,1.9491083E1,1.406868E0,5.6310396E0,1.9892524E0,1.024243E1,6.705617E1,1.4711064E2,1.0465599E1,7.858645E1],"tree_param":{"num_deleted":"0","num_feature":"4","num_nodes":"35","size_leaf_vector":"1"}},{"base_weights":[6.7939736E-2,-4.0046787E-1,1.3714093E-1,-1.8634672E-1,-1.9399977E-1,2.9250088E-1,-1.0901119E-1,-7.9066306E-1,7.311915E-2,2.1246277E-1,7.649944E-1,-6.481137E-1,8.970044E-3,-2.1823797E-1,-1.6942762E-1,7.962027E-1,-2.0179027E-1,2.5835097E-1,-2.2275452E-1,8.3788586E-1,-3.3889197E-2,-1.9719923E0,6.79743E-2,3.5888845E-1,-1.3534425E-1,-7.75483E-2,9.14279E-2,1.4860009E-2,9.081163E-2,-4.3134864E-2,8.209368E-2,7.368532E-2,1.6212719E-2,4.4530775E-2,1.01488315E-1,-2.666939E-1,-2.4287732E-2,6.015801E-2,-7.105074E-2,-7.490246E-2,7.929585E-2,2.9113889E-2,-8.102467E-2],"categories":[],"categories_nodes":[],"categories_segments":[],"categories_sizes":[],"default_left":[0,0,0,0,0,0,0,0,0,0,0,0,0,0,0,0,0,0,0,0,0,0,0,0,0,0,0,0,0,0,0,0,0,0,0,0,0,0,0,0,0,0,0],"id":7,"left_children":[1,3,5,7,-1,9,11,13,15,17,19,21,23,25,-1,27,29,31,-1,33,-1,35,37,39,41,-1,-1,-1,-1,-1,-1,-1,-1,-1,-1,-1,-1,-1,-1,-1,-1,-1,-1],"loss_changes":[1.3242071E1,1.6571125E1,1.3670307E1,7.662645E0,0E0,7.9308395E0,8.88123E0,6.815607E0,7.2061014E0,2.1863556E1,2.9644928E0,2.4128927E1,5.9000916E0,7.8268223E0,0E0,4.1470766E-1,6.659005E0,8.350469E0,0E0,1.2279892E0,0E0,9.418182E0,7.962381E0,1.7332268E1,2.4086866E1,0E0,0E0,0E0,0E0,0E0,0E0,0E0,0E0,0E0,0E0,0E0,0E0,0E0,0E0,0E0,0E0,0E0,0E0],"parents":[2147483647,0,0,1,1,2,2,3,3,5,5,6,6,7,7,8,8,9,9,10,10,11,11,12,12,13,13,15,15,16,16,17,17,19,19,21,21,22,22,23,23,24,24],"right_children":[2,4,6,8,-1,10,12,14,16,18,20,22,24,26,-1,28,30,32,-1,34,-1,36,38,40,42,-1,-1,-1,-1,-1,-1,-1,-1,-1,-1,-1,-1,-1,-1,-1,-1,-1,-1],"split_conditions":[1.7274188E-1,1.3956207E-1,5.6165946E-1,5.7267003E-2,-1.9399977E-1,5.122397E-1,1E0,2.847622E-2,6.520211E-2,4.9339476E-1,8.7084836E-1,8.05712E-1,6.878224E-1,2.7272556E-2,-1.6942762E-1,3.1955525E-1,1.3373028E-1,5.7762492E-2,-2.2275452E-1,2E0,-3.3889197E-2,7.761822E-1,2E0,6.5773594E-1,5.695584E-1,-7.75483E-2,9.14279E-2,1.4860009E-2,9.081163E-2,-4.3134864E-2,8.209368E-2,7.368532E-2,1.6212719E-2,4.4530775E-2,1.01488315E-1,-2.666939E-1,-2.4287732E-2,6.015801E-2,-7.105074E-2,-7.490246E-2,7.929585E-2,2.9113889E-2,-8.102467E-2],"split_indices":[1,1,2,1,0,2,0,1,1,2,1,2,2,1,0,2,1,2,0,0,0,1,3,1,1,0,0,0,0,0,0,0,0,0,0,0,0,0,0,0,0,0,0],"split_type":[0,0,0,0,0,0,0,0,0,0,0,0,0,0,0,0,0,0,0,0,0,0,0,0,0,0,0,0,0,0,0,0,0,0,0,0,0,0,0,0,0,0,0],"sum_hessian":[4.052957E2,5.1059513E1,3.5423618E2,4.6358402E1,4.701111E0,2.1724492E2,1.3699126E2,1.3118616E1,3.3239784E1,1.8781595E2,2.9428978E1,2.3539158E1,1.13452095E2,9.2388735E0,3.8797429E0,8.472996E0,2.476679E1,1.8570561E2,2.1103246E0,2.8030142E1,1.3988371E0,7.3884797E0,1.6150679E1,3.267873E1,8.077337E1,6.568222E0,2.6706514E0,1.8946453E0,6.57835E0,2.1014965E1,3.7518249E0,2.924585E1,1.5645976E2,1.0524888E1,1.7505253E1,4.6487255E0,2.7397544E0,9.860897E0,6.289781E0,8.82787E0,2.385086E1,4.9927826E1,3.0845541E1],"tree_param":{"num_deleted":"0","num_feature":"4","num_nodes":"43","size_leaf_vector":"1"}},{"base_weights":[3.2262933E-2,-1.7149396E-2,4.6616834E-1,4.19477E-2,-4.902304E-1,6.165547E-1,-1.457966E-1,4.840636E-1,-1.3405589E-2,-1.2307918E0,-1.1400361E-1,7.6358193E-1,-4.8890975E-1,1.4189515E-1,8.3450145E-1,-5.026379E-2,8.158491E-1,-1.5062612E0,1.6157575E-2,-7.7349937E-1,1.874982E-1,-1.13343045E-1,9.044402E-1,-6.9825076E-2,1.239062E-2,-7.68215E-2,4.9402688E-2,3.642677E-2,9.7198635E-2,-1.8726172E-3,-1.6424474E-1,1.0744446E-1,1.3642251E-2,-3.656585E-2,-2.544866E-1,3.642778E-2,-1.5235403E-1,-1.5767677E-1,4.2500827E-2,-1.7602389E-1,9.0139605E-2,5.391487E-2,9.983544E-2],"categories":[],"categories_nodes":[],"categories_segments":[],"categories_sizes":[],"default_left":[0,0,0,0,0,0,0,0,0,0,0,0,0,0,0,0,0,0,0,0,0,0,0,0,0,0,0,0,0,0,0,0,0,0,0,0,0,0,0,0,0,0,0],"id":8,"left_children":[1,3,5,7,9,11,-1,13,15,17,19,21,23,25,27,29,31,33,-1,35,37,39,41,-1,-1,-1,-1,-1,-1,-1,-1,-1,-1,-1,-1,-1,-1,-1,-1,-1,-1,-1,-1],"loss_changes":[8.537724E0,1.003857E1,1.3041343E1,7.838521E0,1.0765988E1,6.9022036E0,0E0,3.9962177E0,8.660922E0,5.559288E0,5.8807945E0,4.5507984E0,8.79372E-1,6.943644E0,4.4383335E-1,1.3511312E1,1.7764139E0,1.16026E1,0E0,8.8336525E0,9.457888E0,1.2614242E1,8.1213E-2,0E0,0E0,0E0,0E0,0E0,0E0,0E0,0E0,0E0,0E0,0E0,0E0,0E0,0E0,0E0,0E0,0E0,0E0,0E0,0E0],"parents":[2147483647,0,0,1,1,2,2,3,3,4,4,5,5,7,7,8,8,9,9,10,10,11,11,12,12,13,13,14,14,15,15,16,16,17,17,19,19,20,20,21,21,22,22],"right_children":[2,4,6,8,10,12,-1,14,16,18,20,22,24,26,28,30,32,34,-1,36,38,40,42,-1,-1,-1,-1,-1,-1,-1,-1,-1,-1,-1,-1,-1,-1,-1,-1,-1,-1,-1,-1],"split_conditions":[9.312566E-1,7.9487264E-1,9.833204E-1,5.7762492E-2,8.5220337E-1,7.619658E-1,-1.457966E-1,4.2105284E-2,9.881909E-1,9.192054E-1,5.059414E-1,3.0105546E-1,9.431016E-1,5.059414E-1,2.276567E-1,9.5703745E-1,9.947055E-1,4.85297E-1,1.6157575E-2,8.664502E-1,1E0,9.65498E-1,4.3244636E-1,-6.9825076E-2,1.239062E-2,-7.68215E-2,4.9402688E-2,3.642677E-2,9.7198635E-2,-1.8726172E-3,-1.6424474E-1,1.0744446E-1,1.3642251E-2,-3.656585E-2,-2.544866E-1,3.642778E-2,-1.5235403E-1,-1.5767677E-1,4.2500827E-2,-1.7602389E-1,9.0139605E-2,5.391487E-2,9.983544E-2],"split_indices":[2,2,2,2,2,1,0,2,1,1,1,1,1,1,1,1,1,1,0,2,3,2,1,0,0,0,0,0,0,0,0,0,0,0,0,0,0,0,0,0,0,0,0],"split_type":[0,0,0,0,0,0,0,0,0,0,0,0,0,0,0,0,0,0,0,0,0,0,0,0,0,0,0,0,0,0,0,0,0,0,0,0,0,0,0,0,0,0,0],"sum_hessian":[3.9405597E2,3.548559E2,3.920007E1,3.164773E2,3.8378605E1,3.7352036E1,1.8480335E0,3.4122704E1,2.8235458E2,1.1691752E1,2.6686852E1,3.3456646E1,3.8953903E0,1.8475698E1,1.5647004E1,2.718033E2,1.0551274E1,9.718203E0,1.9735503E0,7.740017E0,1.8946835E1,4.572603E0,2.888404E1,2.869288E0,1.0261023E0,4.580545E0,1.3895154E1,4.942839E0,1.07041645E1,2.6807382E2,3.7294974E0,6.904198E0,3.6470764E0,5.644146E0,4.074056E0,3.3286965E0,4.4113207E0,1.1945279E0,1.7752306E1,1.3607239E0,3.2118795E0,8.192874E0,2.0691168E1],"tree_param":{"num_deleted":"0","num_feature":"4","num_nodes":"43","size_leaf_vector":"1"}},{"base_weights":[2.6251663E-2,-3.7645328E-1,9.0210445E-2,-1.9654699E-1,-1.7211549E-1,6.951819E-1,4.1571837E-2,-2.7165306E-1,6.6368006E-2,9.244459E-2,9.691596E-2,-8.7274545E-1,1.0216965E-1,-1.6172847E-1,-1.492018E-1,5.8503246E-1,-1.3583672E-1,-1.4393384E0,-0E0,6.8591136E-1,3.5506453E-2,-2.97324E-2,6.273551E-2,-3.0170977E-2,8.531986E-2,-3.6693823E-3,-2.1699551E-1,7.730371E-2,-1.6315596E-1,5.1111013E-2,9.775614E-2,-7.035657E-2,1.0365307E-2],"categories":[],"categories_nodes":[],"categories_segments":[],"categories_sizes":[],"default_left":[0,0,0,0,0,0,0,0,0,0,0,0,0,0,0,0,0,0,0,0,0,0,0,0,0,0,0,0,0,0,0,0,0],"id":9,"left_children":[1,3,5,7,-1,9,11,13,-1,15,-1,17,19,21,-1,23,-1,25,27,29,31,-1,-1,-1,-1,-1,-1,-1,-1,-1,-1,-1,-1],"loss_changes":[1.0144774E1,1.2349794E1,9.904132E0,3.418571E0,0E0,3.9035463E0,1.7618698E1,5.7163467E0,0E0,7.9857435E0,0E0,9.64174E0,1.1515543E1,5.003274E0,0E0,2.4096093E0,0E0,1.1873213E1,1.3746721E1,6.5052414E-1,1.3639648E1,0E0,0E0,0E0,0E0,0E0,0E0,0E0,0E0,0E0,0E0,0E0,0E0],"parents":[2147483647,0,0,1,1,2,2,3,3,5,5,6,6,7,7,9,9,11,11,12,12,13,13,15,15,17,17,18,18,19,19,20,20],"right_children":[2,4,6,8,-1,10,12,14,-1,16,-1,18,20,22,-1,24,-1,26,28,30,32,-1,-1,-1,-1,-1,-1,-1,-1,-1,-1,-1,-1],"split_conditions":[1.7274188E-1,1.3956207E-1,2.096241E-1,1.3373028E-1,-1.7211549E-1,2E0,2.8376812E-1,1.24970675E-1,6.6368006E-2,1.8551226E-1,9.691596E-2,7.03789E-1,3.3794242E-1,1.17796786E-1,-1.492018E-1,1.8267229E-1,-1.3583672E-1,1.2508321E-1,7.5589263E-1,3.3255824E-1,4.1973564E-1,-2.97324E-2,6.273551E-2,-3.0170977E-2,8.531986E-2,-3.6693823E-3,-2.1699551E-1,7.730371E-2,-1.6315596E-1,5.1111013E-2,9.775614E-2,-7.035657E-2,1.0365307E-2],"split_indices":[1,1,1,1,0,0,1,1,0,1,0,2,1,1,0,1,0,2,2,1,1,0,0,0,0,0,0,0,0,0,0,0,0],"split_type":[0,0,0,0,0,0,0,0,0,0,0,0,0,0,0,0,0,0,0,0,0,0,0,0,0,0,0,0,0,0,0,0,0],"sum_hessian":[3.915057E2,5.2439228E1,3.3906647E2,4.7833275E1,4.6059546E0,2.3594965E1,3.154715E2,4.5043137E1,2.7901385E0,8.114527E0,1.5480438E1,1.8256626E1,2.9721487E2,4.2954712E1,2.088424E0,6.777463E0,1.3370633E0,1.0417806E1,7.83882E0,2.8881117E1,2.6833377E2,3.7561676E1,5.3930354E0,1.4435523E0,5.3339105E0,4.1543846E0,6.263421E0,5.8174143E0,2.0214055E0,2.085388E1,8.027236E0,2.1348501E1,2.4698526E2],"tree_param":{"num_deleted":"0","num_feature":"4","num_nodes":"33","size_leaf_vector":"1"}},{"base_weights":[-1.6993405E-2,-1.3407419E0,8.412452E-3,-3.4821417E-2,-1.5444571E-1,5.3221136E-1,-4.0567387E-2,6.6387737E-1,-5.606244E-2,-4.601713E-1,2.349735E-2,3.4696108E-1,9.07424E-2,-1.5045238E0,-1.4973626E-1,-1.6949873E-1,3.8212687E-2,-3.8063187E-2,7.3486745E-2,1.15084415E-2,-1.7044997E-1,7.062849E-2,-5.945594E-2,-1.5202588E-2,1.5483071E-2],"categories":[],"categories_nodes":[],"categories_segments":[],"categories_sizes":[],"default_left":[0,0,0,0,0,0,0,0,0,0,0,0,0,0,0,0,0,0,0,0,0,0,0,0,0],"id":10,"left_children":[1,3,5,-1,-1,7,9,11,-1,13,15,17,-1,19,21,-1,23,-1,-1,-1,-1,-1,-1,-1,-1],"loss_changes":[1.3366287E1,5.171547E-1,1.0010046E1,0E0,0E0,5.370695E0,9.606105E0,1.7605324E0,0E0,1.4837025E1,7.753106E0,4.9380245E0,0E0,3.8871803E0,1.5169953E1,0E0,6.8730707E0,0E0,0E0,0E0,0E0,0E0,0E0,0E0,0E0],"parents":[2147483647,0,0,1,1,2,2,5,5,6,6,7,7,9,9,10,10,11,11,13,13,14,14,16,16],"right_children":[2,4,6,-1,-1,8,10,12,-1,14,16,18,-1,20,22,-1,24,-1,-1,-1,-1,-1,-1,-1,-1],"split_conditions":[2.7272556E-2,1.4227204E-1,5.7762492E-2,-3.4821417E-2,-1.5444571E-1,7.817842E-1,1E0,4.2105284E-2,-5.606244E-2,3.4957474E-1,6.582744E-2,5.059414E-1,9.07424E-2,6.258307E-2,4.6329892E-1,-1.6949873E-1,4.6000934E-1,-3.8063187E-2,7.3486745E-2,1.15084415E-2,-1.7044997E-1,7.062849E-2,-5.945594E-2,-1.5202588E-2,1.5483071E-2],"split_indices":[1,2,2,0,0,1,3,2,0,2,2,1,0,2,2,0,1,0,0,0,0,0,0,0,0],"split_type":[0,0,0,0,0,0,0,0,0,0,0,0,0,0,0,0,0,0,0,0,0,0,0,0,0],"sum_hessian":[3.9147516E2,5.9835696E0,3.854916E2,1.7946508E0,4.188919E0,3.187351E1,3.536181E2,2.9053408E1,2.8201017E0,4.581709E1,3.07801E2,1.4383864E1,1.4669543E1,9.102606E0,3.671448E1,1.1014237E0,3.066996E2,4.922015E0,9.461849E0,1.0154182E0,8.087188E0,1.2176138E1,2.4538345E1,1.1605938E2,1.906402E2],"tree_param":{"num_deleted":"0","num_feature":"4","num_nodes":"25","size_leaf_vector":"1"}},{"base_weights":[4.084061E-2,5.903037E-2,-1.5449655E-1,9.613969E-3,5.3544825E-1,1.0658935E-1,-4.324206E-1,-8.1735027E-1,6.5770185E-1,7.4299425E-2,9.779939E-2,5.3850066E-2,-1.3959527E0,-1.3104644E-1,1.2954922E-2,8.0804783E-1,-3.9559692E-2,-6.1839707E-2,1.0534702E-2,-7.32527E-2,5.314293E-2,-2.1504779E-1,-2.6848827E-2,3.3031747E-2,9.342264E-2],"categories":[],"categories_nodes":[],"categories_segments":[],"categories_sizes":[],"default_left":[0,0,0,0,0,0,0,0,0,0,0,0,0,0,0,0,0,0,0,0,0,0,0,0,0],"id":11,"left_children":[1,3,-1,5,7,9,11,13,15,17,-1,19,21,-1,-1,23,-1,-1,-1,-1,-1,-1,-1,-1,-1],"loss_changes":[1.1154108E1,8.983212E0,0E0,1.5032196E1,6.7259617E0,7.897085E0,2.978777E1,2.0422916E0,5.8754845E0,6.061947E0,0E0,1.6816948E1,1.6987804E1,0E0,0E0,1.229063E0,0E0,0E0,0E0,0E0,0E0,0E0,0E0,0E0,0E0],"parents":[2147483647,0,0,1,1,3,3,4,4,5,5,6,6,7,7,8,8,9,9,11,11,12,12,15,15],"right_children":[2,4,-1,6,8,10,12,14,16,18,-1,20,22,-1,-1,24,-1,-1,-1,-1,-1,-1,-1,-1,-1],"split_conditions":[9.81243E-1,9.312566E-1,-1.5449655E-1,7.324139E-1,2.1326828E-1,9.881909E-1,5.8937174E-1,9.581346E-1,7.619658E-1,5.7267003E-2,9.779939E-2,3.9275226E-1,8.724782E-1,-1.3104644E-1,1.2954922E-2,4.3244636E-1,-3.9559692E-2,-6.1839707E-2,1.0534702E-2,-7.32527E-2,5.314293E-2,-2.1504779E-1,-2.6848827E-2,3.3031747E-2,9.342264E-2],"split_indices":[2,2,0,2,1,1,1,2,1,1,0,1,2,0,0,1,0,0,0,0,0,0,0,0,0],"split_type":[0,0,0,0,0,0,0,0,0,0,0,0,0,0,0,0,0,0,0,0,0,0,0,0,0],"sum_hessian":[3.855943E2,3.8271167E2,2.8826156E0,3.4832217E2,3.4389515E1,2.867732E2,6.1548965E1,2.0755851E0,3.231393E1,2.7820688E2,8.566311E0,4.177736E1,1.9771608E1,1.0555617E0,1.0200233E0,2.8666348E1,3.647582E0,1.0579194E1,2.676277E2,1.5403678E1,2.637368E1,1.0976291E1,8.795319E0,7.2888823E0,2.1377466E1],"tree_param":{"num_deleted":"0","num_feature":"4","num_nodes":"25","size_leaf_vector":"1"}},{"base_weights":[2.6360786E-2,-7.024733E-1,5.330854E-2,-1.2932871E-1,3.9223123E-2,4.2572048E-1,-7.848297E-3,7.339549E-2,-6.164519E-1,5.321325E-1,-1.1129106E0,-1.6405699E0,3.2664064E-2,-1.0860851E-1,3.0037379E-2,-2.4033636E-1,6.7213446E-1,-1.562131E-1,-3.1114735E-3,2.3029983E-2,-2.340288E-1,-1.4943759E-1,1.4886068E-1,7.615476E-2,-8.473386E-2,-4.011703E-3,7.8867584E-2,8.626568E-3,-8.070588E-2,1.0788651E-1,1.0344877E-2],"categories":[],"categories_nodes":[],"categories_segments":[],"categories_sizes":[],"default_left":[0,0,0,0,0,0,0,0,0,0,0,0,0,0,0,0,0,0,0,0,0,0,0,0,0,0,0,0,0,0,0],"id":12,"left_children":[1,3,5,-1,7,9,11,-1,13,15,17,19,21,-1,-1,23,25,-1,-1,-1,-1,27,29,-1,-1,-1,-1,-1,-1,-1,-1],"loss_changes":[7.73749E0,6.3521724E0,8.744006E0,0E0,4.154264E0,9.69154E0,2.201918E1,0E0,2.5714817E0,5.8763027E0,1.6753597E0,1.1571592E1,6.8611684E0,0E0,0E0,6.405543E0,3.796959E0,0E0,0E0,0E0,0E0,1.9723822E1,8.079712E0,0E0,0E0,0E0,0E0,0E0,0E0,0E0,0E0],"parents":[2147483647,0,0,1,1,2,2,4,4,5,5,6,6,8,8,9,9,10,10,11,11,12,12,15,15,16,16,21,21,22,22],"right_children":[2,4,6,-1,8,10,12,-1,14,16,18,20,22,-1,-1,24,26,-1,-1,-1,-1,28,30,-1,-1,-1,-1,-1,-1,-1,-1],"split_conditions":[5.7267003E-2,2E0,1.2127906E-1,-1.2932871E-1,8.924164E-3,8.6899287E-1,1.6201474E-1,7.339549E-2,5.176951E-1,2.8376812E-1,9.7397625E-1,2.3061861E-1,4.8158282E-1,-1.0860851E-1,3.0037379E-2,7.925493E-2,1E0,-1.562131E-1,-3.1114735E-3,2.3029983E-2,-2.340288E-1,3.37516E-1,4.85297E-1,7.615476E-2,-8.473386E-2,-4.011703E-3,7.8867584E-2,8.626568E-3,-8.070588E-2,1.0788651E-1,1.0344877E-2],"split_indices":[1,0,2,0,1,1,2,0,2,1,1,1,1,0,0,1,0,0,0,0,0,1,1,0,0,0,0,0,0,0,0],"split_type":[0,0,0,0,0,0,0,0,0,0,0,0,0,0,0,0,0,0,0,0,0,0,0,0,0,0,0,0,0,0,0],"sum_hessian":[3.929023E2,1.2536087E1,3.8036624E2,6.431909E0,6.104178E0,5.2621758E1,3.2774448E2,2.9509163E0,3.153262E0,5.0196384E1,2.4253705E0,6.560718E0,3.2118375E2,1.9741678E0,1.179094E0,7.4271865E0,4.27692E1,1.1778145E0,1.247556E0,2.0208528E0,4.539865E0,1.2460886E2,1.965749E2,2.5958958E0,4.8312907E0,6.031687E0,3.6737514E1,9.257829E1,3.2030556E1,7.4600596E0,1.8911485E2],"tree_param":{"num_deleted":"0","num_feature":"4","num_nodes":"31","size_leaf_vector":"1"}},{"base_weights":[4.575299E-2,6.147401E-2,-1.4025567E-1,-1.0325938E0,8.0045894E-2,-2.8860677E-2,-1.2115051E-1,3.727509E-2,5.274532E-1,1.5835054E-1,-1.6701466E-1,6.381072E-1,-7.149015E-2,-1.457394E-1,1.9607246E-2,9.236132E-2,-2.4585092E-2,-8.199661E-3,7.3165946E-2],"categories":[],"categories_nodes":[],"categories_segments":[],"categories_sizes":[],"default_left":[0,0,0,0,0,0,0,0,0,0,0,0,0,0,0,0,0,0,0],"id":13,"left_children":[1,3,-1,5,7,-1,-1,9,11,13,15,17,-1,-1,-1,-1,-1,-1,-1],"loss_changes":[8.845658E0,7.8726063E0,0E0,1.856165E-1,7.2063117E0,0E0,0E0,8.68706E0,5.203948E0,1.3748521E1,1.149617E1,2.250493E0,0E0,0E0,0E0,0E0,0E0,0E0,0E0],"parents":[2147483647,0,0,1,1,3,3,4,4,7,7,8,8,9,9,10,10,11,11],"right_children":[2,4,-1,6,8,-1,-1,10,12,14,16,18,-1,-1,-1,-1,-1,-1,-1],"split_conditions":[9.81243E-1,2.7272556E-2,-1.4025567E-1,1.4227204E-1,9.312566E-1,-2.8860677E-2,-1.2115051E-1,5.4568076E-1,8.863497E-1,6.187072E-2,6.12236E-2,3.0105546E-1,-7.149015E-2,-1.457394E-1,1.9607246E-2,9.236132E-2,-2.4585092E-2,-8.199661E-3,7.3165946E-2],"split_indices":[2,1,0,2,2,0,0,2,1,1,1,1,0,0,0,0,0,0,0],"split_type":[0,0,0,0,0,0,0,0,0,0,0,0,0,0,0,0,0,0,0],"sum_hessian":[3.8720724E2,3.8453854E2,2.6686857E0,4.961689E0,3.7957684E2,1.8300815E0,3.1316075E0,3.4814383E2,3.143303E1,2.1911108E2,1.2903275E2,2.9606125E1,1.8269053E0,3.6503801E0,2.1546071E2,7.52934E0,1.215034E2,3.3024423E0,2.6303682E1],"tree_param":{"num_deleted":"0","num_feature":"4","num_nodes":"19","size_leaf_vector":"1"}},{"base_weights":[2.4343232E-2,2.8774166E-1,-5.372407E-2,-4.0722567E-1,4.4402865E-1,-2.092835E0,-6.3609416E-3,3.1641173E-1,-1.2197269E0,-6.1120784E-1,5.211213E-1,-2.4469395E-1,-1.3551183E-2,-1.2142438E-1,1.8874696E-1,5.243209E-1,-1.0024638E-2,-1.9361146E-1,2.7362976E-2,-1.1200533E-1,-9.0892665E-2,2.9063132E-1,7.59331E-1,-3.376531E-2,-5.410833E-1,5.9147143E-1,-2.8678002E-2,-3.3083272E-3,8.3197914E-2,5.3969897E-2,-7.0160575E-2,-6.8053275E-2,4.211848E-2,7.8909636E-2,1.2178996E-2,-2.8017504E-2,2.191647E-2,-2.6425728E-1,-7.5191045E-3,1.7391916E-2,8.958435E-2,2.9104156E-2,-8.287119E-2],"categories":[],"categories_nodes":[],"categories_segments":[],"categories_sizes":[],"default_left":[0,0,0,0,0,0,0,0,0,0,0,0,0,0,0,0,0,0,0,0,0,0,0,0,0,0,0,0,0,0,0,0,0,0,0,0,0,0,0,0,0,0,0],"id":14,"left_children":[1,3,5,7,9,11,13,15,17,19,21,-1,-1,23,25,27,-1,-1,-1,-1,29,31,33,35,37,39,41,-1,-1,-1,-1,-1,-1,-1,-1,-1,-1,-1,-1,-1,-1,-1,-1],"loss_changes":[7.931572E0,9.85434E0,2.843097E1,1.0580725E1,6.3943033E0,3.8770428E0,6.5735035E0,9.911834E-1,9.85674E0,1.1985681E0,3.3402328E0,0E0,0E0,6.7077074E0,9.576165E0,1.3387944E0,0E0,0E0,0E0,0E0,2.3091726E0,5.171129E0,3.8489532E-1,9.729764E0,3.0376629E1,4.520111E0,1.8751387E1,0E0,0E0,0E0,0E0,0E0,0E0,0E0,0E0,0E0,0E0,0E0,0E0,0E0,0E0,0E0,0E0],"parents":[2147483647,0,0,1,1,2,2,3,3,4,4,5,5,6,6,7,7,8,8,9,9,10,10,13,13,14,14,15,15,20,20,21,21,22,22,23,23,24,24,25,25,26,26],"right_children":[2,4,6,8,10,12,14,16,18,20,22,-1,-1,24,26,28,-1,-1,-1,-1,30,32,34,36,38,40,42,-1,-1,-1,-1,-1,-1,-1,-1,-1,-1,-1,-1,-1,-1,-1,-1],"split_conditions":[2.4002437E-1,2E0,2.775008E-1,6.258307E-2,2.3391707E-2,8.171885E-1,6.944591E-1,6.4178866E-1,2.0511784E-1,4.1973564E-1,2E0,-2.4469395E-1,-1.3551183E-2,5.8937174E-1,7.652059E-1,2.721541E-2,-1.0024638E-2,-1.9361146E-1,2.7362976E-2,-1.1200533E-1,6.1872506E-1,2.8376812E-1,8.4416384E-1,6.940413E-1,6.2381864E-1,2E0,7.053908E-1,-3.3083272E-3,8.3197914E-2,5.3969897E-2,-7.0160575E-2,-6.8053275E-2,4.211848E-2,7.8909636E-2,1.2178996E-2,-2.8017504E-2,2.191647E-2,-2.6425728E-1,-7.5191045E-3,1.7391916E-2,8.958435E-2,2.9104156E-2,-8.287119E-2],"split_indices":[2,3,2,2,2,1,1,1,2,1,0,0,0,1,1,2,0,0,0,0,1,1,1,2,1,0,2,0,0,0,0,0,0,0,0,0,0,0,0,0,0,0,0],"split_type":[0,0,0,0,0,0,0,0,0,0,0,0,0,0,0,0,0,0,0,0,0,0,0,0,0,0,0,0,0,0,0,0,0,0,0,0,0,0,0,0,0,0,0],"sum_hessian":[3.8195853E2,8.669672E1,2.952618E2,1.5357527E1,7.1339195E1,5.1840158E0,2.900778E2,8.542291E0,6.8152356E0,4.0611486E0,6.7278046E1,4.028839E0,1.1551766E0,1.8314714E2,1.0693065E2,5.60023E0,2.9420605E0,4.3504763E0,2.464759E0,1.0819209E0,2.9792278E0,3.6098896E1,3.1179148E1,1.5303906E2,3.0108084E1,3.6746502E1,7.018414E1,2.3522222E0,3.248008E0,1.4710124E0,1.5082154E0,3.4381475E0,3.266075E1,2.9297865E1,1.8812816E0,7.763712E1,7.540194E1,4.1529083E0,2.5955175E1,1.6625076E1,2.0121428E1,5.0737225E1,1.9446918E1],"tree_param":{"num_deleted":"0","num_feature":"4","num_nodes":"43","size_leaf_vector":"1"}},{"base_weights":[4.26024E-3,1.8597491E-2,-1.2733082E-1,-1.0800815E-2,6.6786176E-1,-2.8518704E-1,3.423385E-2,8.4449106E-1,-4.354847E-2,-6.951528E-1,1.4993805E-1,1.5987784E-1,-1.830169E-1,3.1837225E-1,1.0155856E-1,-2.1783482E-2,-1.85687E-1,4.397379E-2,-1.4474079E-1,6.170938E-3,7.80235E-2,-1.0592995E-1,-5.8507486E-3,5.6311525E-2,-6.156229E-3],"categories":[],"categories_nodes":[],"categories_segments":[],"categories_sizes":[],"default_left":[0,0,0,0,0,0,0,0,0,0,0,0,0,0,0,0,0,0,0,0,0,0,0,0,0],"id":15,"left_children":[1,3,-1,5,7,9,11,13,-1,15,17,19,21,23,-1,-1,-1,-1,-1,-1,-1,-1,-1,-1,-1],"loss_changes":[6.9282613E0,7.338475E0,0E0,4.5538154E0,3.8377423E0,9.483051E0,8.635261E0,7.2667694E-1,0E0,1.4239165E1,1.3042788E1,1.2057705E1,1.2426204E1,6.5963215E-1,0E0,0E0,0E0,0E0,0E0,0E0,0E0,0E0,0E0,0E0,0E0],"parents":[2147483647,0,0,1,1,3,3,4,4,5,5,6,6,7,7,9,9,10,10,11,11,12,12,13,13],"right_children":[2,4,-1,6,8,10,12,14,-1,16,18,20,22,24,-1,-1,-1,-1,-1,-1,-1,-1,-1,-1,-1],"split_conditions":[9.833204E-1,9.661338E-1,-1.2733082E-1,1.7274188E-1,7.619658E-1,6.2376857E-1,5.6165946E-1,6.494537E-1,-4.354847E-2,9.381511E-2,8.5689586E-1,5.122397E-1,6.530588E-1,1E0,1.0155856E-1,-2.1783482E-2,-1.85687E-1,4.397379E-2,-1.4474079E-1,6.170938E-3,7.80235E-2,-1.0592995E-1,-5.8507486E-3,5.6311525E-2,-6.156229E-3],"split_indices":[2,2,0,1,1,2,2,1,0,1,2,2,2,0,0,0,0,0,0,0,0,0,0,0,0],"split_type":[0,0,0,0,0,0,0,0,0,0,0,0,0,0,0,0,0,0,0,0,0,0,0,0,0],"sum_hessian":[3.8165668E2,3.789603E2,2.6963665E0,3.6380832E2,1.5152001E1,5.0478092E1,3.133302E2,1.3442591E1,1.709411E0,2.5647232E1,2.483086E1,1.9906192E2,1.14268295E2,4.495258E0,8.947332E0,1.9501814E1,6.1454186E0,2.1990822E1,2.8400393E0,1.7342818E2,2.5633743E1,1.2715223E1,1.0155307E2,2.4542787E0,2.0409791E0],"tree_param":{"num_deleted":"0","num_feature":"4","num_nodes":"25","size_leaf_vector":"1"}},{"base_weights":[4.6713494E-2,-1.7016098E-1,1.15885615E-1,-5.447157E-2,-1.5357536E-1,6.5161705E-1,4.8830003E-2,9.106693E-2,-1.1483927E0,8.244506E-1,4.789614E-2,-5.0183177E-1,9.28598E-2,-2.2520044E-1,7.544738E-1,-1.5440072E0,1.6927356E-2,-1.044101E-2,8.778352E-2,-1.5592782E-1,7.099523E-1,-9.108299E-1,2.4014664E-1,3.5195243E-2,5.117853E-1,2.0721847E-2,-4.4944864E-2,2.6337637E-2,8.492003E-2,1.5689341E-2,-1.91872E-1,-5.5991084E-4,8.8145345E-2,-4.1774442E-4,-2.1113633E-1,7.0313625E-2,-1.0623344E-2,1.712288E-2,-3.80542E-2,7.2554044E-2,-3.1233776E-2],"categories":[],"categories_nodes":[],"categories_segments":[],"categories_sizes":[],"default_left":[0,0,0,0,0,0,0,0,0,0,0,0,0,0,0,0,0,0,0,0,0,0,0,0,0,0,0,0,0,0,0,0,0,0,0,0,0,0,0,0,0],"id":16,"left_children":[1,3,5,7,-1,9,11,13,15,17,19,21,23,25,27,29,-1,-1,-1,-1,31,33,35,37,39,-1,-1,-1,-1,-1,-1,-1,-1,-1,-1,-1,-1,-1,-1,-1,-1],"loss_changes":[5.7367363E0,1.4304234E1,1.02984705E1,1.4074408E1,0E0,3.1891613E0,6.3203773E0,1.6647228E1,5.939206E0,1.4362278E0,1.0977651E1,6.245389E0,5.757263E0,5.379736E0,7.4357986E-1,5.8462467E0,0E0,0E0,0E0,0E0,9.9487686E-1,1.3737379E1,1.446764E0,1.2195441E1,5.476621E0,0E0,0E0,0E0,0E0,0E0,0E0,0E0,0E0,0E0,0E0,0E0,0E0,0E0,0E0,0E0,0E0],"parents":[2147483647,0,0,1,1,2,2,3,3,5,5,6,6,7,7,8,8,9,9,10,10,11,11,12,12,13,13,14,14,15,15,20,20,21,21,22,22,23,23,24,24],"right_children":[2,4,6,8,-1,10,12,14,16,18,20,22,24,26,28,30,-1,-1,-1,-1,32,34,36,38,40,-1,-1,-1,-1,-1,-1,-1,-1,-1,-1,-1,-1,-1,-1,-1,-1],"split_conditions":[2.8376812E-1,2.4481638E-1,3.4823185E-1,7.90653E-1,-1.5357536E-1,6.5997475E-1,4.1973564E-1,6.940413E-1,9.65498E-1,1E0,8.541234E-1,2E0,9.312566E-1,2E0,8.6521916E-2,2.847622E-2,1.6927356E-2,-1.044101E-2,8.778352E-2,-1.5592782E-1,2E0,3.9404684E-1,1.950395E-1,6.878224E-1,7.619658E-1,2.0721847E-2,-4.4944864E-2,2.6337637E-2,8.492003E-2,1.5689341E-2,-1.91872E-1,-5.5991084E-4,8.8145345E-2,-4.1774442E-4,-2.1113633E-1,7.0313625E-2,-1.0623344E-2,1.712288E-2,-3.80542E-2,7.2554044E-2,-3.1233776E-2],"split_indices":[1,1,1,2,0,2,1,2,2,3,2,0,2,3,1,1,0,0,0,0,0,2,2,2,1,0,0,0,0,0,0,0,0,0,0,0,0,0,0,0,0],"split_type":[0,0,0,0,0,0,0,0,0,0,0,0,0,0,0,0,0,0,0,0,0,0,0,0,0,0,0,0,0,0,0,0,0,0,0,0,0,0,0,0,0],"sum_hessian":[3.7929663E2,9.084278E1,2.8845383E2,8.52534E1,5.589382E0,3.046782E1,2.5798602E2,7.637585E1,8.877555E0,2.3131622E1,7.336197E0,1.7777899E1,2.4020811E2,5.2288372E1,2.4087475E1,6.6878376E0,2.1897175E0,1.077464E0,2.205416E1,1.503215E0,5.8329816E0,1.13273735E1,6.450526E0,2.1278348E2,2.7424643E1,1.7742804E1,3.4545567E1,4.9825134E0,1.9104961E1,1.3165978E0,5.3712397E0,1.295545E0,4.5374365E0,7.3586082E0,3.968765E0,2.2229638E0,4.2275624E0,1.6116978E2,5.1613693E1,2.2015257E1,5.4093866E0],"tree_param":{"num_deleted":"0","num_feature":"4","num_nodes":"41","size_leaf_vector":"1"}},{"base_weights":[1.7200632E-2,2.880211E-2,-1.1420844E-1,-1.9179225E-3,3.706463E-1,-2.9616076E-2,4.8557496E-1,5.08853E-1,-5.839664E-1,-1.294395E-2,-1.5442245E-1,6.6285264E-1,-3.828698E-1,-0E0,8.000365E-2,4.1388016E-2,-1.505625E-1,-2.9881382E-2,4.803833E-3,-5.3194493E-2,8.57554E-2,5.872649E-2,-1.3003962E-1,3.806977E-2,-1.4690086E-1],"categories":[],"categories_nodes":[],"categories_segments":[],"categories_sizes":[],"default_left":[0,0,0,0,0,0,0,0,0,0,0,0,0,0,0,0,0,0,0,0,0,0,0,0,0],"id":17,"left_children":[1,3,-1,5,7,9,11,13,15,17,-1,19,21,23,-1,-1,-1,-1,-1,-1,-1,-1,-1,-1,-1],"loss_changes":[5.016805E0,3.980489E0,0E0,4.643791E0,4.558824E0,8.115015E0,3.253436E0,4.106493E0,5.2347007E0,5.7422733E0,0E0,4.4365754E0,4.766329E0,7.3795276E0,0E0,0E0,0E0,0E0,0E0,0E0,0E0,0E0,0E0,0E0,0E0],"parents":[2147483647,0,0,1,1,3,3,4,4,5,5,6,6,7,7,8,8,9,9,11,11,12,12,13,13],"right_children":[2,4,-1,6,8,10,12,14,16,18,-1,20,22,24,-1,-1,-1,-1,-1,-1,-1,-1,-1,-1,-1],"split_conditions":[9.833204E-1,9.312566E-1,-1.1420844E-1,9.763616E-1,7.619658E-1,9.112048E-1,2E0,3.8934454E-1,9.525343E-1,1E0,-1.5442245E-1,3.0358437E-1,2.309109E-1,3.3495188E-1,8.000365E-2,4.1388016E-2,-1.505625E-1,-2.9881382E-2,4.803833E-3,-5.3194493E-2,8.57554E-2,5.872649E-2,-1.3003962E-1,3.806977E-2,-1.4690086E-1],"split_indices":[2,2,0,1,1,2,0,1,2,3,0,2,2,1,0,0,0,0,0,0,0,0,0,0,0],"split_type":[0,0,0,0,0,0,0,0,0,0,0,0,0,0,0,0,0,0,0,0,0,0,0,0,0],"sum_hessian":[3.7612164E2,3.7392856E2,2.1930757E0,3.4419623E2,2.9732347E1,3.2721848E2,1.697775E1,2.6675508E1,3.0568378E0,3.2521747E2,2.0010047E0,1.4490104E1,2.4876468E0,1.0361483E1,1.6314026E1,1.812461E0,1.2443767E0,5.6438328E1,2.6877914E2,1.5943718E0,1.2895732E1,1.41862E0,1.0690267E0,9.157614E0,1.203869E0],"tree_param":{"num_deleted":"0","num_feature":"4","num_nodes":"25","size_leaf_vector":"1"}},{"base_weights":[2.9069059E-2,-7.240404E-1,4.4494275E-2,1.6887698E-2,-1.2137946E-1,1.0132455E-1,2.9246654E-2,-1.2792595E-1,4.7339614E-2,7.772061E-1,2.2439675E-2,2.5529746E-2,8.5009284E-2,-9.0501234E-2,3.9157053E-3],"categories":[],"categories_nodes":[],"categories_segments":[],"categories_sizes":[],"default_left":[0,0,0,0,0,0,0,0,0,0,0,0,0,0,0],"id":18,"left_children":[1,3,5,-1,-1,-1,7,-1,9,11,13,-1,-1,-1,-1],"loss_changes":[4.455806E0,3.7744927E0,5.4505105E0,0E0,0E0,0E0,8.841804E0,0E0,6.6407614E0,2.3082733E-2,5.5586867E0,0E0,0E0,0E0,0E0],"parents":[2147483647,0,0,1,1,2,2,6,6,8,8,9,9,10,10],"right_children":[2,4,6,-1,-1,-1,8,-1,10,12,14,-1,-1,-1,-1],"split_conditions":[2.7272556E-2,1.4227204E-1,2.847622E-2,1.6887698E-2,-1.2137946E-1,1.0132455E-1,5.7267003E-2,-1.2792595E-1,6.520211E-2,2.6589704E-1,8.4088415E-2,2.5529746E-2,8.5009284E-2,-9.0501234E-2,3.9157053E-3],"split_indices":[1,2,1,0,0,0,1,0,1,2,1,0,0,0,0],"split_type":[0,0,0,0,0,0,0,0,0,0,0,0,0,0,0],"sum_hessian":[3.8375302E2,6.1891174E0,3.775639E2,2.4680204E0,3.7210968E0,4.227602E0,3.733363E2,3.5903904E0,3.697459E2,1.0570411E1,3.591755E2,2.2910721E0,8.279338E0,4.8423824E0,3.5433313E2],"tree_param":{"num_deleted":"0","num_feature":"4","num_nodes":"15","size_leaf_vector":"1"}},{"base_weights":[3.4687568E-2,4.5928884E-2,-1.0977616E-1,-6.760553E-1,6.0705177E-2,1.5895454E-2,-1.1422048E-1,8.413429E-2,4.7908682E-2,-1.2260467E-1,6.706935E-2,7.3457666E-2,4.3095495E-3],"categories":[],"categories_nodes":[],"categories_segments":[],"categories_sizes":[],"default_left":[0,0,0,0,0,0,0,0,0,0,0,0,0],"id":19,"left_children":[1,3,-1,5,7,-1,-1,-1,9,-1,11,-1,-1],"loss_changes":[4.8154564E0,4.036653E0,0E0,3.3197415E0,3.5696888E0,0E0,0E0,0E0,8.990591E0,0E0,5.700695E0,0E0,0E0],"parents":[2147483647,0,0,1,1,3,3,4,4,8,8,10,10],"right_children":[2,4,-1,6,8,-1,-1,-1,10,-1,12,-1,-1],"split_conditions":[9.833204E-1,2.7272556E-2,-1.0977616E-1,1.4227204E-1,2.847622E-2,1.5895454E-2,-1.1422048E-1,8.413429E-2,5.7267003E-2,-1.2260467E-1,6.924359E-2,7.3457666E-2,4.3095495E-3],"split_indices":[2,1,0,2,1,0,0,0,1,0,1,0,0],"split_type":[0,0,0,0,0,0,0,0,0,0,0,0,0],"sum_hessian":[3.790913E2,3.768777E2,2.2136278E0,6.076516E0,3.7080118E2,2.4542403E0,3.622276E0,4.2878613E0,3.665133E2,3.953481E0,3.625598E2,1.0883958E1,3.5167587E2],"tree_param":{"num_deleted":"0","num_feature":"4","num_nodes":"13","size_leaf_vector":"1"}},{"base_weights":[7.948421E-3,3.9179048E-1,-2.349487E-2,5.319246E-1,-6.1341614E-1,-6.48973E-2,3.382604E-1,1.3518094E-2,6.566285E-1,-1.7709683E-1,5.8815677E-2,1.6564274E-3,-2.761758E-1,4.5373738E-1,-9.577988E-2,-8.1952214E-2,4.140169E-2,4.251041E-1,8.566927E-2,-1.7007507E-1,2.1366075E-1,1.4709811E-1,-1.0844121E0,1.0627786E-1,6.620629E-1,-1.5690451E-2,7.2258905E-2,2.369547E-3,-5.5895455E-2,-5.1096547E-2,4.159529E-2,-1.8389579E-2,5.604524E-2,-1.7934373E-1,-8.445307E-3,5.302201E-2,-6.9576874E-2,-6.74581E-2,8.621946E-2],"categories":[],"categories_nodes":[],"categories_segments":[],"categories_sizes":[],"default_left":[0,0,0,0,0,0,0,0,0,0,0,0,0,0,0,0,0,0,0,0,0,0,0,0,0,0,0,0,0,0,0,0,0,0,0,0,0,0,0],"id":20,"left_children":[1,3,5,7,9,11,13,15,17,-1,-1,19,21,23,-1,-1,-1,25,-1,27,29,31,33,35,37,-1,-1,-1,-1,-1,-1,-1,-1,-1,-1,-1,-1,-1,-1],"loss_changes":[4.6792784E0,4.617449E0,5.332267E0,1.6432276E0,7.5250645E0,4.5366006E0,6.066704E0,2.7560306E0,3.123474E-1,0E0,0E0,8.977088E0,2.6734661E1,2.3234115E0,0E0,0E0,0E0,2.492116E0,0E0,1.0314308E1,1.6514158E1,7.2915516E0,1.8575722E1,5.617595E0,6.555648E0,0E0,0E0,0E0,0E0,0E0,0E0,0E0,0E0,0E0,0E0,0E0,0E0,0E0,0E0],"parents":[2147483647,0,0,1,1,2,2,3,3,4,4,5,5,6,6,7,7,8,8,11,11,12,12,13,13,17,17,19,19,20,20,21,21,22,22,23,23,24,24],"right_children":[2,4,6,8,10,12,14,16,18,-1,-1,20,22,24,-1,-1,-1,26,-1,28,30,32,34,36,38,-1,-1,-1,-1,-1,-1,-1,-1,-1,-1,-1,-1,-1,-1],"split_conditions":[5.7762492E-2,7.817842E-1,9.312566E-1,2.096241E-1,3.608624E-2,7.053908E-1,9.833204E-1,4.2105284E-2,4.2105284E-2,-1.7709683E-1,5.8815677E-2,6.5092504E-1,5.8937174E-1,2E0,-9.577988E-2,-8.1952214E-2,4.140169E-2,5.059414E-1,8.566927E-2,2E0,2.8308728E-1,4.637517E-1,8.9500344E-1,1E0,2E0,-1.5690451E-2,7.2258905E-2,2.369547E-3,-5.5895455E-2,-5.1096547E-2,4.159529E-2,-1.8389579E-2,5.604524E-2,-1.7934373E-1,-8.445307E-3,5.302201E-2,-6.9576874E-2,-6.74581E-2,8.621946E-2],"split_indices":[2,1,2,1,2,2,2,2,2,0,0,1,1,0,0,0,0,1,0,0,2,1,1,0,3,0,0,0,0,0,0,0,0,0,0,0,0,0,0],"split_type":[0,0,0,0,0,0,0,0,0,0,0,0,0,0,0,0,0,0,0,0,0,0,0,0,0,0,0,0,0,0,0,0,0,0,0,0,0,0,0],"sum_hessian":[3.8200677E2,2.786284E1,3.5414392E2,2.5160927E1,2.7019145E0,3.1912753E2,3.5016403E1,5.3567743E0,1.9804152E1,1.0565164E0,1.6453981E0,2.4345346E2,7.5674065E1,3.3117687E1,1.8987151E0,1.1486031E0,4.2081714E0,1.158477E1,8.219381E0,1.3440517E2,1.09048294E2,5.038873E1,2.5285337E1,1.3442543E1,1.9675146E1,4.0445604E0,7.5402093E0,9.047488E1,4.3930298E1,2.3191475E1,8.585682E1,2.8310118E1,2.207861E1,1.4039968E1,1.124537E1,9.20831E0,4.234233E0,2.034095E0,1.764105E1],"tree_param":{"num_deleted":"0","num_feature":"4","num_nodes":"39","size_leaf_vector":"1"}},{"base_weights":[-5.5785975E-3,1.3856456E-1,-1.07358985E-1,-2.7508056E-2,6.759274E-1,-1.2640932E0,-6.854144E-2,1.8557107E-2,-1.9011243E-1,2.8400055E-1,9.2811227E-1,-1.7453723E-1,-2.1499736E-2,7.2055167E-1,-1.0814632E-1,-6.2447304E-1,1.2262001E-1,5.487139E-1,-8.343089E-1,1.0219683E-1,4.3995466E-2,9.389487E-2,-0E0,-1.9715701E-1,-6.5914966E-2,-9.871171E-3,-1.5352713E-1,3.7564285E-2,-3.264744E-2,-6.199801E-2,8.054691E-2,5.1137924E-2,-1.8376619E-1,-1.7991753E-2,1.5749773E-2],"categories":[],"categories_nodes":[],"categories_segments":[],"categories_sizes":[],"default_left":[0,0,0,0,0,0,0,0,0,0,0,0,0,0,0,0,0,0,0,0,0,0,0,0,0,0,0,0,0,0,0,0,0,0,0],"id":21,"left_children":[1,3,5,7,9,11,13,15,-1,17,19,-1,-1,21,23,25,27,29,31,-1,-1,-1,-1,-1,33,-1,-1,-1,-1,-1,-1,-1,-1,-1,-1],"loss_changes":[5.5255218E0,1.3977125E1,9.670764E0,1.0611193E1,3.1337013E0,2.782323E0,6.7974887E0,8.007616E0,0E0,5.6244736E0,1.715641E-1,0E0,0E0,1.6464548E0,1.5878618E1,7.5805383E0,1.1955908E1,5.1313615E0,6.5836906E0,0E0,0E0,0E0,0E0,0E0,5.237014E0,0E0,0E0,0E0,0E0,0E0,0E0,0E0,0E0,0E0,0E0],"parents":[2147483647,0,0,1,1,2,2,3,3,4,4,5,5,6,6,7,7,9,9,10,10,13,13,14,14,15,15,16,16,17,17,18,18,24,24],"right_children":[2,4,6,8,10,12,14,16,-1,18,20,-1,-1,22,24,26,28,30,32,-1,-1,-1,-1,-1,34,-1,-1,-1,-1,-1,-1,-1,-1,-1,-1],"split_conditions":[3.9869845E-1,3.466252E-1,4.3366757E-1,3.3290872E-1,6.6066587E-1,8.001826E-1,4.4434184E-1,2.276567E-1,-1.9011243E-1,3.708813E-1,3.753636E-1,-1.7453723E-1,-2.1499736E-2,3.2161555E-1,4.6066245E-1,1.6505632E-1,6.6686875E-1,3.753636E-1,3.4957474E-1,1.0219683E-1,4.3995466E-2,9.389487E-2,-0E0,-1.9715701E-1,7.0853794E-1,-9.871171E-3,-1.5352713E-1,3.7564285E-2,-3.264744E-2,-6.199801E-2,8.054691E-2,5.1137924E-2,-1.8376619E-1,-1.7991753E-2,1.5749773E-2],"split_indices":[2,2,2,2,1,1,2,1,0,1,2,0,0,1,2,2,1,2,2,0,0,0,0,0,1,0,0,0,0,0,0,0,0,0,0],"split_type":[0,0,0,0,0,0,0,0,0,0,0,0,0,0,0,0,0,0,0,0,0,0,0,0,0,0,0,0,0,0,0,0,0,0,0],"sum_hessian":[3.738219E2,1.540827E2,2.1973921E2,1.1865068E2,3.5432014E1,5.5136256E0,2.1422559E2,1.1720093E2,1.4497585E0,1.52763815E1,2.0155632E1,3.0318758E0,2.4817498E0,8.884972E0,2.0534062E2,1.5146243E1,1.0205468E2,1.3042528E1,2.2338529E0,1.5357733E1,4.7979E0,6.4833026E0,2.4016688E0,2.97945E0,2.0236116E2,1.0726625E1,4.419618E0,6.557646E1,3.647822E1,1.8968751E0,1.1145654E1,1.2257357E0,1.0081172E0,1.3447908E2,6.788208E1],"tree_param":{"num_deleted":"0","num_feature":"4","num_nodes":"35","size_leaf_vector":"1"}},{"base_weights":[-2.5567275E-2,3.297097E-1,-6.921882E-2,-1.7811586E-1,6.2080663E-1,-4.0226766E-1,-3.3707493E-3,1.6567887E-1,-1.5062486E-1,6.984124E-1,-3.0549942E-2,-1.3347478E-1,-1.8756856E-1,2.5962466E-1,-7.0821345E-2,-1.2673746E-1,4.6326703E-1,-2.3976361E-2,7.9008985E-1,1.88025E-1,-9.828778E-1,-1.3232966E-1,5.755738E-1,-1.1490216E0,-1.651043E-2,-2.4673664E-3,7.27999E-2,1.6439391E-2,8.14707E-2,-1.3450138E-1,3.8787253E-2,-2.1359482E-1,-8.13147E-3,-5.833688E-2,6.748936E-2,9.156602E-2,-7.3618973E-3,2.0675827E-2,-1.5672301E-1,-9.930565E-2,1.9386304E-4],"categories":[],"categories_nodes":[],"categories_segments":[],"categories_sizes":[],"default_left":[0,0,0,0,0,0,0,0,0,0,0,0,0,0,0,0,0,0,0,0,0,0,0,0,0,0,0,0,0,0,0,0,0,0,0,0,0,0,0,0,0],"id":22,"left_children":[1,3,5,7,9,11,13,15,-1,17,-1,19,-1,21,23,-1,25,-1,27,29,31,33,35,37,39,-1,-1,-1,-1,-1,-1,-1,-1,-1,-1,-1,-1,-1,-1,-1,-1],"loss_changes":[5.6659756E0,6.112707E0,7.11539E0,7.6264243E0,2.2168922E0,2.0657848E1,4.874142E0,6.6321473E0,0E0,2.4376955E0,0E0,1.31960335E1,0E0,7.0939884E0,1.2724421E1,0E0,1.7093413E0,0E0,5.0416946E-2,1.1495869E1,1.32771635E1,1.0074647E1,7.124531E0,6.5354834E0,3.900622E0,0E0,0E0,0E0,0E0,0E0,0E0,0E0,0E0,0E0,0E0,0E0,0E0,0E0,0E0,0E0,0E0],"parents":[2147483647,0,0,1,1,2,2,3,3,4,4,5,5,6,6,7,7,9,9,11,11,13,13,14,14,16,16,18,18,19,19,20,20,21,21,22,22,23,23,24,24],"right_children":[2,4,6,8,10,12,14,16,-1,18,-1,20,-1,22,24,-1,26,-1,28,30,32,34,36,38,40,-1,-1,-1,-1,-1,-1,-1,-1,-1,-1,-1,-1,-1,-1,-1,-1],"split_conditions":[8.189312E-2,5.059414E-1,2.8308728E-1,5.7762492E-2,8.6899287E-1,2.424512E-1,3.959868E-1,1.9358406E-2,-1.5062486E-1,1E0,-3.0549942E-2,6.3587064E-1,-1.8756856E-1,6.5092504E-1,4.3366757E-1,-1.2673746E-1,4.2105284E-2,-2.3976361E-2,1.1720654E-2,1E0,1.6201474E-1,3.7813482E-1,7.326823E-1,1E0,2.7272556E-2,-2.4673664E-3,7.27999E-2,1.6439391E-2,8.14707E-2,-1.3450138E-1,3.8787253E-2,-2.1359482E-1,-8.13147E-3,-5.833688E-2,6.748936E-2,9.156602E-2,-7.3618973E-3,2.0675827E-2,-1.5672301E-1,-9.930565E-2,1.9386304E-4],"split_indices":[2,1,2,2,1,2,2,2,0,0,0,1,0,1,2,0,2,0,2,3,2,2,1,0,1,0,0,0,0,0,0,0,0,0,0,0,0,0,0,0,0],"split_type":[0,0,0,0,0,0,0,0,0,0,0,0,0,0,0,0,0,0,0,0,0,0,0,0,0,0,0,0,0,0,0,0,0,0,0,0,0,0,0,0,0],"sum_hessian":[3.6332138E2,3.8429073E1,3.248923E2,1.4089047E1,2.4340023E1,5.211598E1,2.7277634E2,1.2175054E1,1.9139947E0,2.2898577E1,1.4414476E0,4.5516277E1,6.599698E0,5.4504112E1,2.1827223E2,1.1952053E0,1.0979848E1,1.7256361E0,2.117294E1,3.3780544E1,1.1735736E1,2.4573912E1,2.99302E1,8.92927E0,2.0934296E2,4.207412E0,6.7724357E0,1.3912289E0,1.9781712E1,2.8468156E0,3.0933727E1,4.1997414E0,7.5359945E0,1.6111437E1,8.462474E0,1.9338089E1,1.0592112E1,2.2274497E0,6.70182E0,2.5128465E0,2.0683011E2],"tree_param":{"num_deleted":"0","num_feature":"4","num_nodes":"41","size_leaf_vector":"1"}},{"base_weights":[-4.965046E-3,-1.1683182E-1,6.563739E-2,-6.0122974E-2,-1.7898935E0,6.0881066E-1,2.8541742E-2,3.240375E-2,-4.4417E-1,-2.1328695E-1,-2.0061439E-2,7.638284E-1,-3.130297E-2,-1.6034238E-1,4.87887E-2,-4.4107044E-1,1.1827542E-1,-9.0262E-1,5.913196E-1,3.1732604E-1,1.00258686E-1,1.4729682E-1,-1.8184927E-1,1.9176414E-2,-1.14181004E-1,7.267024E-2,-5.054645E-3,3.0363468E-2,-1.4181773E-1,6.933135E-2,2.0708209E-2,-4.246838E-2,7.094036E-2,8.090827E-3,9.51738E-2,-6.529126E-2,2.6948063E-2],"categories":[],"categories_nodes":[],"categories_segments":[],"categories_sizes":[],"default_left":[0,0,0,0,0,0,0,0,0,0,0,0,0,0,0,0,0,0,0,0,0,0,0,0,0,0,0,0,0,0,0,0,0,0,0,0,0],"id":23,"left_children":[1,3,5,7,9,11,13,15,17,-1,-1,19,-1,-1,21,23,25,27,29,31,-1,33,35,-1,-1,-1,-1,-1,-1,-1,-1,-1,-1,-1,-1,-1,-1],"loss_changes":[3.0028381E0,1.3636889E1,4.589116E0,5.1854753E0,1.698638E0,2.489922E0,7.20188E0,4.8176146E0,1.4266639E1,0E0,0E0,7.7945614E-1,0E0,0E0,4.988347E0,8.474655E0,1.0466672E1,1.336726E1,6.784797E-2,2.4816866E0,0E0,7.9976616E0,1.4247993E1,0E0,0E0,0E0,0E0,0E0,0E0,0E0,0E0,0E0,0E0,0E0,0E0,0E0,0E0],"parents":[2147483647,0,0,1,1,2,2,3,3,4,4,5,5,6,6,7,7,8,8,11,11,14,14,15,15,16,16,17,17,18,18,19,19,21,21,22,22],"right_children":[2,4,6,8,10,12,14,16,18,-1,-1,20,-1,-1,22,24,26,28,30,32,-1,34,36,-1,-1,-1,-1,-1,-1,-1,-1,-1,-1,-1,-1,-1,-1],"split_conditions":[4.537281E-1,4.3244636E-1,4.85297E-1,3.3794242E-1,8.081625E-1,2E0,4.9563086E-1,1E0,4.1973564E-1,-2.1328695E-1,-2.0061439E-2,4.8158282E-1,-3.130297E-2,-1.6034238E-1,6.878224E-1,4.4434184E-1,2E0,1.6730799E-1,4.2617628E-1,7.085171E-1,1.00258686E-1,6.644913E-1,8.724782E-1,1.9176414E-2,-1.14181004E-1,7.267024E-2,-5.054645E-3,3.0363468E-2,-1.4181773E-1,6.933135E-2,2.0708209E-2,-4.246838E-2,7.094036E-2,8.090827E-3,9.51738E-2,-6.529126E-2,2.6948063E-2],"split_indices":[1,1,1,1,2,0,1,3,1,0,0,1,0,0,2,2,3,2,1,2,0,2,2,0,0,0,0,0,0,0,0,0,0,0,0,0,0],"split_type":[0,0,0,0,0,0,0,0,0,0,0,0,0,0,0,0,0,0,0,0,0,0,0,0,0,0,0,0,0,0,0,0,0,0,0,0,0],"sum_hessian":[3.7659457E2,1.4588297E2,2.3071161E2,1.426611E2,3.2218592E0,1.3098794E1,2.1761281E2,1.1586043E2,2.6800678E1,2.1762385E0,1.0456207E0,1.1526138E1,1.5726556E0,1.1688769E0,2.1644394E2,1.6655762E1,9.9204666E1,1.8776615E1,8.024064E0,5.3791056E0,6.147033E0,1.5234938E2,6.409456E1,9.249441E0,7.4063206E0,2.0599705E1,7.8604965E1,5.748772E0,1.30278425E1,5.1817565E0,2.8423073E0,1.728365E0,3.6507404E0,1.4237471E2,9.974661E0,3.1142267E1,3.295229E1],"tree_param":{"num_deleted":"0","num_feature":"4","num_nodes":"37","size_leaf_vector":"1"}},{"base_weights":[2.969628E-3,1.4650431E-1,-9.724776E-2,8.345589E-3,6.3207126E-1,-1.808627E-1,-4.166393E-2,2.0284234E-1,-4.625515E-1,4.000034E-1,8.278933E-1,-2.2113841E-2,-1.0615461E-1,9.99432E-2,8.424941E-1,-1.521447E-1,-1.6269183E0,-3.9673E-1,7.1238256E-1,9.071058E-1,1.3971219E-2,-5.29036E-2,6.218469E-1,2.06762E-2,-7.826438E-2,9.546888E-2,1.0479898E-2,-8.48573E-2,8.618086E-2,-7.1120183E-3,-1.9079195E-1,8.28268E-2,-1.8048021E-1,8.408064E-2,3.153563E-2,1.2723285E-2,9.565347E-2,-4.5068406E-2,1.7905502E-3,7.258818E-2,-0E0],"categories":[],"categories_nodes":[],"categories_segments":[],"categories_sizes":[],"default_left":[0,0,0,0,0,0,0,0,0,0,0,0,0,0,0,0,0,0,0,0,0,0,0,0,0,0,0,0,0,0,0,0,0,0,0,0,0,0,0,0,0],"id":24,"left_children":[1,3,5,7,9,-1,11,13,15,17,19,21,-1,23,25,27,29,31,33,35,-1,37,39,-1,-1,-1,-1,-1,-1,-1,-1,-1,-1,-1,-1,-1,-1,-1,-1,-1,-1],"loss_changes":[5.369326E0,1.0240665E1,2.0554783E1,1.1229297E1,9.196739E-1,0E0,4.121552E0,5.5106697E0,1.238233E1,5.0938206E0,6.174164E-1,4.1862645E0,0E0,7.4298277E0,7.147999E-1,2.2259462E1,2.7935333E0,1.2900093E1,2.012105E-1,2.7199078E-1,0E0,5.7842984E0,6.4407563E-1,0E0,0E0,0E0,0E0,0E0,0E0,0E0,0E0,0E0,0E0,0E0,0E0,0E0,0E0,0E0,0E0,0E0,0E0],"parents":[2147483647,0,0,1,1,2,2,3,3,4,4,6,6,7,7,8,8,9,9,10,10,11,11,13,13,14,14,15,15,16,16,17,17,18,18,19,19,21,21,22,22],"right_children":[2,4,6,8,10,-1,12,14,16,18,20,22,-1,24,26,28,30,32,34,36,-1,38,40,-1,-1,-1,-1,-1,-1,-1,-1,-1,-1,-1,-1,-1,-1,-1,-1,-1,-1],"split_conditions":[3.9869845E-1,3.466252E-1,4.3366757E-1,2.4002437E-1,6.6066587E-1,-1.808627E-1,9.81243E-1,2.2823812E-1,6.968532E-1,3.7813482E-1,3.933082E-1,9.7237575E-1,-1.0615461E-1,1.8200105E-1,6.0094965E-1,6.5092504E-1,2.424512E-1,3.4957474E-1,1.7713878E-1,3.4957474E-1,1.3971219E-2,1E0,7.619658E-1,2.06762E-2,-7.826438E-2,9.546888E-2,1.0479898E-2,-8.48573E-2,8.618086E-2,-7.1120183E-3,-1.9079195E-1,8.28268E-2,-1.8048021E-1,8.408064E-2,3.153563E-2,1.2723285E-2,9.565347E-2,-4.5068406E-2,1.7905502E-3,7.258818E-2,-0E0],"split_indices":[2,2,2,2,1,0,2,2,1,2,2,2,0,2,1,1,2,2,1,2,0,0,1,0,0,0,0,0,0,0,0,0,0,0,0,0,0,0,0,0,0],"split_type":[0,0,0,0,0,0,0,0,0,0,0,0,0,0,0,0,0,0,0,0,0,0,0,0,0,0,0,0,0,0,0,0,0,0,0,0,0,0,0,0,0],"sum_hessian":[3.6993915E2,1.5222395E2,2.177152E2,1.1985363E2,3.2370316E1,5.303948E0,2.1241124E2,8.557459E1,3.4279037E1,1.7136557E1,1.523376E1,2.1001602E2,2.395216E0,7.534477E1,1.0229818E1,2.8470905E1,5.808131E0,4.622233E0,1.2514324E1,1.3103052E1,2.1307077E0,2.0189487E2,8.1211605E0,6.833602E1,7.0087523E0,8.378729E0,1.8510895E0,1.7081709E1,1.1389196E1,1.2305498E0,4.5775814E0,2.7641282E0,1.8581048E0,7.9985623E0,4.5157614E0,1.2211001E0,1.1881951E1,2.9505955E1,1.7238892E2,6.783316E0,1.3378444E0],"tree_param":{"num_deleted":"0","num_feature":"4","num_nodes":"41","size_leaf_vector":"1"}},{"base_weights":[1.2819045E-2,1.08225636E-1,-1.0633012E-1,2.3278803E-2,6.9719505E-1,-5.753754E-1,-1.5653582E-2,7.101385E-2,-1.8615386E-1,3.368111E-1,8.9503095E-2,-1.3371055E0,5.262032E-1,2.0029541E-2,-1.5674342E-1,1.2646304E-1,-3.792462E-1,-3.87759E-1,8.317205E-2,-9.693401E-2,-2.3886302E-1,-1.5671026E-2,8.223008E-2,-1.5280973E-2,9.9803105E-2,-4.2017447E-3,4.581676E-2,-1.24543644E-1,5.8041167E-2,6.685649E-2,-1.2053958E-1,-6.771178E-2,8.597197E-2,8.679863E-3,-5.545322E-2],"categories":[],"categories_nodes":[],"categories_segments":[],"categories_sizes":[],"default_left":[0,0,0,0,0,0,0,0,0,0,0,0,0,0,0,0,0,0,0,0,0,0,0,0,0,0,0,0,0,0,0,0,0,0,0],"id":25,"left_children":[1,3,5,7,9,11,13,15,-1,17,-1,19,21,23,-1,25,27,29,-1,31,-1,-1,-1,33,-1,-1,-1,-1,-1,-1,-1,-1,-1,-1,-1],"loss_changes":[4.315262E0,1.0468455E1,7.0900702E0,1.6776365E1,1.3080902E0,2.3844501E1,8.111617E0,4.619156E0,0E0,4.81215E0,0E0,2.0890387E1,2.7037282E0,4.9922814E0,0E0,9.257337E0,1.799062E1,6.262746E0,0E0,5.942989E0,0E0,0E0,0E0,7.688846E0,0E0,0E0,0E0,0E0,0E0,0E0,0E0,0E0,0E0,0E0,0E0],"parents":[2147483647,0,0,1,1,2,2,3,3,4,4,5,5,6,6,7,7,9,9,11,11,12,12,13,13,15,15,16,16,17,17,19,19,23,23],"right_children":[2,4,6,8,10,12,14,16,-1,18,-1,20,22,24,-1,26,28,30,-1,32,-1,-1,-1,34,-1,-1,-1,-1,-1,-1,-1,-1,-1,-1,-1],"split_conditions":[5.4568076E-1,5.122397E-1,6.4428174E-1,4.9339476E-1,2E0,8.673759E-1,9.8048234E-1,4.4434184E-1,-1.8615386E-1,6.157748E-1,8.9503095E-2,1.3956207E-1,9.273107E-1,9.763616E-1,-1.5674342E-1,3.1955525E-1,8.6835796E-1,5.136162E-1,8.317205E-2,1.3373028E-1,-2.3886302E-1,-1.5671026E-2,8.223008E-2,7.652059E-1,9.9803105E-2,-4.2017447E-3,4.581676E-2,-1.24543644E-1,5.8041167E-2,6.685649E-2,-1.2053958E-1,-6.771178E-2,8.597197E-2,8.679863E-3,-5.545322E-2],"split_indices":[2,2,2,2,0,1,1,2,0,1,0,1,1,1,0,2,1,2,0,1,0,0,0,1,0,0,0,0,0,0,0,0,0,0,0],"split_type":[0,0,0,0,0,0,0,0,0,0,0,0,0,0,0,0,0,0,0,0,0,0,0,0,0,0,0,0,0,0,0,0,0,0,0],"sum_hessian":[3.7657495E2,2.0966566E2,1.6690929E2,1.8474854E2,2.4917135E1,2.5562178E1,1.413471E2,1.8164473E2,3.1038098E0,1.0446553E1,1.4470582E1,1.4976294E1,1.0585884E1,1.3955426E2,1.792847E0,1.628862E2,1.875852E1,4.28939E0,6.157163E0,7.667085E0,7.309208E0,3.3130736E0,7.2728105E0,1.3601768E2,3.5365732E0,1.08689026E2,5.4197174E1,9.679388E0,9.079131E0,1.9374852E0,2.3519046E0,5.1105266E0,2.5565584E0,1.1527028E2,2.0747412E1],"tree_param":{"num_deleted":"0","num_feature":"4","num_nodes":"35","size_leaf_vector":"1"}},{"base_weights":[-1.09380325E-2,4.654898E-1,-4.653445E-2,5.912841E-1,-8.350634E-2,-1.5921518E-1,-3.2759033E-2,-8.658721E-2,7.822458E-2,-1.9016635E-1,6.552333E-2,3.0124098E-2,-3.4626476E-2,-4.703457E-1,1.6246545E-1,3.3159602E-1,-3.9752144E-2,1.071113E-2,-5.766681E-2,2.2407616E-2,-1.2504171E-1,6.0948443E-2,-4.4454705E-2,-1.3997974E-1,3.0792437E-3],"categories":[],"categories_nodes":[],"categories_segments":[],"categories_sizes":[],"default_left":[0,0,0,0,0,0,0,0,0,0,0,0,0,0,0,0,0,0,0,0,0,0,0,0,0],"id":26,"left_children":[1,3,5,7,-1,-1,9,11,-1,13,15,-1,-1,17,19,21,23,-1,-1,-1,-1,-1,-1,-1,-1],"loss_changes":[6.1017084E0,4.8050804E0,6.931346E0,3.243804E0,0E0,0E0,5.221015E0,8.107992E-1,0E0,1.2962194E1,5.8541303E0,0E0,0E0,4.6112175E0,5.4006624E0,1.3187645E1,1.4551238E1,0E0,0E0,0E0,0E0,0E0,0E0,0E0,0E0],"parents":[2147483647,0,0,1,1,2,2,3,3,6,6,7,7,9,9,10,10,13,13,14,14,15,15,16,16],"right_children":[2,4,6,8,-1,-1,10,12,-1,14,16,-1,-1,18,20,22,24,-1,-1,-1,-1,-1,-1,-1,-1],"split_conditions":[5.7762492E-2,7.817842E-1,6.582744E-2,2.276567E-1,-8.350634E-2,-1.5921518E-1,4.6000934E-1,1E0,7.822458E-2,2E0,6.0094965E-1,3.0124098E-2,-3.4626476E-2,1.6730799E-1,4.3244636E-1,2E0,6.2538135E-1,1.071113E-2,-5.766681E-2,2.2407616E-2,-1.2504171E-1,6.0948443E-2,-4.4454705E-2,-1.3997974E-1,3.0792437E-3],"split_indices":[2,1,2,1,0,0,1,3,0,0,1,0,0,2,1,0,1,0,0,0,0,0,0,0,0],"split_type":[0,0,0,0,0,0,0,0,0,0,0,0,0,0,0,0,0,0,0,0,0,0,0,0,0],"sum_hessian":[3.588436E2,2.3492453E1,3.3535114E2,2.223658E1,1.2558737E0,1.380048E0,3.3397107E2,4.952501E0,1.7284079E1,1.2822433E2,2.0574675E2,1.735441E0,3.2170599E0,7.1331566E1,5.6892773E1,5.7683346E1,1.480634E2,1.0943526E1,6.038804E1,5.579274E1,1.1000347E0,4.280756E1,1.4875786E1,5.977389E0,1.4208601E2],"tree_param":{"num_deleted":"0","num_feature":"4","num_nodes":"25","size_leaf_vector":"1"}},{"base_weights":[2.717543E-3,-9.25914E-2,2.0340841E-2,8.899733E-2,8.725939E-3,-1.0232542E-1,2.1428097E-2,3.152304E-2,-9.237053E-2,-9.886384E-4,4.4152956E-2],"categories":[],"categories_nodes":[],"categories_segments":[],"categories_sizes":[],"default_left":[0,0,0,0,0,0,0,0,0,0,0],"id":27,"left_children":[1,-1,3,-1,5,-1,7,9,-1,-1,-1],"loss_changes":[5.977774E0,0E0,3.5728374E0,0E0,4.65967E0,0E0,3.3681273E0,6.086471E0,0E0,0E0,0E0],"parents":[2147483647,0,0,2,2,4,4,6,6,7,7],"right_children":[2,-1,4,-1,6,-1,8,10,-1,-1,-1],"split_conditions":[2.7272556E-2,-9.25914E-2,2.847622E-2,8.899733E-2,5.7267003E-2,-1.0232542E-1,9.833204E-1,9.312566E-1,-9.237053E-2,-9.886384E-4,4.4152956E-2],"split_indices":[1,0,1,0,1,0,2,2,0,0,0],"split_type":[0,0,0,0,0,0,0,0,0,0,0],"sum_hessian":[3.6757288E2,5.300275E0,3.6227258E2,3.1662207E0,3.5910638E2,2.819611E0,3.5628677E2,3.5406082E2,2.2259388E0,3.2269003E2,3.137079E1],"tree_param":{"num_deleted":"0","num_feature":"4","num_nodes":"11","size_leaf_vector":"1"}},{"base_weights":[-9.132939E-3,3.861932E-3,-1.0595198E-1,-8.396016E-1,1.9546311E-2,-2.497352E-2,-9.7441286E-2,2.6866894E-3,6.6125345E-1,3.287947E-1,-2.3100676E-2,9.210681E-2,4.49171E-3,4.8921347E-2,-1.3924439E-1,-1.20643035E-1,-4.7631172E-5],"categories":[],"categories_nodes":[],"categories_segments":[],"categories_sizes":[],"default_left":[0,0,0,0,0,0,0,0,0,0,0,0,0,0,0,0,0],"id":28,"left_children":[1,3,-1,5,7,-1,-1,9,11,13,15,-1,-1,-1,-1,-1,-1],"loss_changes":[4.988474E0,4.629934E0,0E0,2.0389557E-2,3.711407E0,0E0,0E0,2.9192E0,1.248534E0,7.9601793E0,8.396986E0,0E0,0E0,0E0,0E0,0E0,0E0],"parents":[2147483647,0,0,1,1,3,3,4,4,7,7,8,8,9,9,10,10],"right_children":[2,4,-1,6,8,-1,-1,10,12,14,16,-1,-1,-1,-1,-1,-1],"split_conditions":[9.81243E-1,2.7272556E-2,-1.0595198E-1,1.4227204E-1,9.7412777E-1,-2.497352E-2,-9.7441286E-2,6.258307E-2,1E0,8.4416384E-1,7.701917E-2,9.210681E-2,4.49171E-3,4.8921347E-2,-1.3924439E-1,-1.20643035E-1,-4.7631172E-5],"split_indices":[2,1,0,2,2,0,0,2,0,1,2,0,0,0,0,0,0],"split_type":[0,0,0,0,0,0,0,0,0,0,0,0,0,0,0,0,0],"sum_hessian":[3.5578195E2,3.5281635E2,2.9655893E0,4.886039E0,3.4793033E2,1.8429062E0,3.0431323E0,3.406427E2,7.287617E0,2.3955322E1,3.1668738E2,4.4906936E0,2.7969236E0,2.2948313E1,1.007009E0,4.385857E0,3.123015E2],"tree_param":{"num_deleted":"0","num_feature":"4","num_nodes":"17","size_leaf_vector":"1"}},{"base_weights":[5.9659127E-2,6.9531225E-2,-8.8759355E-2,4.0179055E-2,3.7091193E-1,6.491637E-2,-5.080933E-1,5.0862175E-1,-2.7263921E-1,4.287505E-2,6.958959E-1,2.767778E-1,-8.438625E-1,1.1018619E-2,8.507404E-2,-1.2582187E-1,2.4629669E-1,2.632362E-3,8.151418E-2,9.344817E-2,1.8689653E-2,3.4513976E-2,2.4357752E-5,-1.15282975E-1,2.2575626E-2,3.3650503E-2,-8.296489E-2,7.400932E-2,-3.9237242E-2],"categories":[],"categories_nodes":[],"categories_segments":[],"categories_sizes":[],"default_left":[0,0,0,0,0,0,0,0,0,0,0,0,0,0,0,0,0,0,0,0,0,0,0,0,0,0,0,0,0],"id":29,"left_children":[1,3,-1,5,7,9,11,13,15,17,19,21,23,25,-1,-1,27,-1,-1,-1,-1,-1,-1,-1,-1,-1,-1,-1,-1],"loss_changes":[3.4763622E0,3.194323E0,0E0,4.5835686E0,3.085187E0,4.394432E0,4.246415E0,4.525996E0,3.902822E0,3.9138904E0,9.254489E-1,6.752148E-2,4.0070643E0,3.8473332E0,0E0,0E0,2.1928666E0,0E0,0E0,0E0,0E0,0E0,0E0,0E0,0E0,0E0,0E0,0E0,0E0],"parents":[2147483647,0,0,1,1,3,3,4,4,5,5,6,6,7,7,8,8,9,9,10,10,11,11,12,12,13,13,16,16],"right_children":[2,4,-1,6,8,10,12,14,16,18,20,22,24,26,-1,-1,28,-1,-1,-1,-1,-1,-1,-1,-1,-1,-1,-1,-1],"split_conditions":[9.833204E-1,9.312566E-1,-8.8759355E-2,8.7900466E-1,7.619658E-1,9.881909E-1,2E0,4.3244636E-1,8.673759E-1,8.724782E-1,6.0238224E-1,1E0,9.446421E-1,3.37516E-1,8.507404E-2,-1.2582187E-1,8.863497E-1,2.632362E-3,8.151418E-2,9.344817E-2,1.8689653E-2,3.4513976E-2,2.4357752E-5,-1.15282975E-1,2.2575626E-2,3.3650503E-2,-8.296489E-2,7.400932E-2,-3.9237242E-2],"split_indices":[2,2,0,2,1,1,3,1,1,2,2,0,1,1,0,0,1,0,0,0,0,0,0,0,0,0,0,0,0],"split_type":[0,0,0,0,0,0,0,0,0,0,0,0,0,0,0,0,0,0,0,0,0,0,0,0,0,0,0,0,0],"sum_hessian":[3.6909756E2,3.667706E2,2.3269536E0,3.360716E2,3.0699015E1,3.2300293E2,1.3068671E1,2.567488E1,5.024136E0,3.1380164E2,9.201282E0,3.9053957E0,9.163275E0,1.1210333E1,1.4464545E1,1.0623223E0,3.9618137E0,3.0886264E2,4.939009E0,5.277289E0,3.9239926E0,2.5429893E0,1.3624065E0,7.0916095E0,2.0716655E0,8.815652E0,2.3946817E0,2.18828E0,1.7735335E0],"tree_param":{"num_deleted":"0","num_feature":"4","num_nodes":"29","size_leaf_vector":"1"}},{"base_weights":[-3.1757012E-2,-2.76894E-1,1.5859611E-2,-4.3993133E-1,4.5272106E-1,2.0559952E-1,-4.4633146E-2,-1.6621043E-1,-1.8859369E-1,1.0351043E-1,5.9025206E-2,-8.874654E-2,6.754745E-1,-1.662627E0,8.740068E-3,-2.996856E-1,8.9281194E-2,-1.20752804E-1,5.797764E-1,4.2738568E-2,-1.6149479E-1,-6.784355E-2,7.6778907E-1,-1.9966336E-1,1.3154316E-2,4.9548496E-2,-5.1056486E-1,-1.1428917E-2,-1.364759E-1,7.991027E-2,9.155694E-3,1.5241447E-2,-1.3334376E-1,8.75071E-2,1.5791493E-2,-5.4404773E-3,3.0817488E-2,-2.0335265E-1,-4.499679E-3],"categories":[],"categories_nodes":[],"categories_segments":[],"categories_sizes":[],"default_left":[0,0,0,0,0,0,0,0,0,0,0,0,0,0,0,0,0,0,0,0,0,0,0,0,0,0,0,0,0,0,0,0,0,0,0,0,0,0,0],"id":30,"left_children":[1,3,5,7,9,11,13,15,-1,-1,17,19,21,23,25,27,-1,-1,29,31,-1,-1,33,-1,-1,35,37,-1,-1,-1,-1,-1,-1,-1,-1,-1,-1,-1,-1],"loss_changes":[4.255548E0,7.347416E0,3.5192487E0,1.8843225E1,2.4246247E0,1.040539E1,2.0165932E1,6.4439898E0,0E0,0E0,6.6107206E0,9.650588E0,4.3984203E0,5.048321E0,4.768391E0,7.4263773E0,0E0,0E0,5.6264853E-1,6.900468E0,0E0,0E0,1.5082417E0,0E0,0E0,5.710311E0,1.1266002E1,0E0,0E0,0E0,0E0,0E0,0E0,0E0,0E0,0E0,0E0,0E0,0E0],"parents":[2147483647,0,0,1,1,2,2,3,3,4,4,5,5,6,6,7,7,10,10,11,11,12,12,13,13,14,14,15,15,18,18,19,19,22,22,25,25,26,26],"right_children":[2,4,6,8,10,12,14,16,-1,-1,18,20,22,24,26,28,-1,-1,30,32,-1,-1,34,-1,-1,36,38,-1,-1,-1,-1,-1,-1,-1,-1,-1,-1,-1,-1],"split_conditions":[1E0,8.590496E-1,2.4002437E-1,6.790182E-1,8.664502E-1,1.6201474E-1,2.775008E-1,6.7559874E-1,-1.8859369E-1,1.0351043E-1,9.194886E-1,8.6899287E-1,1.18734844E-1,8.1908685E-1,9.34211E-1,5.245284E-1,8.9281194E-2,-1.20752804E-1,9.581346E-1,1.4227204E-1,-1.6149479E-1,-6.784355E-2,7.972409E-1,-1.9966336E-1,1.3154316E-2,7.0853794E-1,9.5703745E-1,-1.1428917E-2,-1.364759E-1,7.991027E-2,9.155694E-3,1.5241447E-2,-1.3334376E-1,8.75071E-2,1.5791493E-2,-5.4404773E-3,3.0817488E-2,-2.0335265E-1,-4.499679E-3],"split_indices":[3,2,2,2,2,2,2,2,0,0,2,1,1,1,1,2,0,0,2,2,0,0,1,0,0,1,1,0,0,0,0,0,0,0,0,0,0,0,0],"split_type":[0,0,0,0,0,0,0,0,0,0,0,0,0,0,0,0,0,0,0,0,0,0,0,0,0,0,0,0,0,0,0,0,0,0,0,0,0,0,0],"sum_hessian":[3.6027536E2,5.776591E1,3.0250946E2,4.781414E1,9.951773E0,7.266026E1,2.2984918E2,4.166816E1,6.145981E0,2.9258478E0,7.0259247E0,4.5291782E1,2.736848E1,5.9555497E0,2.2389363E2,3.8043278E1,3.6248794E0,1.4147526E0,5.6111717E0,4.2981335E1,2.3104494E0,1.0699079E0,2.6298573E1,4.925143E0,1.0304067E0,2.0901787E2,1.4875761E1,3.3897602E1,4.1456776E0,3.0714035E0,2.5397685E0,4.1111446E1,1.8698864E0,2.1670351E1,4.628222E0,1.4966055E2,5.9357327E1,2.249774E0,1.2625987E1],"tree_param":{"num_deleted":"0","num_feature":"4","num_nodes":"39","size_leaf_vector":"1"}},{"base_weights":[-2.1037431E-2,-1.0361255E-2,-9.373336E-2,-1.2153009E-1,9.080179E-2,-7.9725266E-2,-1.6559313E-1,6.73655E-1,-2.7018772E-3,-4.0186495E-1,5.643288E-3,3.0087125E-1,9.2085767E-1,-3.664306E-1,6.5399416E-2,-0E0,-1.457408E-1,5.2694637E-2,-9.040472E-3,9.323319E-2,-6.8948254E-2,-0E0,1.0015463E-1,-1.2141168E-1,7.082315E-2,1.0232134E-2,-1.4550854E-1],"categories":[],"categories_nodes":[],"categories_segments":[],"categories_sizes":[],"default_left":[0,0,0,0,0,0,0,0,0,0,0,0,0,0,0,0,0,0,0,0,0,0,0,0,0,0,0],"id":31,"left_children":[1,3,-1,5,7,9,-1,11,13,15,17,19,21,23,25,-1,-1,-1,-1,-1,-1,-1,-1,-1,-1,-1,-1],"loss_changes":[3.4706686E0,4.106133E0,0E0,1.0804783E1,1.0459139E1,4.752592E0,0E0,1.9050474E0,4.168653E0,1.5313288E1,6.955262E0,9.092457E0,1.1073217E0,2.555278E1,7.9782386E0,0E0,0E0,0E0,0E0,0E0,0E0,0E0,0E0,0E0,0E0,0E0,0E0],"parents":[2147483647,0,0,1,1,3,3,4,4,5,5,7,7,8,8,9,9,10,10,11,11,12,12,13,13,14,14],"right_children":[2,4,-1,6,8,10,-1,12,14,16,18,20,22,24,26,-1,-1,-1,-1,-1,-1,-1,-1,-1,-1,-1,-1],"split_conditions":[9.81243E-1,5.122397E-1,-9.373336E-2,4.9339476E-1,5.4568076E-1,2.8510544E-1,-1.6559313E-1,2E0,6.4428174E-1,1.8551226E-1,3.708813E-1,1E0,6.924359E-2,8.673759E-1,9.8048234E-1,-0E0,-1.457408E-1,5.2694637E-2,-9.040472E-3,9.323319E-2,-6.8948254E-2,-0E0,1.0015463E-1,-1.2141168E-1,7.082315E-2,1.0232134E-2,-1.4550854E-1],"split_indices":[2,2,0,2,2,1,0,0,2,1,1,0,1,1,1,0,0,0,0,0,0,0,0,0,0,0,0],"split_type":[0,0,0,0,0,0,0,0,0,0,0,0,0,0,0,0,0,0,0,0,0,0,0,0,0,0,0],"sum_hessian":[3.6445874E2,3.6186853E2,2.590196E0,1.727351E2,1.8913342E2,1.697533E2,2.9818256E0,2.5008162E1,1.6412526E2,3.464187E1,1.3511142E2,1.1458632E1,1.354953E1,2.5078495E1,1.3904677E2,2.6184404E1,8.457465E0,2.0135763E1,1.14975655E2,7.1124864E0,4.3461456E0,1.2233154E0,1.2326214E1,1.3962988E1,1.1115508E1,1.3718044E2,1.866326E0],"tree_param":{"num_deleted":"0","num_feature":"4","num_nodes":"27","size_leaf_vector":"1"}},{"base_weights":[2.6566067E-3,-1.706971E-2,4.309006E-1,3.059782E-2,-2.1649893E-1,9.346176E-2,9.517403E-2,-1.3930188E-2,3.6304668E-1,-2.0637501E-2,-7.7855116E-1,6.124415E-1,-1.3593456E-1,4.8403643E-2,-7.343999E-1,1.1619867E-2,6.2465775E-1,-6.906828E-1,3.328025E-1,-1.8031958E-1,-1.7278238E-1,-0E0,9.036379E-2,9.615346E-4,1.0093886E-1,-1.0493257E-1,4.1005723E-2,-2.5987545E-2,6.389077E-2,8.214181E-2,-4.8045825E-2,1.263485E-2,-1.2540847E-1,5.569142E-2,-3.9621502E-2,6.544678E-2,-9.393027E-2,-5.317837E-2,5.5788275E-2],"categories":[],"categories_nodes":[],"categories_segments":[],"categories_sizes":[],"default_left":[0,0,0,0,0,0,0,0,0,0,0,0,0,0,0,0,0,0,0,0,0,0,0,0,0,0,0,0,0,0,0,0,0,0,0,0,0,0,0],"id":32,"left_children":[1,3,5,7,9,-1,11,13,15,17,19,21,-1,23,25,27,29,31,33,-1,35,37,-1,-1,-1,-1,-1,-1,-1,-1,-1,-1,-1,-1,-1,-1,-1,-1,-1],"loss_changes":[3.088556E0,3.306285E0,2.4874263E0,4.17547E0,7.283265E0,0E0,9.791966E0,1.1232309E1,2.9868622E0,1.2561906E1,9.991684E0,1.7736378E0,0E0,8.418541E0,7.8889894E0,2.9950867E0,4.7351046E0,8.796415E0,5.9982114E0,0E0,8.883327E0,1.7727637E0,0E0,0E0,0E0,0E0,0E0,0E0,0E0,0E0,0E0,0E0,0E0,0E0,0E0,0E0,0E0,0E0,0E0],"parents":[2147483647,0,0,1,1,2,2,3,3,4,4,6,6,7,7,8,8,9,9,10,10,11,11,13,13,14,14,15,15,16,16,17,17,18,18,20,20,21,21],"right_children":[2,4,6,8,10,-1,12,14,16,18,20,22,-1,24,26,28,30,32,34,-1,36,38,-1,-1,-1,-1,-1,-1,-1,-1,-1,-1,-1,-1,-1,-1,-1,-1,-1],"split_conditions":[9.763616E-1,7.883962E-1,9.846112E-1,7.21598E-1,7.053908E-1,9.346176E-2,6.1390674E-1,6.6686875E-1,2E0,3.411228E-1,8.8393056E-1,5.176951E-1,-1.3593456E-1,6.6310906E-1,8.9203966E-1,7.802758E-1,7.6688766E-1,8.189312E-2,2E0,-1.8031958E-1,8.9822966E-1,9.969084E-1,9.036379E-2,9.615346E-4,1.0093886E-1,-1.0493257E-1,4.1005723E-2,-2.5987545E-2,6.389077E-2,8.214181E-2,-4.8045825E-2,1.263485E-2,-1.2540847E-1,5.569142E-2,-3.9621502E-2,6.544678E-2,-9.393027E-2,-5.317837E-2,5.5788275E-2],"split_indices":[1,1,1,1,2,0,2,1,0,2,1,2,0,1,2,1,1,2,0,0,1,1,0,0,0,0,0,0,0,0,0,0,0,0,0,0,0,0,0],"split_type":[0,0,0,0,0,0,0,0,0,0,0,0,0,0,0,0,0,0,0,0,0,0,0,0,0,0,0,0,0,0,0,0,0,0,0,0,0,0,0],"sum_hessian":[3.579053E2,3.4329855E2,1.4606754E1,2.776929E2,6.560567E1,4.652533E0,9.954222E0,2.458943E2,3.1798594E1,4.9936886E1,1.5668784E1,8.034198E0,1.9200236E0,2.2747404E2,1.8420246E1,1.4401575E1,1.7397018E1,1.6848145E1,3.308874E1,4.658647E0,1.1010137E1,2.9826183E0,5.0515795E0,2.2020497E2,7.2690783E0,1.4611572E1,3.8086736E0,1.0553214E1,3.8483605E0,1.5171388E1,2.2256305E0,7.278771E0,9.569374E0,2.5684269E1,7.4044724E0,5.338016E0,5.672121E0,1.6373979E0,1.3452203E0],"tree_param":{"num_deleted":"0","num_feature":"4","num_nodes":"39","size_leaf_vector":"1"}},{"base_weights":[-2.5237603E-2,-2.9636517E-1,2.6788546E-2,-4.8390034E-1,7.385173E-2,9.164909E-2,-2.5418562E-1,-6.017523E-1,4.768429E-2,-4.5292414E-4,2.3232538E-1,-3.1106528E-2,-1.0729909E0,1.124113E-1,-7.715135E-1,1.2888458E-1,-1.029264E0,7.168095E-1,7.215851E-2,-9.232081E-1,2.6033685E-1,-1.5171042E-1,-1.0731942E-2,5.5398297E-2,-1.08610764E-1,2.8035233E-2,-9.165879E-2,-2.632469E-2,2.3005802E-2,-1.339417E-1,-0E0,4.6563245E-2,1.0110203E-1,-1.1522458E-1,2.6367215E-2,-1.4876817E-1,4.779107E-2,4.1178152E-2,-3.9181747E-2,-9.618633E-2,5.9385758E-2],"categories":[],"categories_nodes":[],"categories_segments":[],"categories_sizes":[],"default_left":[0,0,0,0,0,0,0,0,0,0,0,0,0,0,0,0,0,0,0,0,0,0,0,0,0,0,0,0,0,0,0,0,0,0,0,0,0,0,0,0,0],"id":33,"left_children":[1,3,5,7,-1,9,11,13,-1,15,17,19,21,23,25,27,29,31,33,35,37,-1,39,-1,-1,-1,-1,-1,-1,-1,-1,-1,-1,-1,-1,-1,-1,-1,-1,-1,-1],"loss_changes":[5.100172E0,1.1806013E1,5.52441E0,6.1336184E0,0E0,3.2215793E0,1.0208799E1,5.7152386E0,0E0,2.0280989E1,7.455857E0,1.2452878E1,5.4905806E0,6.1094694E0,6.1082077E0,5.431973E0,5.409109E0,9.23481E-1,1.8082369E1,1.0503534E1,3.794642E0,0E0,3.8373177E0,0E0,0E0,0E0,0E0,0E0,0E0,0E0,0E0,0E0,0E0,0E0,0E0,0E0,0E0,0E0,0E0,0E0,0E0],"parents":[2147483647,0,0,1,1,2,2,3,3,5,5,6,6,7,7,9,9,10,10,11,11,12,12,13,13,14,14,15,15,16,16,17,17,18,18,19,19,20,20,22,22],"right_children":[2,4,6,8,-1,10,12,14,-1,16,18,20,22,24,26,28,30,32,34,36,38,-1,40,-1,-1,-1,-1,-1,-1,-1,-1,-1,-1,-1,-1,-1,-1,-1,-1,-1,-1],"split_conditions":[1E0,9.5180625E-1,7.9487264E-1,9.2043126E-1,7.385173E-2,5.122397E-1,7.652059E-1,1.8551226E-1,4.768429E-2,4.379437E-1,5.4568076E-1,3.0977643E-1,9.4915843E-1,2E0,4.250378E-2,2.8510544E-1,8.7188244E-1,5.4258466E-1,1E0,9.6272445E-1,9.65498E-1,-1.5171042E-1,8.673759E-1,5.5398297E-2,-1.08610764E-1,2.8035233E-2,-9.165879E-2,-2.632469E-2,2.3005802E-2,-1.339417E-1,-0E0,4.6563245E-2,1.0110203E-1,-1.1522458E-1,2.6367215E-2,-1.4876817E-1,4.779107E-2,4.1178152E-2,-3.9181747E-2,-9.618633E-2,5.9385758E-2],"split_indices":[3,1,2,2,0,2,1,1,0,2,2,1,2,0,2,1,1,2,0,2,2,0,1,0,0,0,0,0,0,0,0,0,0,0,0,0,0,0,0,0,0],"split_type":[0,0,0,0,0,0,0,0,0,0,0,0,0,0,0,0,0,0,0,0,0,0,0,0,0,0,0,0,0,0,0,0,0,0,0,0,0,0,0,0,0],"sum_hessian":[3.5731216E2,5.6700775E1,3.006114E2,4.8760025E1,7.940752E0,2.4534268E2,5.5268692E1,4.4024254E1,4.7357697E0,1.4874338E2,9.6599304E1,4.4754646E1,1.0514048E1,8.439221E0,3.5585033E1,1.3321152E2,1.5531866E1,2.2550255E1,7.404905E1,1.0304465E1,3.445018E1,6.8949575E0,3.6190898E0,6.817532E0,1.6216892E0,4.0599866E0,3.1525047E1,2.6625227E1,1.0658629E2,1.15724125E1,3.9594538E0,1.4437969E1,8.112285E0,8.927285E0,6.5121765E1,7.330073E0,2.9743922E0,2.8530888E1,5.919292E0,1.1262645E0,2.4928253E0],"tree_param":{"num_deleted":"0","num_feature":"4","num_nodes":"41","size_leaf_vector":"1"}},{"base_weights":[2.8999252E-2,1.246709E-2,3.7504157E-1,6.400807E-2,-1.8309714E-1,1.0383228E-1,-0E0,6.5430894E-4,5.7038236E-1,-8.2752275E-1,7.1843606E-3,4.5104608E-1,-1.3097718E-1,2.3454444E-2,-1.0936699E0,1.3443774E-1,7.878984E-1,-1.5057215E-1,2.648938E-1,1.7896402E-1,-6.3230073E-1,-3.84752E-2,7.138293E-1,-9.240794E-5,9.460755E-2,-1.9333906E-1,2.4955653E-2,8.348609E-2,-2.2697879E-2,-3.5321238E-4,8.903357E-2,5.4591145E-2,-5.83888E-3,2.9777605E-2,-7.206609E-2,-1.4842412E-1,-1.4581395E-3,1.7392032E-3,8.766939E-2],"categories":[],"categories_nodes":[],"categories_segments":[],"categories_sizes":[],"default_left":[0,0,0,0,0,0,0,0,0,0,0,0,0,0,0,0,0,0,0,0,0,0,0,0,0,0,0,0,0,0,0,0,0,0,0,0,0,0,0],"id":34,"left_children":[1,3,5,7,9,-1,11,13,15,17,19,21,-1,23,25,27,29,-1,31,33,35,-1,37,-1,-1,-1,-1,-1,-1,-1,-1,-1,-1,-1,-1,-1,-1,-1,-1],"loss_changes":[2.0150516E0,3.489498E0,4.0084486E0,8.76636E0,8.929023E0,0E0,7.8484755E0,6.0730267E0,2.6324205E0,1.299364E1,6.387244E0,2.6139407E0,0E0,5.5542655E0,6.4931884E0,3.403988E0,1.7006693E0,0E0,7.83678E-1,5.221251E0,6.2799196E0,0E0,8.0984926E-1,0E0,0E0,0E0,0E0,0E0,0E0,0E0,0E0,0E0,0E0,0E0,0E0,0E0,0E0,0E0,0E0],"parents":[2147483647,0,0,1,1,2,2,3,3,4,4,6,6,7,7,8,8,9,9,10,10,11,11,13,13,14,14,15,15,16,16,18,18,19,19,20,20,22,22],"right_children":[2,4,6,8,10,-1,12,14,16,18,20,22,-1,24,26,28,30,-1,32,34,36,-1,38,-1,-1,-1,-1,-1,-1,-1,-1,-1,-1,-1,-1,-1,-1,-1,-1],"split_conditions":[9.763616E-1,7.7011913E-1,9.8048234E-1,7.21598E-1,2E0,1.0383228E-1,6.1390674E-1,6.968532E-1,2E0,9.34211E-1,7.746068E-1,9.881909E-1,-1.3097718E-1,6.950442E-1,8.9203966E-1,7.2600555E-1,1E0,-1.5057215E-1,9.5221627E-1,9.446421E-1,8.8393056E-1,-3.84752E-2,3.0358437E-1,-9.240794E-5,9.460755E-2,-1.9333906E-1,2.4955653E-2,8.348609E-2,-2.2697879E-2,-3.5321238E-4,8.903357E-2,5.4591145E-2,-5.83888E-3,2.9777605E-2,-7.206609E-2,-1.4842412E-1,-1.4581395E-3,1.7392032E-3,8.766939E-2],"split_indices":[1,1,1,1,3,0,2,1,0,1,2,1,0,1,2,1,3,0,1,1,1,0,2,0,0,0,0,0,0,0,0,0,0,0,0,0,0,0,0],"split_type":[0,0,0,0,0,0,0,0,0,0,0,0,0,0,0,0,0,0,0,0,0,0,0,0,0,0,0,0,0,0,0,0,0,0,0,0,0,0,0],"sum_hessian":[3.5873038E2,3.4413248E2,1.4597897E1,2.7355692E2,7.057557E1,4.31823E0,1.0279667E1,2.4464783E2,2.8909082E1,1.5063205E1,5.5512367E1,8.375815E0,1.9038514E0,2.4118205E2,3.4657726E0,1.0583835E1,1.8325249E1,8.9998865E0,6.063318E0,4.473276E1,1.0779606E1,1.7459521E0,6.629863E0,2.3632765E2,4.854403E0,1.7728653E0,1.6929073E0,3.02777E0,7.5560646E0,2.1541731E0,1.6171076E1,2.8565633E0,3.2067544E0,4.0498806E1,4.2339554E0,3.5783715E0,7.201235E0,1.6875964E0,4.9422665E0],"tree_param":{"num_deleted":"0","num_feature":"4","num_nodes":"39","size_leaf_vector":"1"}},{"base_weights":[-6.267988E-4,-6.255731E-1,8.514507E-3,-2.6883641E-3,-8.4476024E-2,7.7310406E-2,-1.7434738E-3,-1.0229758E-1,1.1808576E-2,2.1469675E-1,-3.0511877E-2,-5.0465584E-2,3.8783632E-2,-1.3098732E-1,-1.2155422E-3],"categories":[],"categories_nodes":[],"categories_segments":[],"categories_sizes":[],"default_left":[0,0,0,0,0,0,0,0,0,0,0,0,0,0,0],"id":35,"left_children":[1,3,5,-1,-1,-1,7,-1,9,11,13,-1,-1,-1,-1],"loss_changes":[2.1748683E0,5.9923625E-1,2.9380555E0,0E0,0E0,0E0,5.116108E0,0E0,3.0996468E0,8.045162E0,6.815945E0,0E0,0E0,0E0,0E0],"parents":[2147483647,0,0,1,1,2,2,6,6,8,8,9,9,10,10],"right_children":[2,4,6,-1,-1,-1,8,-1,10,12,14,-1,-1,-1,-1],"split_conditions":[2.7272556E-2,1.4227204E-1,2.847622E-2,-2.6883641E-3,-8.4476024E-2,7.7310406E-2,5.7267003E-2,-1.0229758E-1,2.096241E-1,3.466252E-1,2.2429146E-1,-5.0465584E-2,3.8783632E-2,-1.3098732E-1,-1.2155422E-3],"split_indices":[1,2,1,0,0,0,1,0,1,2,1,0,0,0,0],"split_type":[0,0,0,0,0,0,0,0,0,0,0,0,0,0,0],"sum_hessian":[3.6699942E2,3.9903102E0,3.6300912E2,1.6429507E0,2.3473597E0,3.4580626E0,3.5955106E2,3.3422601E0,3.562088E2,6.0831276E1,2.9537753E2,1.113178E1,4.9699497E1,2.6082785E0,2.9276926E2],"tree_param":{"num_deleted":"0","num_feature":"4","num_nodes":"15","size_leaf_vector":"1"}},{"base_weights":[2.0385709E-2,3.0226694E-2,-8.527099E-2,1.42834615E-2,6.1480606E-1,1.4021125E-1,-4.6800736E-2,8.575582E-2,1.8506183E-1,8.648719E-3,5.1729476E-1,-1.3733779E0,-1.9610144E-2,3.6129113E-2,-0E0,1.0662524E-2,-9.299957E-2,1.0721375E-1,2.5251603E-2,-2.5252601E-2,-1.5639286E-1,5.899725E-2,-4.1058543E-3],"categories":[],"categories_nodes":[],"categories_segments":[],"categories_sizes":[],"default_left":[0,0,0,0,0,0,0,0,0,0,0,0,0,0,0,0,0,0,0,0,0,0,0],"id":36,"left_children":[1,3,-1,5,7,9,11,-1,13,15,17,19,21,-1,-1,-1,-1,-1,-1,-1,-1,-1,-1],"loss_changes":[3.008928E0,3.212708E0,0E0,2.6745691E0,6.139114E-1,5.5796366E0,8.226142E0,0E0,2.0144124E-1,7.974262E0,3.7479486E0,2.0522308E-1,2.9880025E0,0E0,0E0,0E0,0E0,0E0,0E0,0E0,0E0,0E0,0E0],"parents":[2147483647,0,0,1,1,3,3,4,4,5,5,6,6,8,8,9,9,10,10,11,11,12,12],"right_children":[2,4,-1,6,8,10,12,-1,14,16,18,20,22,-1,-1,-1,-1,-1,-1,-1,-1,-1,-1],"split_conditions":[9.81243E-1,9.7237575E-1,-8.527099E-2,3.4823185E-1,1E0,2.8376812E-1,3.703578E-1,8.575582E-2,8.6521916E-2,7.90653E-1,2.9443753E-1,3.1955525E-1,3.9526707E-1,3.6129113E-2,-0E0,1.0662524E-2,-9.299957E-2,1.0721375E-1,2.5251603E-2,-2.5252601E-2,-1.5639286E-1,5.899725E-2,-4.1058543E-3],"split_indices":[2,2,0,1,0,1,1,0,1,2,1,2,1,0,0,0,0,0,0,0,0,0,0],"split_type":[0,0,0,0,0,0,0,0,0,0,0,0,0,0,0,0,0,0,0,0,0,0,0],"sum_hessian":[3.5376898E2,3.5137115E2,2.39783E0,3.4370502E2,7.6661525E0,1.1216529E2,2.3153972E2,3.7959528E0,3.8702E0,8.4487595E1,2.7677698E1,3.085035E0,2.2845468E2,1.4522359E0,2.417964E0,7.7802635E1,6.684962E0,7.3417153E0,2.0335983E1,1.0313158E0,2.0537193E0,6.255161E0,2.2219952E2],"tree_param":{"num_deleted":"0","num_feature":"4","num_nodes":"23","size_leaf_vector":"1"}},{"base_weights":[5.201266E-3,3.207909E-1,-1.8037124E-2,-1.8774767E-1,4.2259848E-1,-9.196498E-1,-6.9920127E-3,-4.566728E-2,4.3990556E-3,5.283745E-1,-2.5043456E-2,1.2613966E-2,-1.3823286E-1,1.3288407E-1,-4.5880664E-2,-2.1755162E-3,5.855518E-1,4.383248E-1,-3.4293902E-1,-2.5569024E-2,-7.53578E-1,1.8568955E-2,7.401466E-2,-2.6972592E-2,5.4754265E-2,-1.815347E-1,1.1748054E-2,-1.4061945E-2,1.3395326E-2,-1.8198745E-1,1.9321354E-2],"categories":[],"categories_nodes":[],"categories_segments":[],"categories_sizes":[],"default_left":[0,0,0,0,0,0,0,0,0,0,0,0,0,0,0,0,0,0,0,0,0,0,0,0,0,0,0,0,0,0,0],"id":37,"left_children":[1,3,5,7,9,11,13,-1,-1,15,-1,-1,-1,17,19,-1,21,23,25,27,29,-1,-1,-1,-1,-1,-1,-1,-1,-1,-1],"loss_changes":[2.6811419E0,1.4411919E0,3.2506008E0,3.866734E-1,1.7586925E0,2.300186E0,1.8185613E0,0E0,0E0,6.79821E-1,0E0,0E0,0E0,1.0777084E1,3.6765745E0,0E0,7.9060507E-1,3.726451E0,2.019835E1,4.755732E0,7.9118443E0,0E0,0E0,0E0,0E0,0E0,0E0,0E0,0E0,0E0,0E0],"parents":[2147483647,0,0,1,1,2,2,3,3,4,4,5,5,6,6,9,9,13,13,14,14,16,16,17,17,18,18,19,19,20,20],"right_children":[2,4,6,8,10,12,14,-1,-1,16,-1,-1,-1,18,20,-1,22,24,26,28,30,-1,-1,-1,-1,-1,-1,-1,-1,-1,-1],"split_conditions":[5.7762492E-2,2.276567E-1,6.582744E-2,2E0,7.817842E-1,1E0,1E0,-4.566728E-2,4.3990556E-3,1E0,-2.5043456E-2,1.2613966E-2,-1.3823286E-1,5.4568076E-1,9.65498E-1,-2.1755162E-3,1.757924E-2,1.5828997E-1,6.987285E-1,6.4428174E-1,7.062459E-1,1.8568955E-2,7.401466E-2,-2.6972592E-2,5.4754265E-2,-1.815347E-1,1.1748054E-2,-1.4061945E-2,1.3395326E-2,-1.8198745E-1,1.9321354E-2],"split_indices":[2,1,2,0,1,3,0,0,0,0,0,0,0,2,2,0,2,2,2,2,1,0,0,0,0,0,0,0,0,0,0],"split_type":[0,0,0,0,0,0,0,0,0,0,0,0,0,0,0,0,0,0,0,0,0,0,0,0,0,0,0,0,0,0,0],"sum_hessian":[3.587756E2,2.3584349E1,3.3519125E2,3.5588908E0,2.0025457E1,2.4536223E0,3.327376E2,1.173102E0,2.3857887E0,1.7712664E1,2.312795E0,1.0209347E0,1.4326878E0,7.103596E1,2.6170166E2,1.5904576E0,1.6122206E1,4.3463932E1,2.7572027E1,2.560483E2,5.653352E0,5.596169E0,1.0526037E1,5.3914633E0,3.8072468E1,5.5681696E0,2.2003857E1,1.4922739E2,1.0682093E2,2.0579932E0,3.5953584E0],"tree_param":{"num_deleted":"0","num_feature":"4","num_nodes":"31","size_leaf_vector":"1"}},{"base_weights":[-1.0639886E-2,-1.3374975E-1,7.3821135E-2,-2.1431368E-2,-5.744245E-1,9.9194E-2,3.8719054E-2,-4.920377E-1,4.539022E-2,-1.100692E0,1.420079E-1,-1.2416915E-1,5.5327397E-2,-5.214001E-2,-1.2522054E0,4.6583113E-1,-3.325925E-2,-9.657931E-2,-1.7153294E0,-9.309601E-2,3.7771985E-1,4.8790282E-1,2.4211244E-3,4.149177E-2,-7.731363E-2,-1.4503178E-1,-1.5045188E-2,-6.157277E-2,6.185577E-2,-2.0118399E-2,3.186416E-2,2.631844E-2,-7.581794E-2,-2.43301E-2,-2.0515767E-1,7.643889E-2,4.2091184E-3,8.173023E-2,-1.7562654E-2,8.890211E-3,-2.3153562E-2],"categories":[],"categories_nodes":[],"categories_segments":[],"categories_sizes":[],"default_left":[0,0,0,0,0,0,0,0,0,0,0,0,0,0,0,0,0,0,0,0,0,0,0,0,0,0,0,0,0,0,0,0,0,0,0,0,0,0,0,0,0],"id":38,"left_children":[1,3,5,7,9,-1,11,13,15,17,19,-1,21,23,25,27,29,31,33,-1,35,37,39,-1,-1,-1,-1,-1,-1,-1,-1,-1,-1,-1,-1,-1,-1,-1,-1,-1,-1],"loss_changes":[3.6785095E0,7.0568504E0,6.578794E0,3.745218E0,1.12792845E1,0E0,4.3031015E0,4.724636E0,3.4823658E0,1.0058165E1,3.8980837E0,0E0,4.5720882E0,4.231612E0,6.652937E-1,3.3101301E0,5.2976503E0,2.2776554E0,4.1644154E0,0E0,1.4608188E0,5.0441184E0,3.6928613E0,0E0,0E0,0E0,0E0,0E0,0E0,0E0,0E0,0E0,0E0,0E0,0E0,0E0,0E0,0E0,0E0,0E0,0E0],"parents":[2147483647,0,0,1,1,2,2,3,3,4,4,6,6,7,7,8,8,9,9,10,10,12,12,13,13,14,14,15,15,16,16,17,17,18,18,20,20,21,21,22,22],"right_children":[2,4,6,8,10,-1,12,14,16,18,20,-1,22,24,26,28,30,32,34,-1,36,38,40,-1,-1,-1,-1,-1,-1,-1,-1,-1,-1,-1,-1,-1,-1,-1,-1,-1,-1],"split_conditions":[4.8158282E-1,3.708813E-1,4.85297E-1,1E0,7.243897E-1,9.9194E-2,4.9563086E-1,2E0,2E0,1.6730799E-1,3.9275226E-1,-1.2416915E-1,5.388437E-1,1.8551226E-1,7.90653E-1,2.30662E-2,2.8376812E-1,4.3244636E-1,1E0,-9.309601E-2,4.3785256E-1,2E0,7.053908E-1,4.149177E-2,-7.731363E-2,-1.4503178E-1,-1.5045188E-2,-6.157277E-2,6.185577E-2,-2.0118399E-2,3.186416E-2,2.631844E-2,-7.581794E-2,-2.43301E-2,-2.0515767E-1,7.643889E-2,4.2091184E-3,8.173023E-2,-1.7562654E-2,8.890211E-3,-2.3153562E-2],"split_indices":[1,1,1,3,2,0,1,0,3,2,1,0,1,1,2,1,1,1,3,0,1,0,2,0,0,0,0,0,0,0,0,0,0,0,0,0,0,0,0,0,0],"split_type":[0,0,0,0,0,0,0,0,0,0,0,0,0,0,0,0,0,0,0,0,0,0,0,0,0,0,0,0,0,0,0,0,0,0,0,0,0,0,0,0,0],"sum_hessian":[3.502707E2,1.4265144E2,2.0761923E2,1.1511183E2,2.753962E1,6.0349183E0,2.0158432E2,1.3311796E1,1.0180003E2,1.5493593E1,1.2046026E1,1.0873832E0,2.0049693E2,9.530863E0,3.7809331E0,1.5078924E1,8.672111E1,6.6037164E0,8.889876E0,1.2963597E0,1.0749667E1,2.0299532E1,1.801974E2,6.0862846E0,3.4445782E0,2.7255197E0,1.0554136E0,1.2221246E0,1.3856799E1,5.933395E1,2.7387157E1,4.7648478E0,1.8388686E0,2.189113E0,6.7007637E0,3.9661708E0,6.783496E0,1.3433667E1,6.8658643E0,1.325561E2,4.7641293E1],"tree_param":{"num_deleted":"0","num_feature":"4","num_nodes":"41","size_leaf_vector":"1"}},{"base_weights":[-2.208707E-3,8.062661E-2,-1.08680695E-1,-1.1604879E-1,9.879832E-2,1.3505135E-2,-4.5796663E-1,5.143732E-2,4.6160987E-1,-5.043636E-1,1.4243482E-1,-1.4690938E0,-2.7245121E-2,8.747376E-2,-1.8822066E-1,-4.7310285E-2,8.59787E-1,8.422718E-2,-1.4919778E0,-8.0609274E-1,2.1887638E-1,-1.7783536E-1,-5.071714E-4,-8.9058113E-1,1.3775337E-1,3.562208E-2,1.2160557E-3,5.3988256E-2,-1.6630371E-1,1.04054786E-1,3.287634E-2,4.2638045E-2,-1.4045744E-1,1.0039768E-3,-1.8895581E-1,6.557494E-2,-1.682922E-1,2.701072E-3,5.614906E-2,6.1131786E-3,-1.4508633E-1,6.1394524E-2,-2.4385354E-2],"categories":[],"categories_nodes":[],"categories_segments":[],"categories_sizes":[],"default_left":[0,0,0,0,0,0,0,0,0,0,0,0,0,0,0,0,0,0,0,0,0,0,0,0,0,0,0,0,0,0,0,0,0,0,0,0,0,0,0,0,0,0,0],"id":39,"left_children":[1,3,5,-1,7,9,11,13,15,17,19,21,23,25,-1,27,29,31,33,35,37,-1,-1,39,41,-1,-1,-1,-1,-1,-1,-1,-1,-1,-1,-1,-1,-1,-1,-1,-1,-1,-1],"loss_changes":[2.920207E0,4.2502775E0,6.2529545E0,0E0,3.0803082E0,7.3398075E0,1.6296112E1,1.1562947E1,4.367524E0,1.3045088E1,6.6215115E0,4.8899326E0,4.2728877E0,3.2646606E0,0E0,1.1386963E1,4.9092102E-1,8.473385E0,5.1801853E0,1.05020485E1,5.3850384E0,0E0,0E0,2.8416433E0,4.778462E0,0E0,0E0,0E0,0E0,0E0,0E0,0E0,0E0,0E0,0E0,0E0,0E0,0E0,0E0,0E0,0E0,0E0,0E0],"parents":[2147483647,0,0,1,1,2,2,4,4,5,5,6,6,7,7,8,8,9,9,10,10,11,11,12,12,13,13,15,15,16,16,17,17,18,18,19,19,20,20,23,23,24,24],"right_children":[2,4,6,-1,8,10,12,14,16,18,20,22,24,26,-1,28,30,32,34,36,38,-1,-1,40,42,-1,-1,-1,-1,-1,-1,-1,-1,-1,-1,-1,-1,-1,-1,-1,-1,-1,-1],"split_conditions":[5.8937174E-1,1.9358406E-2,7.053908E-1,-1.1604879E-1,5.383211E-1,1.6505632E-1,8.234292E-1,5.239385E-1,7.03789E-1,8.189312E-2,6.2381864E-1,9.5180625E-1,6.9310087E-1,1.6730799E-1,-1.8822066E-1,3.4957474E-1,8.541234E-1,8.6899287E-1,6.1862564E-1,2.4002437E-1,5.176951E-1,-1.7783536E-1,-5.071714E-4,6.401894E-1,7.652059E-1,3.562208E-2,1.2160557E-3,5.3988256E-2,-1.6630371E-1,1.04054786E-1,3.287634E-2,4.2638045E-2,-1.4045744E-1,1.0039768E-3,-1.8895581E-1,6.557494E-2,-1.682922E-1,2.701072E-3,5.614906E-2,6.1131786E-3,-1.4508633E-1,6.1394524E-2,-2.4385354E-2],"split_indices":[1,2,2,0,1,2,2,1,2,2,1,1,1,2,0,2,2,1,1,2,2,0,0,1,1,0,0,0,0,0,0,0,0,0,0,0,0,0,0,0,0,0,0],"split_type":[0,0,0,0,0,0,0,0,0,0,0,0,0,0,0,0,0,0,0,0,0,0,0,0,0,0,0,0,0,0,0,0,0,0,0,0,0,0,0,0,0,0,0],"sum_hessian":[3.2779434E2,1.840377E2,1.4375662E2,1.2156141E0,1.828221E2,1.0735709E2,3.6399532E1,1.6347105E2,1.9351038E1,2.0374765E1,8.698232E1,9.723976E0,2.6675556E1,1.6193697E2,1.5340863E0,8.964243E0,1.0386795E1,1.3562632E1,6.8121333E0,5.3217087E0,8.1660614E1,7.705836E0,2.0181403E0,3.31901E0,2.3356544E1,3.393194E1,1.2800504E2,7.261969E0,1.7022741E0,6.534768E0,3.852027E0,1.1953161E1,1.6094705E0,1.6791348E0,5.1329985E0,2.0942872E0,3.2274215E0,5.357082E1,2.8089796E1,1.658939E0,1.6600709E0,1.0100867E1,1.3255678E1],"tree_param":{"num_deleted":"0","num_feature":"4","num_nodes":"43","size_leaf_vector":"1"}},{"base_weights":[5.6035193E-3,-1.3757851E-2,4.1805503E-1,2.4282087E-1,-4.5304295E-2,9.583238E-2,1.4740296E-1,3.3692387E-1,-1.0916448E-1,-2.956916E-1,4.442905E-3,5.1190245E-1,-1.1169803E-1,-1.0776707E-1,6.470588E-1,-1.4528495E-1,-1.5076129E-1,3.281207E-1,-8.058126E-2,-3.3438753E-2,7.4736243E-1,1.866013E-2,-1.3276082E-1,3.487853E-2,9.0182714E-2,1.0272949E-2,-7.598742E-2,3.15841E-4,6.574038E-2,-1.07724145E-1,-3.4914818E-3,3.5670854E-3,8.926729E-2],"categories":[],"categories_nodes":[],"categories_segments":[],"categories_sizes":[],"default_left":[0,0,0,0,0,0,0,0,0,0,0,0,0,0,0,0,0,0,0,0,0,0,0,0,0,0,0,0,0,0,0,0,0],"id":40,"left_children":[1,3,5,7,9,-1,11,13,-1,15,17,19,-1,21,23,25,-1,27,29,-1,31,-1,-1,-1,-1,-1,-1,-1,-1,-1,-1,-1,-1],"loss_changes":[2.8323774E0,2.7012808E0,2.0035453E0,5.05637E0,3.7574716E0,0E0,6.5552025E0,5.0250216E0,0E0,8.609516E0,6.9643445E0,2.565879E0,0E0,6.1058707E0,1.0091791E0,7.218984E0,0E0,5.5698547E0,8.913365E0,0E0,7.897372E-1,0E0,0E0,0E0,0E0,0E0,0E0,0E0,0E0,0E0,0E0,0E0,0E0],"parents":[2147483647,0,0,1,1,2,2,3,3,4,4,6,6,7,7,9,9,10,10,11,11,13,13,14,14,15,15,17,17,18,18,20,20],"right_children":[2,4,6,8,10,-1,12,14,-1,16,18,20,-1,22,24,26,-1,28,30,-1,32,-1,-1,-1,-1,-1,-1,-1,-1,-1,-1,-1,-1],"split_conditions":[9.763616E-1,8.189312E-2,9.8048234E-1,8.6899287E-1,2.775008E-1,9.583238E-2,6.1390674E-1,5.059414E-1,-1.0916448E-1,2.5008243E-1,3.959868E-1,9.881909E-1,-1.1169803E-1,5.7762492E-2,6.549802E-2,6.3587064E-1,-1.5076129E-1,6.5092504E-1,4.3366757E-1,-3.3438753E-2,3.0358437E-1,1.866013E-2,-1.3276082E-1,3.487853E-2,9.0182714E-2,1.0272949E-2,-7.598742E-2,3.15841E-4,6.574038E-2,-1.07724145E-1,-3.4914818E-3,3.5670854E-3,8.926729E-2],"split_indices":[1,2,1,1,2,0,2,1,0,2,2,1,0,2,2,1,0,1,2,0,2,0,0,0,0,0,0,0,0,0,0,0,0],"split_type":[0,0,0,0,0,0,0,0,0,0,0,0,0,0,0,0,0,0,0,0,0,0,0,0,0,0,0,0,0,0,0,0,0],"sum_hessian":[3.470413E2,3.3263422E2,1.4407061E1,3.4972702E1,2.9766153E2,3.4131489E0,1.0993912E1,3.3786396E1,1.1863086E0,4.844132E1,2.4922021E2,9.288108E0,1.7058035E0,1.4151466E1,1.9634928E1,4.4660957E1,3.7803578E0,5.1198914E1,1.980213E2,1.7920836E0,7.496024E0,1.2357868E1,1.7935988E0,1.0862989E1,8.771938E0,3.259427E1,1.2066691E1,2.6683561E1,2.451535E1,7.095249E0,1.9092606E2,1.7044564E0,5.791568E0],"tree_param":{"num_deleted":"0","num_feature":"4","num_nodes":"33","size_leaf_vector":"1"}},{"base_weights":[-1.6281318E-2,1.8815571E-2,-1.821164E-1,-8.015488E-3,7.8164704E-2,-7.6360905E-1,-2.6042728E-2,3.0090798E-2,-3.5791412E-1,-2.118635E-1,-1.5072249E-1,-2.8110418E-1,2.3940101E-1,-2.3722755E-2,3.9012134E-1,-1.6099988E-1,-3.483052E-2,3.0431134E-1,-7.0367175E-1,-1.1482161E0,1.7831317E-1,4.03417E-1,-5.3019744E-1,-7.35944E-5,-1.4875811E-1,1.1751979E-2,6.429703E-2,2.9970651E-2,-1.0032441E-1,4.9782317E-2,-2.8032528E-3,-1.1745639E-1,1.2918088E-2,-2.211358E-2,-1.4927334E-1,-3.3322584E-3,5.976167E-2,-1.4457497E-2,5.186066E-2,-9.476923E-2,2.7850808E-3],"categories":[],"categories_nodes":[],"categories_segments":[],"categories_sizes":[],"default_left":[0,0,0,0,0,0,0,0,0,0,0,0,0,0,0,0,0,0,0,0,0,0,0,0,0,0,0,0,0,0,0,0,0,0,0,0,0,0,0,0,0],"id":41,"left_children":[1,3,5,7,-1,9,11,13,15,17,-1,19,21,23,25,-1,27,29,31,33,35,37,39,-1,-1,-1,-1,-1,-1,-1,-1,-1,-1,-1,-1,-1,-1,-1,-1,-1,-1],"loss_changes":[2.0252705E0,5.9201164E0,5.4067354E0,3.7379918E0,0E0,4.548044E0,3.4633846E0,4.9063993E0,1.0894907E1,2.6704261E0,0E0,1.0832405E1,3.454254E0,7.2259502E0,2.0795584E0,0E0,8.13254E0,4.1432166E-1,2.3755596E0,2.3176203E0,1.7133E0,1.5072992E0,1.2777765E0,0E0,0E0,0E0,0E0,0E0,0E0,0E0,0E0,0E0,0E0,0E0,0E0,0E0,0E0,0E0,0E0,0E0,0E0],"parents":[2147483647,0,0,1,1,2,2,3,3,5,5,6,6,7,7,8,8,9,9,11,11,12,12,13,13,14,14,16,16,17,17,18,18,19,19,20,20,21,21,22,22],"right_children":[2,4,6,8,-1,10,12,14,16,18,-1,20,22,24,26,-1,28,30,32,34,36,38,40,-1,-1,-1,-1,-1,-1,-1,-1,-1,-1,-1,-1,-1,-1,-1,-1,-1,-1],"split_conditions":[7.9487264E-1,7.892666E-1,8.5220337E-1,7.0926356E-1,7.8164704E-2,8.2778007E-1,2E0,6.4428174E-1,2E0,1E0,-1.5072249E-1,5.383211E-1,7.652059E-1,6.340894E-1,6.5575516E-1,-1.6099988E-1,5.4909736E-1,4.85297E-1,8.1891054E-1,2E0,9.581346E-1,2.8376812E-1,9.4283843E-1,-7.35944E-5,-1.4875811E-1,1.1751979E-2,6.429703E-2,2.9970651E-2,-1.0032441E-1,4.9782317E-2,-2.8032528E-3,-1.1745639E-1,1.2918088E-2,-2.211358E-2,-1.4927334E-1,-3.3322584E-3,5.976167E-2,-1.4457497E-2,5.186066E-2,-9.476923E-2,2.7850808E-3],"split_indices":[2,2,2,2,0,2,0,2,3,0,0,1,1,2,1,0,1,1,2,3,2,1,2,0,0,0,0,0,0,0,0,0,0,0,0,0,0,0,0,0,0],"split_type":[0,0,0,0,0,0,0,0,0,0,0,0,0,0,0,0,0,0,0,0,0,0,0,0,0,0,0,0,0,0,0,0,0,0,0,0,0,0,0,0,0],"sum_hessian":[3.427781E2,2.8350473E2,5.9273376E1,2.7517902E2,8.32572E0,1.1171484E1,4.8101894E1,2.4913208E2,2.6046934E1,7.5967298E0,3.5747538E0,2.4677671E1,2.3424221E1,2.1771391E2,3.1418161E1,4.053513E0,2.1993422E1,3.8863547E0,3.710375E0,7.8431373E0,1.6834534E1,2.0004528E1,3.4196928E0,2.1589284E2,1.8210754E0,1.636615E1,1.50520115E1,1.7039623E1,4.953798E0,2.1743367E0,1.7120181E0,2.0537982E0,1.6565768E0,2.8708577E0,4.9722795E0,1.1946872E1,4.887662E0,3.2573814E0,1.6747147E1,1.4595845E0,1.9601083E0],"tree_param":{"num_deleted":"0","num_feature":"4","num_nodes":"41","size_leaf_vector":"1"}},{"base_weights":[-9.550773E-3,-1.2763406E-1,6.635901E-2,-1.1822467E-2,-5.077211E-1,3.2909787E-1,-1.1570461E-2,-1.0623895E-1,3.336427E-1,-9.3211687E-1,1.5281557E-1,5.425906E-1,-1.14518195E-1,-4.3055767E-1,6.875075E-2,-9.116181E-3,-1.0465748E0,8.3176844E-2,9.8468766E-2,-0E0,-1.2216231E0,-1.7731176E-1,4.0571806E-1,6.592872E-1,-5.271689E-1,-1.6093168E-1,3.0192468E-1,-8.754762E-3,-1.294708E0,7.554688E-1,6.168723E-3,-1.9242287E-2,1.850898E-2,-4.584295E-2,-1.2902297E-1,-1.2589483E-1,3.1025697E-2,-3.0087128E-2,2.8550282E-2,-5.670299E-5,-1.471169E-1,3.652076E-2,-7.1494125E-2,6.2216956E-2,-2.2493202E-2,-3.8024288E-2,7.579428E-2,3.845217E-2,-1.3172606E-1,-4.6608463E-2,6.487492E-2,2.5405882E-2,-1.4311565E-1,-1.6208985E-1,2.0665416E-2,3.1486064E-2,9.3183525E-2,-1.3667612E-1,9.655376E-3],"categories":[],"categories_nodes":[],"categories_segments":[],"categories_sizes":[],"default_left":[0,0,0,0,0,0,0,0,0,0,0,0,0,0,0,0,0,0,0,0,0,0,0,0,0,0,0,0,0,0,0,0,0,0,0,0,0,0,0,0,0,0,0,0,0,0,0,0,0,0,0,0,0,0,0,0,0,0,0],"id":42,"left_children":[1,3,5,7,9,11,13,15,17,19,21,23,25,27,29,31,33,-1,35,37,39,41,43,45,47,-1,49,51,53,55,57,-1,-1,-1,-1,-1,-1,-1,-1,-1,-1,-1,-1,-1,-1,-1,-1,-1,-1,-1,-1,-1,-1,-1,-1,-1,-1,-1,-1],"loss_changes":[3.1133056E0,5.930624E0,4.349695E0,3.489994E0,9.136183E0,4.73149E0,5.585846E0,7.6122875E0,2.4668467E0,5.1889915E0,1.2610646E0,4.6755304E0,1.1349369E1,9.5928955E0,5.8632164E0,2.8432653E0,5.802822E-2,0E0,5.4915586E0,6.6027725E-1,4.372551E0,2.39393E0,1.3817447E0,3.6143417E0,3.742856E0,0E0,4.304842E0,7.969556E0,4.893306E0,3.2192326E-1,1.6011055E1,0E0,0E0,0E0,0E0,0E0,0E0,0E0,0E0,0E0,0E0,0E0,0E0,0E0,0E0,0E0,0E0,0E0,0E0,0E0,0E0,0E0,0E0,0E0,0E0,0E0,0E0,0E0,0E0],"parents":[2147483647,0,0,1,1,2,2,3,3,4,4,5,5,6,6,7,7,8,8,9,9,10,10,11,11,12,12,13,13,14,14,15,15,16,16,18,18,19,19,20,20,21,21,22,22,23,23,24,24,26,26,27,27,28,28,29,29,30,30],"right_children":[2,4,6,8,10,12,14,16,18,20,22,24,26,28,30,32,34,-1,36,38,40,42,44,46,48,-1,50,52,54,56,58,-1,-1,-1,-1,-1,-1,-1,-1,-1,-1,-1,-1,-1,-1,-1,-1,-1,-1,-1,-1,-1,-1,-1,-1,-1,-1,-1,-1],"split_conditions":[4.6000934E-1,3.3794242E-1,5.7915753E-1,2.8376812E-1,2E0,2E0,6.560142E-1,2.4481638E-1,2.9443753E-1,1.6730799E-1,4.22126E-1,8.541234E-1,5.0455403E-1,2E0,6.6686875E-1,2E0,2E0,8.3176844E-2,3.026122E-1,7.701917E-2,1E0,3.659333E-1,4.3785256E-1,1E0,4.611592E-1,-1.6093168E-1,5.0705713E-1,6.3587064E-1,6.5092504E-1,6.6310906E-1,6.944591E-1,-1.9242287E-2,1.850898E-2,-4.584295E-2,-1.2902297E-1,-1.2589483E-1,3.1025697E-2,-3.0087128E-2,2.8550282E-2,-5.670299E-5,-1.471169E-1,3.652076E-2,-7.1494125E-2,6.2216956E-2,-2.2493202E-2,-3.8024288E-2,7.579428E-2,3.845217E-2,-1.3172606E-1,-4.6608463E-2,6.487492E-2,2.5405882E-2,-1.4311565E-1,-1.6208985E-1,2.0665416E-2,3.1486064E-2,9.3183525E-2,-1.3667612E-1,9.655376E-3],"split_indices":[1,1,1,1,0,0,1,1,1,2,1,2,1,0,1,0,0,0,1,2,3,1,1,3,1,0,2,1,1,1,1,0,0,0,0,0,0,0,0,0,0,0,0,0,0,0,0,0,0,0,0,0,0,0,0,0,0,0,0],"split_type":[0,0,0,0,0,0,0,0,0,0,0,0,0,0,0,0,0,0,0,0,0,0,0,0,0,0,0,0,0,0,0,0,0,0,0,0,0,0,0,0,0,0,0,0,0,0,0,0,0,0,0,0,0,0,0,0,0,0,0],"sum_hessian":[3.4372366E2,1.3461513E2,2.0910854E2,1.0456437E2,3.0050755E1,4.7022175E1,1.6208636E2,8.3163704E1,2.1400667E1,1.8012417E1,1.2038338E1,3.1671057E1,1.5351119E1,2.5222122E1,1.3686424E2,7.684739E1,6.31631E0,5.5065994E0,1.5894068E1,4.6754117E0,1.3337006E1,5.2448635E0,6.793474E0,2.915921E1,2.5118463E0,2.460994E0,1.2890125E1,1.8045029E1,7.177094E0,9.910463E0,1.2695377E2,3.9805016E1,3.7042377E1,3.2365055E0,3.0798044E0,1.0804422E0,1.4813625E1,2.3439233E0,2.3314881E0,2.5862641E0,1.0750742E1,2.757422E0,2.4874415E0,5.190671E0,1.6028031E0,2.0685005E0,2.709071E1,1.4649014E0,1.0469449E0,3.759951E0,9.130175E0,1.6211456E1,1.8335721E0,5.8526974E0,1.3243966E0,4.1893363E0,5.7211275E0,6.464881E0,1.2048889E2],"tree_param":{"num_deleted":"0","num_feature":"4","num_nodes":"59","size_leaf_vector":"1"}},{"base_weights":[2.4235224E-2,4.2297953E-1,-1.9301453E-3,6.258382E-2,6.830351E-1,-2.9459903E-1,3.0608645E-2,-3.2591873E-1,2.8580883E-1,1.1612237E-1,8.1450605E-1,-1.1977558E-1,-1.3161807E-1,7.209383E-1,-3.892729E-3,-1.086691E-1,3.5996508E-2,6.821917E-2,-1.09869294E-1,2.2916758E-2,-2.3497483E-3,1.6375115E-2,8.828646E-2,1.8667431E-1,-6.16951E-1,1.0335287E-1,4.083884E-2,-1.5410505E-1,1.8682107E-2,2.2995984E-2,-6.288842E-2,-3.4822103E-2,6.4327784E-2,-1.9016574E-1,2.028237E-2,-8.70245E-2,7.881677E-2,-8.015245E-2,3.024687E-3],"categories":[],"categories_nodes":[],