{"learner":{"attributes":{"scikit_learn":"{\"_estimator_type\": \"classifier\"}"},"feature_names":["income_level","attendance_rate","academic_score","payment_history"],"feature_types":["int","float","float","int"],"gradient_booster":{"model":{"gbtree_model_param":{"num_parallel_tree":"1","num_trees":"200"},"iteration_indptr":[0,1,2,3,4,5,6,7,8,9,10,11,12,13,14,15,16,17,18,19,20,21,22,23,24,25,26,27,28,29,30,31,32,33,34,35,36,37,38,39,40,41,42,43,44,45,46,47,48,49,50,51,52,53,54,55,56,57,58,59,60,61,62,63,64,65,66,67,68,69,70,71,72,73,74,75,76,77,78,79,80,81,82,83,84,85,86,87,88,89,90,91,92,93,94,95,96,97,98,99,100,101,102,103,104,105,106,107,108,109,110,111,112,113,114,115,116,117,118,119,120,121,122,123,124,125,126,127,128,129,130,131,132,133,134,135,136,137,138,139,140,141,142,143,144,145,146,147,148,149,150,151,152,153,154,155,156,157,158,159,160,161,162,163,164,165,166,167,168,169,170,171,172,173,174,175,176,177,178,179,180,181,182,183,184,185,186,187,188,189,190,191,192,193,194,195,196,197,198,199,200],"tree_info":[0,0,0,0,0,0,0,0,0,0,0,0,0,0,0,0,0,0,0,0,0,0,0,0,0,0,0,0,0,0,0,0,0,0,0,0,0,0,0,0,0,0,0,0,0,0,0,0,0,0,0,0,0,0,0,0,0,0,0,0,0,0,0,0,0,0,0,0,0,0,0,0,0,0,0,0,0,0,0,0,0,0,0,0,0,0,0,0,0,0,0,0,0,0,0,0,0,0,0,0,0,0,0,0,0,0,0,0,0,0,0,0,0,0,0,0,0,0,0,0,0,0,0,0,0,0,0,0,0,0,0,0,0,0,0,0,0,0,0,0,0,0,0,0,0,0,0,0,0,0,0,0,0,0,0,0,0,0,0,0,0,0,0,0,0,0,0,0,0,0,0,0,0,0,0,0,0,0,0,0,0,0,0,0,0,0,0,0,0,0,0,0,0,0,0,0,0,0,0,0],"trees":[{"base_weights":[-1.8844281E-1,-5.7628036E-1,-3.8075794E-2,-6.08704E-1,3.1059368E-3,1.0534934E0,-1.0560022E-1,1.4703292E-4,-6.4851027E-3,1.4409893E-2,-2.6448262E-3,9.930015E-4,-3.2968456E-3],"categories":[],"categories_nodes":[],"categories_segments":[],"categories_sizes":[],"default_left":[0,0,0,0,0,0,0,0,0,0,0,0,0],"id":0,"left_children":[1,3,5,7,-1,9,11,-1,-1,-1,-1,-1,-1],"loss_changes":[8.224337E0,1.3230419E0,7.7006955E0,9.6200466E-1,0E0,3.491126E0,4.5267744E0,0E0,0E0,0E0,0E0,0E0,0E0],"parents":[2147483647,0,0,1,1,2,2,3,3,5,5,6,6],"right_children":[2,4,6,8,-1,10,12,-1,-1,-1,-1,-1,-1],"split_conditions":[6.429534E-1,9.816972E1,5.2882378E1,5.249895E1,3.1059368E-3,8.9101404E-1,7.7987785E1,1.4703292E-4,-6.4851027E-3,1.4409893E-2,-2.6448262E-3,9.930015E-4,-3.2968456E-3],"split_indices":[1,2,2,2,0,1,2,0,0,0,0,0,0],"split_type":[0,0,0,0,0,0,0,0,0,0,0,0,0],"sum_hessian":[1.4040202E2,3.843505E1,1.01966965E2,3.738204E1,1.0530151E0,5.0895734E0,9.6877396E1,2.2815328E0,3.5100506E1,3.8610556E0,1.2285177E0,5.0895733E1,4.5981663E1],"tree_param":{"num_deleted":"0","num_feature":"4","num_nodes":"13","size_leaf_vector":"1"}},{"base_weights":[-1.867165E-1,-5.723854E-1,-3.7616484E-2,-6.0474813E-1,3.087308E-3,1.0399741E0,-1.0462828E-1,1.4600233E-4,-6.4443485E-3,1.4206293E-2,-2.632352E-3,9.827372E-4,-3.2703688E-3],"categories":[],"categories_nodes":[],"categories_segments":[],"categories_sizes":[],"default_left":[0,0,0,0,0,0,0,0,0,0,0,0,0],"id":1,"left_children":[1,3,5,7,-1,9,11,-1,-1,-1,-1,-1,-1],"loss_changes":[8.100978E0,1.3077211E0,7.542267E0,9.4978523E-1,0E0,3.409011E0,4.4465766E0,0E0,0E0,0E0,0E0,0E0,0E0],"parents":[2147483647,0,0,1,1,2,2,3,3,5,5,6,6],"right_children":[2,4,6,8,-1,10,12,-1,-1,-1,-1,-1,-1],"split_conditions":[6.429534E-1,9.816972E1,5.2882378E1,5.249895E1,3.087308E-3,8.9101404E-1,7.7987785E1,1.4600233E-4,-6.4443485E-3,1.4206293E-2,-2.632352E-3,9.827372E-4,-3.2703688E-3],"split_indices":[1,2,2,2,0,1,2,0,0,0,0,0,0],"split_type":[0,0,0,0,0,0,0,0,0,0,0,0,0],"sum_hessian":[1.4025308E2,3.831272E1,1.0194036E2,3.725792E1,1.0548003E0,5.1181483E0,9.682221E1,2.2817159E0,3.4976204E1,3.8914046E0,1.2267438E0,5.092332E1,4.5898895E1],"tree_param":{"num_deleted":"0","num_feature":"4","num_nodes":"13","size_leaf_vector":"1"}},{"base_weights":[-1.8500605E-1,-5.685124E-1,-3.716329E-2,-6.0081375E-1,3.0687982E-3,1.0267144E0,-1.0366502E-1,1.4497901E-4,-6.403806E-3,1.4007297E-2,-2.6199373E-3,9.725844E-4,-3.2440715E-3],"categories":[],"categories_nodes":[],"categories_segments":[],"categories_sizes":[],"default_left":[0,0,0,0,0,0,0,0,0,0,0,0,0],"id":2,"left_children":[1,3,5,7,-1,9,11,-1,-1,-1,-1,-1,-1],"loss_changes":[7.979317E0,1.2925596E0,7.3875446E0,9.3770313E-1,0E0,3.3294563E0,4.3677573E0,0E0,0E0,0E0,0E0,0E0,0E0],"parents":[2147483647,0,0,1,1,2,2,3,3,5,5,6,6],"right_children":[2,4,6,8,-1,10,12,-1,-1,-1,-1,-1,-1],"split_conditions":[6.429534E-1,9.816972E1,5.2882378E1,5.249895E1,3.0687982E-3,8.9101404E-1,7.7987785E1,1.4497901E-4,-6.403806E-3,1.4007297E-2,-2.6199373E-3,9.725844E-4,-3.2440715E-3],"split_indices":[1,2,2,2,0,1,2,0,0,0,0,0,0],"split_type":[0,0,0,0,0,0,0,0,0,0,0,0,0],"sum_hessian":[1.4010474E2,3.819109E1,1.0191364E2,3.7134514E1,1.056574E0,5.1462545E0,9.676739E1,2.2818978E0,3.485262E1,3.9212768E0,1.2249777E0,5.0950623E1,4.581677E1],"tree_param":{"num_deleted":"0","num_feature":"4","num_nodes":"13","size_leaf_vector":"1"}},{"base_weights":[-1.8331122E-1,-5.646611E-1,-3.6716036E-2,-5.9690046E-1,3.0504048E-3,1.0137073E0,-1.0271026E-1,1.439644E-4,-6.363473E-3,1.3812752E-2,-2.6075845E-3,9.62544E-4,-3.2179533E-3],"categories":[],"categories_nodes":[],"categories_segments":[],"categories_sizes":[],"default_left":[0,0,0,0,0,0,0,0,0,0,0,0,0],"id":3,"left_children":[1,3,5,7,-1,9,11,-1,-1,-1,-1,-1,-1],"loss_changes":[7.8593335E0,1.2775526E0,7.2364244E0,9.25766E-1,0E0,3.2523584E0,4.290299E0,0E0,0E0,0E0,0E0,0E0,0E0],"parents":[2147483647,0,0,1,1,2,2,3,3,5,5,6,6],"right_children":[2,4,6,8,-1,10,12,-1,-1,-1,-1,-1,-1],"split_conditions":[6.429534E-1,9.816972E1,5.2882378E1,5.249895E1,3.0504048E-3,8.9101404E-1,7.7987785E1,1.439644E-4,-6.363473E-3,1.3812752E-2,-2.6075845E-3,9.62544E-4,-3.2179533E-3],"split_indices":[1,2,2,2,0,1,2,0,0,0,0,0,0],"split_type":[0,0,0,0,0,0,0,0,0,0,0,0,0],"sum_hessian":[1.3995695E2,3.8070156E1,1.0188681E2,3.7011818E1,1.0583365E0,5.173896E0,9.671291E1,2.282078E0,3.472974E1,3.9506762E0,1.2232196E0,5.0977634E1,4.5735275E1],"tree_param":{"num_deleted":"0","num_feature":"4","num_nodes":"13","size_leaf_vector":"1"}},{"base_weights":[-1.8163194E-1,-5.608314E-1,-3.627473E-2,-5.930083E-1,3.032127E-3,1.0009453E0,-1.0176405E-1,1.4295412E-4,-6.323347E-3,1.3622507E-2,-2.5952908E-3,9.5261156E-4,-3.1920124E-3],"categories":[],"categories_nodes":[],"categories_segments":[],"categories_sizes":[],"default_left":[0,0,0,0,0,0,0,0,0,0,0,0,0],"id":4,"left_children":[1,3,5,7,-1,9,11,-1,-1,-1,-1,-1,-1],"loss_changes":[7.7410045E0,1.262702E0,7.0888057E0,9.139652E-1,0E0,3.1776152E0,4.21417E0,0E0,0E0,0E0,0E0,0E0,0E0],"parents":[2147483647,0,0,1,1,2,2,3,3,5,5,6,6],"right_children":[2,4,6,8,-1,10,12,-1,-1,-1,-1,-1,-1],"split_conditions":[6.429534E-1,9.816972E1,5.2882378E1,5.249895E1,3.032127E-3,8.9101404E-1,7.7987785E1,1.4295412E-4,-6.323347E-3,1.3622507E-2,-2.5952908E-3,9.5261156E-4,-3.1920124E-3],"split_indices":[1,2,2,2,0,1,2,0,0,0,0,0,0],"split_type":[0,0,0,0,0,0,0,0,0,0,0,0,0],"sum_hessian":[1.398098E2,3.7949924E1,1.0185987E2,3.6889835E1,1.0600882E0,5.2010784E0,9.665879E1,2.2822578E0,3.460758E1,3.979609E0,1.2214694E0,5.100437E1,4.5654423E1],"tree_param":{"num_deleted":"0","num_feature":"4","num_nodes":"13","size_leaf_vector":"1"}},{"base_weights":[-1.7996804E-1,-5.570233E-1,-3.5839215E-2,-5.89137E-1,3.0139652E-3,9.8842216E-1,-1.0082628E-1,1.4195254E-4,-6.2834285E-3,1.3436428E-2,-2.5830562E-3,9.4278733E-4,-3.166249E-3],"categories":[],"categories_nodes":[],"categories_segments":[],"categories_sizes":[],"default_left":[0,0,0,0,0,0,0,0,0,0,0,0,0],"id":5,"left_children":[1,3,5,7,-1,9,11,-1,-1,-1,-1,-1,-1],"loss_changes":[7.6243134E0,1.2480049E0,6.9445953E0,9.023018E-1,0E0,3.1051402E0,4.1393533E0,0E0,0E0,0E0,0E0,0E0,0E0],"parents":[2147483647,0,0,1,1,2,2,3,3,5,5,6,6],"right_children":[2,4,6,8,-1,10,12,-1,-1,-1,-1,-1,-1],"split_conditions":[6.429534E-1,9.816972E1,5.2882378E1,5.249895E1,3.0139652E-3,8.9101404E-1,7.7987785E1,1.4195254E-4,-6.2834285E-3,1.3436428E-2,-2.5830562E-3,9.4278733E-4,-3.166249E-3],"split_indices":[1,2,2,2,0,1,2,0,0,0,0,0,0],"split_type":[0,0,0,0,0,0,0,0,0,0,0,0,0],"sum_hessian":[1.3966321E2,3.78304E1,1.0183282E2,3.676857E1,1.0618285E0,5.227807E0,9.6605E1,2.2824354E0,3.4486137E1,4.0080795E0,1.219727E0,5.1030815E1,4.557419E1],"tree_param":{"num_deleted":"0","num_feature":"4","num_nodes":"13","size_leaf_vector":"1"}},{"base_weights":[-1.7831941E-1,-5.5323637E-1,-3.540955E-2,-5.8528644E-1,2.995918E-3,9.76131E-1,-9.989698E-2,1.409582E-4,-6.243713E-3,1.3254375E-2,-2.5708824E-3,9.3306764E-4,-3.1406619E-3],"categories":[],"categories_nodes":[],"categories_segments":[],"categories_sizes":[],"default_left":[0,0,0,0,0,0,0,0,0,0,0,0,0],"id":6,"left_children":[1,3,5,7,-1,9,11,-1,-1,-1,-1,-1,-1],"loss_changes":[7.509231E0,1.2334595E0,6.803698E0,8.907747E-1,0E0,3.0348368E0,4.065823E0,0E0,0E0,0E0,0E0,0E0,0E0],"parents":[2147483647,0,0,1,1,2,2,3,3,5,5,6,6],"right_children":[2,4,6,8,-1,10,12,-1,-1,-1,-1,-1,-1],"split_conditions":[6.429534E-1,9.816972E1,5.2882378E1,5.249895E1,2.995918E-3,8.9101404E-1,7.7987785E1,1.409582E-4,-6.243713E-3,1.3254375E-2,-2.5708824E-3,9.3306764E-4,-3.1406619E-3],"split_indices":[1,2,2,2,0,1,2,0,0,0,0,0,0],"split_type":[0,0,0,0,0,0,0,0,0,0,0,0,0],"sum_hessian":[1.3951727E2,3.771158E1,1.0180569E2,3.664802E1,1.0635579E0,5.2540865E0,9.65516E1,2.2826123E0,3.436541E1,4.0360937E0,1.2179927E0,5.1057003E1,4.54946E1],"tree_param":{"num_deleted":"0","num_feature":"4","num_nodes":"13","size_leaf_vector":"1"}},{"base_weights":[-1.7668569E-1,-5.494704E-1,-3.498534E-2,-5.814563E-1,2.9779843E-3,9.6406597E-1,-9.897583E-2,1.3997112E-4,-6.2042004E-3,1.30762225E-2,-2.5587662E-3,9.234549E-4,-3.1152484E-3],"categories":[],"categories_nodes":[],"categories_segments":[],"categories_sizes":[],"default_left":[0,0,0,0,0,0,0,0,0,0,0,0,0],"id":7,"left_children":[1,3,5,7,-1,9,11,-1,-1,-1,-1,-1,-1],"loss_changes":[7.395744E0,1.2190666E0,6.6660233E0,8.793783E-1,0E0,2.9666247E0,3.9935606E0,0E0,0E0,0E0,0E0,0E0,0E0],"parents":[2147483647,0,0,1,1,2,2,3,3,5,5,6,6],"right_children":[2,4,6,8,-1,10,12,-1,-1,-1,-1,-1,-1],"split_conditions":[6.429534E-1,9.816972E1,5.2882378E1,5.249895E1,2.9779843E-3,8.9101404E-1,7.7987785E1,1.3997112E-4,-6.2042004E-3,1.30762225E-2,-2.5587662E-3,9.234549E-4,-3.1152484E-3],"split_indices":[1,2,2,2,0,1,2,0,0,0,0,0,0],"split_type":[0,0,0,0,0,0,0,0,0,0,0,0,0],"sum_hessian":[1.3937192E2,3.759347E1,1.0177845E2,3.6528194E1,1.0652764E0,5.2799215E0,9.649853E1,2.2827878E0,3.4245407E1,4.063656E0,1.2162659E0,5.1082905E1,4.5415627E1],"tree_param":{"num_deleted":"0","num_feature":"4","num_nodes":"13","size_leaf_vector":"1"}},{"base_weights":[-1.7506686E-1,-5.457253E-1,-3.4566727E-2,-5.776465E-1,2.9601639E-3,9.5222044E-1,-9.806295E-2,1.3899081E-4,-6.164886E-3,1.29018435E-2,-2.546709E-3,9.139439E-4,-3.0900082E-3],"categories":[],"categories_nodes":[],"categories_segments":[],"categories_sizes":[],"default_left":[0,0,0,0,0,0,0,0,0,0,0,0,0],"id":8,"left_children":[1,3,5,7,-1,9,11,-1,-1,-1,-1,-1,-1],"loss_changes":[7.283827E0,1.2048206E0,6.5314813E0,8.681135E-1,0E0,2.900422E0,3.9225392E0,0E0,0E0,0E0,0E0,0E0,0E0],"parents":[2147483647,0,0,1,1,2,2,3,3,5,5,6,6],"right_children":[2,4,6,8,-1,10,12,-1,-1,-1,-1,-1,-1],"split_conditions":[6.429534E-1,9.816972E1,5.2882378E1,5.249895E1,2.9601639E-3,8.9101404E-1,7.7987785E1,1.3899081E-4,-6.164886E-3,1.29018435E-2,-2.546709E-3,9.139439E-4,-3.0900082E-3],"split_indices":[1,2,2,2,0,1,2,0,0,0,0,0,0],"split_type":[0,0,0,0,0,0,0,0,0,0,0,0,0],"sum_hessian":[1.392272E2,3.747607E1,1.0175114E2,3.6409084E1,1.0669839E0,5.3053193E0,9.6445816E1,2.282962E0,3.4126125E1,4.090772E0,1.214547E0,5.1108547E1,4.5337265E1],"tree_param":{"num_deleted":"0","num_feature":"4","num_nodes":"13","size_leaf_vector":"1"}},{"base_weights":[-1.7346276E-1,-5.420011E-1,-3.4153514E-2,-5.7385695E-1,2.9424566E-3,9.405888E-1,-9.715818E-2,1.3801728E-4,-6.125773E-3,1.2731119E-2,-2.5347113E-3,9.045371E-4,-3.0649416E-3],"categories":[],"categories_nodes":[],"categories_segments":[],"categories_sizes":[],"default_left":[0,0,0,0,0,0,0,0,0,0,0,0,0],"id":9,"left_children":[1,3,5,7,-1,9,11,-1,-1,-1,-1,-1,-1],"loss_changes":[7.173469E0,1.1907234E0,6.39999E0,8.569813E-1,0E0,2.836152E0,3.8527467E0,0E0,0E0,0E0,0E0,0E0,0E0],"parents":[2147483647,0,0,1,1,2,2,3,3,5,5,6,6],"right_children":[2,4,6,8,-1,10,12,-1,-1,-1,-1,-1,-1],"split_conditions":[6.429534E-1,9.816972E1,5.2882378E1,5.249895E1,2.9424566E-3,8.9101404E-1,7.7987785E1,1.3801728E-4,-6.125773E-3,1.2731119E-2,-2.5347113E-3,9.045371E-4,-3.0649416E-3],"split_indices":[1,2,2,2,0,1,2,0,0,0,0,0,0],"split_type":[0,0,0,0,0,0,0,0,0,0,0,0,0],"sum_hessian":[1.3908313E2,3.7359386E1,1.0172374E2,3.6290707E1,1.0686805E0,5.3302836E0,9.6393456E1,2.2831352E0,3.400757E1,4.117448E0,1.212836E0,5.1133923E1,4.525953E1],"tree_param":{"num_deleted":"0","num_feature":"4","num_nodes":"13","size_leaf_vector":"1"}},{"base_weights":[-1.7187321E-1,-5.382973E-1,-3.3745673E-2,-5.7008725E-1,2.924859E-3,9.2916536E-1,-9.62615E-2,1.3705E-4,-6.0868547E-3,1.2563936E-2,-2.5227698E-3,8.952329E-4,-3.0400492E-3],"categories":[],"categories_nodes":[],"categories_segments":[],"categories_sizes":[],"default_left":[0,0,0,0,0,0,0,0,0,0,0,0,0],"id":10,"left_children":[1,3,5,7,-1,9,11,-1,-1,-1,-1,-1,-1],"loss_changes":[7.0646367E0,1.1767731E0,6.2714686E0,8.459749E-1,0E0,2.7737408E0,3.7841644E0,0E0,0E0,0E0,0E0,0E0,0E0],"parents":[2147483647,0,0,1,1,2,2,3,3,5,5,6,6],"right_children":[2,4,6,8,-1,10,12,-1,-1,-1,-1,-1,-1],"split_conditions":[6.429534E-1,9.816972E1,5.2882378E1,5.249895E1,2.924859E-3,8.9101404E-1,7.7987785E1,1.3705E-4,-6.0868547E-3,1.2563936E-2,-2.5227698E-3,8.952329E-4,-3.0400492E-3],"split_indices":[1,2,2,2,0,1,2,0,0,0,0,0,0],"split_type":[0,0,0,0,0,0,0,0,0,0,0,0,0],"sum_hessian":[1.3893968E2,3.7243416E1,1.01696266E2,3.6173046E1,1.0703666E0,5.3548203E0,9.6341446E1,2.283307E0,3.388974E1,4.1436877E0,1.2111328E0,5.115903E1,4.518241E1],"tree_param":{"num_deleted":"0","num_feature":"4","num_nodes":"13","size_leaf_vector":"1"}},{"base_weights":[-1.7029811E-1,-5.3461397E-1,-3.334315E-2,-5.663374E-1,2.907375E-3,9.179447E-1,-9.5372885E-2,1.3608848E-4,-6.0481313E-3,1.2400187E-2,-2.510886E-3,8.860268E-4,-3.0153275E-3],"categories":[],"categories_nodes":[],"categories_segments":[],"categories_sizes":[],"default_left":[0,0,0,0,0,0,0,0,0,0,0,0,0],"id":11,"left_children":[1,3,5,7,-1,9,11,-1,-1,-1,-1,-1,-1],"loss_changes":[6.957319E0,1.1629658E0,6.145837E0,8.3509636E-1,0E0,2.7131205E0,3.71676E0,0E0,0E0,0E0,0E0,0E0,0E0],"parents":[2147483647,0,0,1,1,2,2,3,3,5,5,6,6],"right_children":[2,4,6,8,-1,10,12,-1,-1,-1,-1,-1,-1],"split_conditions":[6.429534E-1,9.816972E1,5.2882378E1,5.249895E1,2.907375E-3,8.9101404E-1,7.7987785E1,1.3608848E-4,-6.0481313E-3,1.2400187E-2,-2.510886E-3,8.860268E-4,-3.0153275E-3],"split_indices":[1,2,2,2,0,1,2,0,0,0,0,0,0],"split_type":[0,0,0,0,0,0,0,0,0,0,0,0,0],"sum_hessian":[1.3879686E2,3.7128155E1,1.0166871E2,3.6056114E1,1.0720416E0,5.378934E0,9.628977E1,2.2834778E0,3.3772636E1,4.169497E0,1.2094369E0,5.1183876E1,4.51059E1],"tree_param":{"num_deleted":"0","num_feature":"4","num_nodes":"13","size_leaf_vector":"1"}},{"base_weights":[-1.6873732E-1,-5.30951E-1,-3.2945823E-2,-5.6260747E-1,2.8899985E-3,9.069215E-1,-9.449222E-2,1.3513473E-4,-6.0096043E-3,1.2239764E-2,-2.4990605E-3,8.7692117E-4,-2.9907771E-3],"categories":[],"categories_nodes":[],"categories_segments":[],"categories_sizes":[],"default_left":[0,0,0,0,0,0,0,0,0,0,0,0,0],"id":12,"left_children":[1,3,5,7,-1,9,11,-1,-1,-1,-1,-1,-1],"loss_changes":[6.8515005E0,1.1493034E0,6.0230174E0,8.243418E-1,0E0,2.654223E0,3.650526E0,0E0,0E0,0E0,0E0,0E0,0E0],"parents":[2147483647,0,0,1,1,2,2,3,3,5,5,6,6],"right_children":[2,4,6,8,-1,10,12,-1,-1,-1,-1,-1,-1],"split_conditions":[6.429534E-1,9.816972E1,5.2882378E1,5.249895E1,2.8899985E-3,8.9101404E-1,7.7987785E1,1.3513473E-4,-6.0096043E-3,1.2239764E-2,-2.4990605E-3,8.7692117E-4,-2.9907771E-3],"split_indices":[1,2,2,2,0,1,2,0,0,0,0,0,0],"split_type":[0,0,0,0,0,0,0,0,0,0,0,0,0],"sum_hessian":[1.3865472E2,3.701362E1,1.01641106E2,3.593991E1,1.0737062E0,5.402631E0,9.623847E1,2.2836473E0,3.3656265E1,4.194882E0,1.2077491E0,5.1208466E1,4.503001E1],"tree_param":{"num_deleted":"0","num_feature":"4","num_nodes":"13","size_leaf_vector":"1"}},{"base_weights":[-1.6719061E-1,-5.2730805E-1,-3.255358E-2,-5.588969E-1,2.8727325E-3,8.960906E-1,-9.3619406E-2,1.3418777E-4,-5.971267E-3,1.2082569E-2,-2.4872913E-3,8.6791243E-4,-2.9663958E-3],"categories":[],"categories_nodes":[],"categories_segments":[],"categories_sizes":[],"default_left":[0,0,0,0,0,0,0,0,0,0,0,0,0],"id":13,"left_children":[1,3,5,7,-1,9,11,-1,-1,-1,-1,-1,-1],"loss_changes":[6.7471523E0,1.1357832E0,5.9029374E0,8.137131E-1,0E0,2.5969858E0,3.5854325E0,0E0,0E0,0E0,0E0,0E0,0E0],"parents":[2147483647,0,0,1,1,2,2,3,3,5,5,6,6],"right_children":[2,4,6,8,-1,10,12,-1,-1,-1,-1,-1,-1],"split_conditions":[6.429534E-1,9.816972E1,5.2882378E1,5.249895E1,2.8727325E-3,8.9101404E-1,7.7987785E1,1.3418777E-4,-5.971267E-3,1.2082569E-2,-2.4872913E-3,8.6791243E-4,-2.9663958E-3],"split_indices":[1,2,2,2,0,1,2,0,0,0,0,0,0],"split_type":[0,0,0,0,0,0,0,0,0,0,0,0,0],"sum_hessian":[1.3851323E2,3.6899796E1,1.01613434E2,3.5824432E1,1.0753601E0,5.4259157E0,9.6187515E1,2.2838159E0,3.354062E1,4.2198467E0,1.2060688E0,5.12328E1,4.4954716E1],"tree_param":{"num_deleted":"0","num_feature":"4","num_nodes":"13","size_leaf_vector":"1"}},{"base_weights":[-1.656579E-1,-5.2368516E-1,-3.2166325E-2,-5.552058E-1,2.8555747E-3,8.8544685E-1,-9.275434E-2,1.3324748E-4,-5.933122E-3,1.19285E-2,-2.4755797E-3,8.5900165E-4,-2.9421835E-3],"categories":[],"categories_nodes":[],"categories_segments":[],"categories_sizes":[],"default_left":[0,0,0,0,0,0,0,0,0,0,0,0,0],"id":14,"left_children":[1,3,5,7,-1,9,11,-1,-1,-1,-1,-1,-1],"loss_changes":[6.6442666E0,1.1224012E0,5.785521E0,8.032074E-1,0E0,2.5413465E0,3.5214689E0,0E0,0E0,0E0,0E0,0E0,0E0],"parents":[2147483647,0,0,1,1,2,2,3,3,5,5,6,6],"right_children":[2,4,6,8,-1,10,12,-1,-1,-1,-1,-1,-1],"split_conditions":[6.429534E-1,9.816972E1,5.2882378E1,5.249895E1,2.8555747E-3,8.9101404E-1,7.7987785E1,1.3324748E-4,-5.933122E-3,1.19285E-2,-2.4755797E-3,8.5900165E-4,-2.9421835E-3],"split_indices":[1,2,2,2,0,1,2,0,0,0,0,0,0],"split_type":[0,0,0,0,0,0,0,0,0,0,0,0,0],"sum_hessian":[1.3837239E2,3.6786697E1,1.015857E2,3.5709694E1,1.0770032E0,5.4487944E0,9.61369E1,2.2839828E0,3.342571E1,4.244398E0,1.2043962E0,5.125688E1,4.488002E1],"tree_param":{"num_deleted":"0","num_feature":"4","num_nodes":"13","size_leaf_vector":"1"}},{"base_weights":[-1.6413899E-1,-5.2008206E-1,-3.178404E-2,-5.51534E-1,2.8385245E-3,5.768966E-1,-1.2164786E-1,1.3231304E-4,-5.8951653E-3,1.1950743E-2,-1.3759894E-3,-1.0659988E-2,-5.846806E-4],"categories":[],"categories_nodes":[],"categories_segments":[],"categories_sizes":[],"default_left":[0,0,0,0,0,0,0,0,0,0,0,0,0],"id":15,"left_children":[1,3,5,7,-1,9,11,-1,-1,-1,-1,-1,-1],"loss_changes":[6.5428143E0,1.1091614E0,5.6799283E0,7.9282284E-1,0E0,6.0687323E0,5.318776E0,0E0,0E0,0E0,0E0,0E0,0E0],"parents":[2147483647,0,0,1,1,2,2,3,3,5,5,6,6],"right_children":[2,4,6,8,-1,10,12,-1,-1,-1,-1,-1,-1],"split_conditions":[6.429534E-1,9.816972E1,5.580695E1,5.249895E1,2.8385245E-3,8.212826E-1,5.8151768E1,1.3231304E-4,-5.8951653E-3,1.1950743E-2,-1.3759894E-3,-1.0659988E-2,-5.846806E-4],"split_indices":[1,2,2,2,0,1,2,0,0,0,0,0,0],"split_type":[0,0,0,0,0,0,0,0,0,0,0,0,0],"sum_hessian":[1.3823222E2,3.667431E1,1.01557915E2,3.5595673E1,1.0786362E0,1.2367644E1,8.919027E1,2.284149E0,3.3311523E1,6.2701397E0,6.097504E0,4.5975814E0,8.459269E1],"tree_param":{"num_deleted":"0","num_feature":"4","num_nodes":"13","size_leaf_vector":"1"}},{"base_weights":[-1.6268256E-1,-5.164987E-1,-3.148259E-2,-5.478813E-1,2.821583E-3,8.6817974E-1,-9.128178E-2,1.3138674E-4,-5.8573973E-3,1.1680362E-2,-2.457447E-3,8.575366E-4,-2.9133572E-3],"categories":[],"categories_nodes":[],"categories_segments":[],"categories_sizes":[],"default_left":[0,0,0,0,0,0,0,0,0,0,0,0,0],"id":16,"left_children":[1,3,5,7,-1,9,11,-1,-1,-1,-1,-1,-1],"loss_changes":[6.440872E0,1.0960579E0,5.595686E0,7.8255653E-1,0E0,2.4534383E0,3.4622345E0,0E0,0E0,0E0,0E0,0E0,0E0],"parents":[2147483647,0,0,1,1,2,2,3,3,5,5,6,6],"right_children":[2,4,6,8,-1,10,12,-1,-1,-1,-1,-1,-1],"split_conditions":[6.429534E-1,9.816972E1,5.2882378E1,5.249895E1,2.821583E-3,8.9101404E-1,7.7987785E1,1.3138674E-4,-5.8573973E-3,1.1680362E-2,-2.457447E-3,8.575366E-4,-2.9133572E-3],"split_indices":[1,2,2,2,0,1,2,0,0,0,0,0,0],"split_type":[0,0,0,0,0,0,0,0,0,0,0,0,0],"sum_hessian":[1.3810042E2,3.656265E1,1.01537766E2,3.548239E1,1.0802585E0,5.485885E0,9.605188E1,2.2843137E0,3.319808E1,4.284079E0,1.2018058E0,5.1260677E1,4.4791203E1],"tree_param":{"num_deleted":"0","num_feature":"4","num_nodes":"13","size_leaf_vector":"1"}},{"base_weights":[-1.6119005E-1,-5.1293486E-1,-3.1108765E-2,-5.442477E-1,2.8047457E-3,8.580115E-1,-9.043754E-2,-4.5373244E-3,-9.04709E-3,1.1534158E-2,-2.4458782E-3,8.4873755E-4,-2.8895135E-3],"categories":[],"categories_nodes":[],"categories_segments":[],"categories_sizes":[],"default_left":[0,0,0,0,0,0,0,0,0,0,0,0,0],"id":17,"left_children":[1,3,5,7,-1,9,11,-1,-1,-1,-1,-1,-1],"loss_changes":[6.3422937E0,1.0830927E0,5.485042E0,7.7615166E-1,0E0,2.4017544E0,3.400371E0,0E0,0E0,0E0,0E0,0E0,0E0],"parents":[2147483647,0,0,1,1,2,2,3,3,5,5,6,6],"right_children":[2,4,6,8,-1,10,12,-1,-1,-1,-1,-1,-1],"split_conditions":[6.429534E-1,9.816972E1,5.2882378E1,8.952549E1,2.8047457E-3,8.9101404E-1,7.7987785E1,-4.5373244E-3,-9.04709E-3,1.1534158E-2,-2.4458782E-3,8.4873755E-4,-2.8895135E-3],"split_indices":[1,2,2,2,0,1,2,0,0,0,0,0,0],"split_type":[0,0,0,0,0,0,0,0,0,0,0,0,0],"sum_hessian":[1.379617E2,3.64517E1,1.0151E2,3.536983E1,1.0818706E0,5.507709E0,9.600229E1,3.0076174E1,5.2936563E0,4.3075566E0,1.2001526E0,5.1284466E1,4.4717823E1],"tree_param":{"num_deleted":"0","num_feature":"4","num_nodes":"13","size_leaf_vector":"1"}},{"base_weights":[-1.59762E-1,-5.095333E-1,-3.073976E-2,-5.4077566E-1,2.7880147E-3,5.604852E-1,-1.1872922E-1,-4.5049186E-3,-9.011074E-3,1.1628816E-2,-1.4069589E-3,-1.0628932E-2,-5.5740867E-4],"categories":[],"categories_nodes":[],"categories_segments":[],"categories_sizes":[],"default_left":[0,0,0,0,0,0,0,0,0,0,0,0,0],"id":18,"left_children":[1,3,5,7,-1,9,11,-1,-1,-1,-1,-1,-1],"loss_changes":[6.2494354E0,1.070591E0,5.397829E0,7.7377033E-1,0E0,5.845147E0,5.2950315E0,0E0,0E0,0E0,0E0,0E0,0E0],"parents":[2147483647,0,0,1,1,2,2,3,3,5,5,6,6],"right_children":[2,4,6,8,-1,10,12,-1,-1,-1,-1,-1,-1],"split_conditions":[6.429534E-1,9.816972E1,5.580695E1,8.952549E1,2.7880147E-3,8.212826E-1,5.8151768E1,-4.5049186E-3,-9.011074E-3,1.1628816E-2,-1.4069589E-3,-1.0628932E-2,-5.5740867E-4],"split_indices":[1,2,2,2,0,1,2,0,0,0,0,0,0],"split_type":[0,0,0,0,0,0,0,0,0,0,0,0,0],"sum_hessian":[1.3782866E2,3.634646E1,1.0148219E2,3.5262985E1,1.0834723E0,1.2450954E1,8.903124E1,2.9997183E1,5.2658033E0,6.343062E0,6.1078925E0,4.575301E0,8.445594E1],"tree_param":{"num_deleted":"0","num_feature":"4","num_nodes":"13","size_leaf_vector":"1"}},{"base_weights":[-1.5839577E-1,-5.0615066E-1,-3.0451318E-2,-5.3732204E-1,2.7713883E-3,2.486411E-1,-2.1599239E-1,1.9386873E-4,-5.7524317E-3,8.1304327E-4,1.1977201E-2,-3.2709518E-3,4.3198992E-3],"categories":[],"categories_nodes":[],"categories_segments":[],"categories_sizes":[],"default_left":[0,0,0,0,0,0,0,0,0,0,0,0,0],"id":19,"left_children":[1,3,5,7,-1,9,11,-1,-1,-1,-1,-1,-1],"loss_changes":[6.1559815E0,1.058219E0,5.359505E0,7.744589E-1,0E0,6.474545E0,4.610691E0,0E0,0E0,0E0,0E0,0E0,0E0],"parents":[2147483647,0,0,1,1,2,2,3,3,5,5,6,6],"right_children":[2,4,6,8,-1,10,12,-1,-1,-1,-1,-1,-1],"split_conditions":[6.429534E-1,9.816972E1,6.979852E1,5.249895E1,2.7713883E-3,6.729388E1,9.604973E1,1.9386873E-4,-5.7524317E-3,8.1304327E-4,1.1977201E-2,-3.2709518E-3,4.3198992E-3],"split_indices":[1,2,2,2,0,2,2,0,0,0,0,0,0],"split_type":[0,0,0,0,0,0,0,0,0,0,0,0,0],"sum_hessian":[1.3770387E2,3.6241886E1,1.0146199E2,3.5156822E1,1.0850637E0,4.038079E1,6.1081203E1,2.2732131E0,3.288361E1,3.5251152E1,5.129637E0,5.256384E1,8.5173645E0],"tree_param":{"num_deleted":"0","num_feature":"4","num_nodes":"13","size_leaf_vector":"1"}},{"base_weights":[-1.5689056E-1,-5.026416E-1,-3.0023487E-2,-5.337414E-1,2.7548664E-3,1.7112418E-1,-2.846339E-1,-4.43479E-3,-8.95246E-3,7.6921016E-4,1.0084924E-2,-5.370147E-3,2.5786576E-3],"categories":[],"categories_nodes":[],"categories_segments":[],"categories_sizes":[],"default_left":[0,0,0,0,0,0,0,0,0,0,0,0,0],"id":20,"left_children":[1,3,5,7,-1,9,11,-1,-1,-1,-1,-1,-1],"loss_changes":[6.063134E0,1.0456467E0,5.2948647E0,7.791805E-1,0E0,4.4858184E0,6.379827E0,0E0,0E0,0E0,0E0,0E0,0E0],"parents":[2147483647,0,0,1,1,2,2,3,3,5,5,6,6],"right_children":[2,4,6,8,-1,10,12,-1,-1,-1,-1,-1,-1],"split_conditions":[6.429534E-1,9.816972E1,7.7987785E1,8.952549E1,2.7548664E-3,7.534602E1,9.368493E1,-4.43479E-3,-8.95246E-3,7.6921016E-4,1.0084924E-2,-5.370147E-3,2.5786576E-3],"split_indices":[1,2,2,2,0,2,2,0,0,0,0,0,0],"split_type":[0,0,0,0,0,0,0,0,0,0,0,0,0],"sum_hessian":[1.3756845E2,3.6133045E1,1.0143541E2,3.50464E1,1.086645E0,5.6850334E1,4.458508E1,2.9826036E1,5.220363E0,5.2082912E1,4.767419E0,3.0435865E1,1.4149214E1],"tree_param":{"num_deleted":"0","num_feature":"4","num_nodes":"13","size_leaf_vector":"1"}},{"base_weights":[-1.5548849E-1,-4.9929658E-1,-2.965568E-2,-5.3032434E-1,2.738448E-3,8.396078E-1,-8.810544E-2,-4.402961E-3,-8.917009E-3,1.1278635E-2,-2.435191E-3,8.240907E-4,-2.822999E-3],"categories":[],"categories_nodes":[],"categories_segments":[],"categories_sizes":[],"default_left":[0,0,0,0,0,0,0,0,0,0,0,0,0],"id":21,"left_children":[1,3,5,7,-1,9,11,-1,-1,-1,-1,-1,-1],"loss_changes":[5.974468E0,1.0335302E0,5.2772956E0,7.767172E-1,0E0,2.3188343E0,3.2307088E0,0E0,0E0,0E0,0E0,0E0,0E0],"parents":[2147483647,0,0,1,1,2,2,3,3,5,5,6,6],"right_children":[2,4,6,8,-1,10,12,-1,-1,-1,-1,-1,-1],"split_conditions":[6.429534E-1,9.816972E1,5.2882378E1,8.952549E1,2.738448E-3,8.9101404E-1,7.7987785E1,-4.402961E-3,-8.917009E-3,1.1278635E-2,-2.435191E-3,8.240907E-4,-2.822999E-3],"split_indices":[1,2,2,2,0,1,2,0,0,0,0,0,0],"split_type":[0,0,0,0,0,0,0,0,0,0,0,0,0],"sum_hessian":[1.3744086E2,3.602988E1,1.0141098E2,3.4941666E1,1.0882161E0,5.5472846E0,9.586369E1,2.9748846E1,5.1928196E0,4.3486595E0,1.1986251E0,5.1350487E1,4.4513206E1],"tree_param":{"num_deleted":"0","num_feature":"4","num_nodes":"13","size_leaf_vector":"1"}},{"base_weights":[-1.5410917E-1,-4.9596992E-1,-2.930251E-2,-5.2692515E-1,2.722133E-3,8.29913E-1,-8.728968E-2,-4.3713106E-3,-8.881766E-3,1.11400755E-2,-2.4237307E-3,8.156492E-4,-2.799787E-3],"categories":[],"categories_nodes":[],"categories_segments":[],"categories_sizes":[],"default_left":[0,0,0,0,0,0,0,0,0,0,0,0,0],"id":22,"left_children":[1,3,5,7,-1,9,11,-1,-1,-1,-1,-1,-1],"loss_changes":[5.8867064E0,1.0215435E0,5.1735425E0,7.742605E-1,0E0,2.2708302E0,3.172865E0,0E0,0E0,0E0,0E0,0E0,0E0],"parents":[2147483647,0,0,1,1,2,2,3,3,5,5,6,6],"right_children":[2,4,6,8,-1,10,12,-1,-1,-1,-1,-1,-1],"split_conditions":[6.429534E-1,9.816972E1,5.2882378E1,8.952549E1,2.722133E-3,8.9101404E-1,7.7987785E1,-4.3713106E-3,-8.881766E-3,1.11400755E-2,-2.4237307E-3,8.156492E-4,-2.799787E-3],"split_indices":[1,2,2,2,0,1,2,0,0,0,0,0,0],"split_type":[0,0,0,0,0,0,0,0,0,0,0,0,0],"sum_hessian":[1.3731084E2,3.5927395E1,1.0138345E2,3.4837616E1,1.089777E0,5.5680323E0,9.581542E1,2.967222E1,5.1653967E0,4.3710456E0,1.1969864E0,5.137334E1,4.4442078E1],"tree_param":{"num_deleted":"0","num_feature":"4","num_nodes":"13","size_leaf_vector":"1"}},{"base_weights":[-1.5274222E-1,-4.9266177E-1,-2.8953774E-2,-5.2354395E-1,2.7059184E-3,5.4283714E-1,-1.1483497E-1,-4.339841E-3,-8.846727E-3,1.12999715E-2,-1.4489653E-3,-1.0603356E-2,-5.186357E-4],"categories":[],"categories_nodes":[],"categories_segments":[],"categories_sizes":[],"default_left":[0,0,0,0,0,0,0,0,0,0,0,0,0],"id":23,"left_children":[1,3,5,7,-1,9,11,-1,-1,-1,-1,-1,-1],"loss_changes":[5.8001504E0,1.0096798E0,5.0886345E0,7.7180576E-1,0E0,5.6315613E0,5.2925644E0,0E0,0E0,0E0,0E0,0E0,0E0],"parents":[2147483647,0,0,1,1,2,2,3,3,5,5,6,6],"right_children":[2,4,6,8,-1,10,12,-1,-1,-1,-1,-1,-1],"split_conditions":[6.429534E-1,9.816972E1,5.580695E1,8.952549E1,2.7059184E-3,8.212826E-1,5.8151768E1,-4.339841E-3,-8.846727E-3,1.12999715E-2,-1.4489653E-3,-1.0603356E-2,-5.186357E-4],"split_indices":[1,2,2,2,0,1,2,0,0,0,0,0,0],"split_type":[0,0,0,0,0,0,0,0,0,0,0,0,0],"sum_hessian":[1.3718146E2,3.5825577E1,1.0135589E2,3.473425E1,1.0913281E0,1.2540609E1,8.881528E1,2.9596153E1,5.1380944E0,6.4180536E0,6.1225557E0,4.556853E0,8.425842E1],"tree_param":{"num_deleted":"0","num_feature":"4","num_nodes":"13","size_leaf_vector":"1"}},{"base_weights":[-1.5143697E-1,-4.8937166E-1,-2.8685614E-2,-5.2018034E-1,2.6898058E-3,2.4122459E-1,-2.0948046E-1,-4.1910624E-3,-8.305739E-3,7.550463E-4,1.1786802E-2,-3.1998707E-3,4.311472E-3],"categories":[],"categories_nodes":[],"categories_segments":[],"categories_sizes":[],"default_left":[0,0,0,0,0,0,0,0,0,0,0,0,0],"id":24,"left_children":[1,3,5,7,-1,9,11,-1,-1,-1,-1,-1,-1],"loss_changes":[5.7129807E0,9.97941E-1,5.0443673E0,7.697611E-1,0E0,6.360674E0,4.514453E0,0E0,0E0,0E0,0E0,0E0,0E0],"parents":[2147483647,0,0,1,1,2,2,3,3,5,5,6,6],"right_children":[2,4,6,8,-1,10,12,-1,-1,-1,-1,-1,-1],"split_conditions":[6.429534E-1,9.816972E1,6.979852E1,8.7671394E1,2.6898058E-3,6.729388E1,9.604973E1,-4.1910624E-3,-8.305739E-3,7.550463E-4,1.1786802E-2,-3.1998707E-3,4.311472E-3],"split_indices":[1,2,2,2,0,2,2,0,0,0,0,0,0],"split_type":[0,0,0,0,0,0,0,0,0,0,0,0,0],"sum_hessian":[1.3706053E2,3.572443E1,1.01336105E2,3.463156E1,1.092869E0,4.0515667E1,6.0820435E1,2.7897488E1,6.7340736E0,3.534759E1,5.1680756E0,5.229943E1,8.521006E0],"tree_param":{"num_deleted":"0","num_feature":"4","num_nodes":"13","size_leaf_vector":"1"}},{"base_weights":[-1.5003781E-1,-4.8608747E-1,-2.827646E-2,-5.16822E-1,2.6737934E-3,8.132583E-1,-8.544834E-2,3.454563E-4,-5.55073E-3,1.0906842E-2,-2.4090598E-3,8.0819044E-4,-2.7580233E-3],"categories":[],"categories_nodes":[],"categories_segments":[],"categories_sizes":[],"default_left":[0,0,0,0,0,0,0,0,0,0,0,0,0],"id":25,"left_children":[1,3,5,7,-1,9,11,-1,-1,-1,-1,-1,-1],"loss_changes":[5.6301956E0,9.862976E-1,4.991835E0,7.684994E-1,0E0,2.1939893E0,3.0830104E0,0E0,0E0,0E0,0E0,0E0,0E0],"parents":[2147483647,0,0,1,1,2,2,3,3,5,5,6,6],"right_children":[2,4,6,8,-1,10,12,-1,-1,-1,-1,-1,-1],"split_conditions":[6.429534E-1,9.816972E1,5.2882378E1,5.249895E1,2.6737934E-3,8.9101404E-1,7.7987785E1,3.454563E-4,-5.55073E-3,1.0906842E-2,-2.4090598E-3,8.0819044E-4,-2.7580233E-3],"split_indices":[1,2,2,2,0,1,2,0,0,0,0,0,0],"split_type":[0,0,0,0,0,0,0,0,0,0,0,0,0],"sum_hessian":[1.3693344E2,3.5623596E1,1.0130984E2,3.4529194E1,1.0944003E0,5.603595E0,9.5706245E1,2.2463381E0,3.2282856E1,4.408706E0,1.1948886E0,5.1392323E1,4.431392E1],"tree_param":{"num_deleted":"0","num_feature":"4","num_nodes":"13","size_leaf_vector":"1"}},{"base_weights":[-1.4865442E-1,-4.826836E-1,-2.7939357E-2,-5.133432E-1,2.6578824E-3,8.039915E-1,-8.465634E-2,-4.239819E-3,-8.7574385E-3,1.077517E-2,-2.3977244E-3,5.4313866E-3,-1.340893E-3],"categories":[],"categories_nodes":[],"categories_segments":[],"categories_sizes":[],"default_left":[0,0,0,0,0,0,0,0,0,0,0,0,0],"id":26,"left_children":[1,3,5,7,-1,9,11,-1,-1,-1,-1,-1,-1],"loss_changes":[5.542989E0,9.744711E-1,4.894222E0,7.758608E-1,0E0,2.1492949E0,3.0725265E0,0E0,0E0,0E0,0E0,0E0,0E0],"parents":[2147483647,0,0,1,1,2,2,3,3,5,5,6,6],"right_children":[2,4,6,8,-1,10,12,-1,-1,-1,-1,-1,-1],"split_conditions":[6.429534E-1,9.816972E1,5.2882378E1,8.952549E1,2.6578824E-3,8.9101404E-1,6.729415E-1,-4.239819E-3,-8.7574385E-3,1.077517E-2,-2.3977244E-3,5.4313866E-3,-1.340893E-3],"split_indices":[1,2,2,2,0,1,1,0,0,0,0,0,0],"split_type":[0,0,0,0,0,0,0,0,0,0,0,0,0],"sum_hessian":[1.3680138E2,3.5518906E1,1.0128247E2,3.442298E1,1.0959215E0,5.6233325E0,9.565914E1,2.9354605E1,5.0683775E0,4.430065E0,1.1932671E0,6.253446E0,8.940569E1],"tree_param":{"num_deleted":"0","num_feature":"4","num_nodes":"13","size_leaf_vector":"1"}},{"base_weights":[-1.47292E-1,-4.7944808E-1,-2.7547736E-2,-5.100326E-1,2.6420706E-3,1.6400501E-1,-2.7276266E-1,-4.209091E-3,-8.723099E-3,7.025412E-4,9.980006E-3,-5.245329E-3,2.640319E-3],"categories":[],"categories_nodes":[],"categories_segments":[],"categories_sizes":[],"default_left":[0,0,0,0,0,0,0,0,0,0,0,0,0],"id":27,"left_children":[1,3,5,7,-1,9,11,-1,-1,-1,-1,-1,-1],"loss_changes":[5.4626117E0,9.6310043E-1,4.8477798E0,7.7330494E-1,0E0,4.4673767E0,6.250067E0,0E0,0E0,0E0,0E0,0E0,0E0],"parents":[2147483647,0,0,1,1,2,2,3,3,5,5,6,6],"right_children":[2,4,6,8,-1,10,12,-1,-1,-1,-1,-1,-1],"split_conditions":[6.429534E-1,9.816972E1,7.7987785E1,8.952549E1,2.6420706E-3,7.534602E1,9.368493E1,-4.209091E-3,-8.723099E-3,7.025412E-4,9.980006E-3,-5.245329E-3,2.640319E-3],"split_indices":[1,2,2,2,0,2,2,0,0,0,0,0,0],"split_type":[0,0,0,0,0,0,0,0,0,0,0,0,0],"sum_hessian":[1.3667409E2,3.5419834E1,1.0125425E2,3.43224E1,1.0974329E0,5.703321E1,4.422104E1,2.9280882E1,5.041518E0,5.224455E1,4.7886624E0,3.011785E1,1.4103191E1],"tree_param":{"num_deleted":"0","num_feature":"4","num_nodes":"13","size_leaf_vector":"1"}},{"base_weights":[-1.4596985E-1,-4.762304E-1,-2.720358E-2,-5.067394E-1,2.6263567E-3,5.27131E-1,-1.11148186E-1,-4.178539E-3,-8.688947E-3,1.0997121E-2,-1.4787966E-3,-1.057278E-2,-4.8290912E-4],"categories":[],"categories_nodes":[],"categories_segments":[],"categories_sizes":[],"default_left":[0,0,0,0,0,0,0,0,0,0,0,0,0],"id":28,"left_children":[1,3,5,7,-1,9,11,-1,-1,-1,-1,-1,-1],"loss_changes":[5.382346E0,9.518471E-1,4.81571E0,7.707529E-1,0E0,5.426408E0,5.2782164E0,0E0,0E0,0E0,0E0,0E0,0E0],"parents":[2147483647,0,0,1,1,2,2,3,3,5,5,6,6],"right_children":[2,4,6,8,-1,10,12,-1,-1,-1,-1,-1,-1],"split_conditions":[6.429534E-1,9.816972E1,5.580695E1,8.952549E1,2.6263567E-3,8.212826E-1,5.8151768E1,-4.178539E-3,-8.688947E-3,1.0997121E-2,-1.4787966E-3,-1.057278E-2,-4.8290912E-4],"split_indices":[1,2,2,2,0,1,2,0,0,0,0,0,0],"split_type":[0,0,0,0,0,0,0,0,0,0,0,0,0],"sum_hessian":[1.3655167E2,3.5321426E1,1.0123023E2,3.4222492E1,1.0989347E0,1.2619157E1,8.861108E1,2.9207708E1,5.014785E0,6.4871893E0,6.1319675E0,4.5346766E0,8.40764E1],"tree_param":{"num_deleted":"0","num_feature":"4","num_nodes":"13","size_leaf_vector":"1"}},{"base_weights":[-1.4472345E-1,-4.7303042E-1,-2.6955E-2,-5.034633E-1,2.610741E-3,2.3562618E-1,-2.0390901E-1,-4.1481606E-3,-8.654981E-3,7.131995E-4,1.1624154E-2,-3.1358202E-3,4.2775855E-3],"categories":[],"categories_nodes":[],"categories_segments":[],"categories_sizes":[],"default_left":[0,0,0,0,0,0,0,0,0,0,0,0,0],"id":29,"left_children":[1,3,5,7,-1,9,11,-1,-1,-1,-1,-1,-1],"loss_changes":[5.301046E0,9.40712E-1,4.7972527E0,7.682028E-1,0E0,6.253862E0,4.4014215E0,0E0,0E0,0E0,0E0,0E0,0E0],"parents":[2147483647,0,0,1,1,2,2,3,3,5,5,6,6],"right_children":[2,4,6,8,-1,10,12,-1,-1,-1,-1,-1,-1],"split_conditions":[6.429534E-1,9.816972E1,6.979852E1,8.952549E1,2.610741E-3,6.729388E1,9.604973E1,-4.1481606E-3,-8.654981E-3,7.131995E-4,1.1624154E-2,-3.1358202E-3,4.2775855E-3],"split_indices":[1,2,2,2,0,2,2,0,0,0,0,0,0],"split_type":[0,0,0,0,0,0,0,0,0,0,0,0,0],"sum_hessian":[1.3643454E2,3.5223686E1,1.01210846E2,3.412326E1,1.1004267E0,4.0613342E1,6.0597504E1,2.913508E1,4.988179E0,3.5412224E1,5.201118E0,5.206185E1,8.535653E0],"tree_param":{"num_deleted":"0","num_feature":"4","num_nodes":"13","size_leaf_vector":"1"}},{"base_weights":[-1.4338523E-1,-4.69848E-1,-2.6563935E-2,-5.002044E-1,2.595223E-3,7.872589E-1,-8.2430966E-2,-4.000887E-3,-8.112407E-3,1.0544938E-2,-2.386148E-3,5.3719906E-3,-1.3143814E-3],"categories":[],"categories_nodes":[],"categories_segments":[],"categories_sizes":[],"default_left":[0,0,0,0,0,0,0,0,0,0,0,0,0],"id":30,"left_children":[1,3,5,7,-1,9,11,-1,-1,-1,-1,-1,-1],"loss_changes":[5.2242823E0,9.296942E-1,4.710823E0,7.660866E-1,0E0,2.0771575E0,3.001749E0,0E0,0E0,0E0,0E0,0E0,0E0],"parents":[2147483647,0,0,1,1,2,2,3,3,5,5,6,6],"right_children":[2,4,6,8,-1,10,12,-1,-1,-1,-1,-1,-1],"split_conditions":[6.429534E-1,9.816972E1,5.2882378E1,8.7671394E1,2.595223E-3,8.9101404E-1,6.729415E-1,-4.000887E-3,-8.112407E-3,1.0544938E-2,-2.386148E-3,5.3719906E-3,-1.3143814E-3],"split_indices":[1,2,2,2,0,1,1,0,0,0,0,0,0],"split_type":[0,0,0,0,0,0,0,0,0,0,0,0,0],"sum_hessian":[1.3631158E2,3.5126614E1,1.0118497E2,3.4024704E1,1.101909E0,5.6589274E0,9.552604E1,2.7469265E1,6.55544E0,4.467316E0,1.1916109E0,6.2713675E0,8.925468E1],"tree_param":{"num_deleted":"0","num_feature":"4","num_nodes":"13","size_leaf_vector":"1"}},{"base_weights":[-1.42064E-1,-4.666703E-1,-2.618791E-2,-4.9694955E-1,2.579801E-3,1.6188227E-1,-2.679638E-1,-4.0871366E-3,-8.5895695E-3,6.8570283E-4,9.906443E-3,-5.178565E-3,2.6107526E-3],"categories":[],"categories_nodes":[],"categories_segments":[],"categories_sizes":[],"default_left":[0,0,0,0,0,0,0,0,0,0,0,0,0],"id":31,"left_children":[1,3,5,7,-1,9,11,-1,-1,-1,-1,-1,-1],"loss_changes":[5.1479473E0,9.187646E-1,4.6885514E0,7.6455593E-1,0E0,4.423894E0,6.094034E0,0E0,0E0,0E0,0E0,0E0,0E0],"parents":[2147483647,0,0,1,1,2,2,3,3,5,5,6,6],"right_children":[2,4,6,8,-1,10,12,-1,-1,-1,-1,-1,-1],"split_conditions":[6.429534E-1,9.816972E1,7.7987785E1,8.952549E1,2.579801E-3,7.534602E1,9.368493E1,-4.0871366E-3,-8.5895695E-3,6.8570283E-4,9.906443E-3,-5.178565E-3,2.6107526E-3],"split_indices":[1,2,2,2,0,2,2,0,0,0,0,0,0],"split_type":[0,0,0,0,0,0,0,0,0,0,0,0,0],"sum_hessian":[1.3618704E2,3.5029842E1,1.011572E2,3.392646E1,1.1033818E0,5.7083843E1,4.4073357E1,2.8989552E1,4.9369082E0,5.2280243E1,4.8035994E0,2.9948334E1,1.4125025E1],"tree_param":{"num_deleted":"0","num_feature":"4","num_nodes":"13","size_leaf_vector":"1"}},{"base_weights":[-1.4078589E-1,-4.6352288E-1,-2.585729E-2,-4.9372458E-1,2.5644759E-3,2.3214534E-1,-2.0040269E-1,5.1885005E-4,-5.3238333E-3,6.9328677E-4,1.1469219E-2,-3.0896862E-3,4.2083366E-3],"categories":[],"categories_nodes":[],"categories_segments":[],"categories_sizes":[],"default_left":[0,0,0,0,0,0,0,0,0,0,0,0,0],"id":32,"left_children":[1,3,5,7,-1,9,11,-1,-1,-1,-1,-1,-1],"loss_changes":[5.0720816E0,9.0797853E-1,4.645913E0,7.6226044E-1,0E0,6.127898E0,4.2749567E0,0E0,0E0,0E0,0E0,0E0,0E0],"parents":[2147483647,0,0,1,1,2,2,3,3,5,5,6,6],"right_children":[2,4,6,8,-1,10,12,-1,-1,-1,-1,-1,-1],"split_conditions":[6.429534E-1,9.816972E1,6.979852E1,5.249895E1,2.5644759E-3,6.729388E1,9.604973E1,5.1885005E-4,-5.3238333E-3,6.9328677E-4,1.1469219E-2,-3.0896862E-3,4.2083366E-3],"split_indices":[1,2,2,2,0,2,2,0,0,0,0,0,0],"split_type":[0,0,0,0,0,0,0,0,0,0,0,0,0],"sum_hessian":[1.3606749E2,3.4934097E1,1.0113339E2,3.382925E1,1.104845E0,4.067703E1,6.0456367E1,2.2157102E0,3.161354E1,3.5444263E1,5.2327657E0,5.189071E1,8.565656E0],"tree_param":{"num_deleted":"0","num_feature":"4","num_nodes":"13","size_leaf_vector":"1"}},{"base_weights":[-1.3942999E-1,-4.6023723E-1,-2.5478764E-2,-4.903602E-1,2.5492436E-3,5.156444E-1,-1.0795035E-1,-4.021667E-3,-8.535421E-3,1.076597E-2,-1.4933888E-3,-1.0541937E-2,-4.5257242E-4],"categories":[],"categories_nodes":[],"categories_segments":[],"categories_sizes":[],"default_left":[0,0,0,0,0,0,0,0,0,0,0,0,0],"id":33,"left_children":[1,3,5,7,-1,9,11,-1,-1,-1,-1,-1,-1],"loss_changes":[4.9943724E0,8.9697313E-1,4.6124516E0,7.690773E-1,0E0,5.262645E0,5.2575774E0,0E0,0E0,0E0,0E0,0E0,0E0],"parents":[2147483647,0,0,1,1,2,2,3,3,5,5,6,6],"right_children":[2,4,6,8,-1,10,12,-1,-1,-1,-1,-1,-1],"split_conditions":[6.429534E-1,9.816972E1,5.580695E1,8.952549E1,2.5492436E-3,8.212826E-1,5.8151768E1,-4.021667E-3,-8.535421E-3,1.076597E-2,-1.4933888E-3,-1.0541937E-2,-4.5257242E-4],"split_indices":[1,2,2,2,0,1,2,0,0,0,0,0,0],"split_type":[0,0,0,0,0,0,0,0,0,0,0,0,0],"sum_hessian":[1.3594185E2,3.483418E1,1.01107666E2,3.372788E1,1.106299E0,1.2677043E1,8.8430626E1,2.8833439E1,4.894441E0,6.540642E0,6.136401E0,4.512167E0,8.391846E1],"tree_param":{"num_deleted":"0","num_feature":"4","num_nodes":"13","size_leaf_vector":"1"}},{"base_weights":[-1.3823995E-1,-4.571251E-1,-2.5248747E-2,-4.8716956E-1,2.5341078E-3,1.5977949E-1,-2.63997E-1,-3.992186E-3,-8.50226E-3,6.696764E-4,9.825893E-3,-5.119233E-3,2.5734124E-3],"categories":[],"categories_nodes":[],"categories_segments":[],"categories_sizes":[],"default_left":[0,0,0,0,0,0,0,0,0,0,0,0,0],"id":34,"left_children":[1,3,5,7,-1,9,11,-1,-1,-1,-1,-1,-1],"loss_changes":[4.918558E0,8.864169E-1,4.5519695E0,7.6641464E-1,0E0,4.3739934E0,5.941784E0,0E0,0E0,0E0,0E0,0E0,0E0],"parents":[2147483647,0,0,1,1,2,2,3,3,5,5,6,6],"right_children":[2,4,6,8,-1,10,12,-1,-1,-1,-1,-1,-1],"split_conditions":[6.429534E-1,9.816972E1,7.7987785E1,8.952549E1,2.5341078E-3,7.534602E1,9.368493E1,-3.992186E-3,-8.50226E-3,6.696764E-4,9.825893E-3,-5.119233E-3,2.5734124E-3],"split_indices":[1,2,2,2,0,2,2,0,0,0,0,0,0],"split_type":[0,0,0,0,0,0,0,0,0,0,0,0,0],"sum_hessian":[1.3582858E2,3.473981E1,1.01088776E2,3.363207E1,1.1077434E0,5.713799E1,4.3950787E1,2.876364E1,4.8684273E0,5.231798E1,4.820009E0,2.9798122E1,1.4152663E1],"tree_param":{"num_deleted":"0","num_feature":"4","num_nodes":"13","size_leaf_vector":"1"}},{"base_weights":[-1.3699453E-1,-4.5403007E-1,-2.4927963E-2,-4.8399556E-1,2.5190662E-3,7.702599E-1,-7.991246E-2,-3.962875E-3,-8.469266E-3,1.0314351E-2,-2.3775361E-3,5.3085177E-3,-1.2845526E-3],"categories":[],"categories_nodes":[],"categories_segments":[],"categories_sizes":[],"default_left":[0,0,0,0,0,0,0,0,0,0,0,0,0],"id":35,"left_children":[1,3,5,7,-1,9,11,-1,-1,-1,-1,-1,-1],"loss_changes":[4.8459024E0,8.759713E-1,4.5241423E0,7.6375103E-1,0E0,2.007808E0,2.9253893E0,0E0,0E0,0E0,0E0,0E0,0E0],"parents":[2147483647,0,0,1,1,2,2,3,3,5,5,6,6],"right_children":[2,4,6,8,-1,10,12,-1,-1,-1,-1,-1,-1],"split_conditions":[6.429534E-1,9.816972E1,5.2882378E1,8.952549E1,2.5190662E-3,8.9101404E-1,6.729415E-1,-3.962875E-3,-8.469266E-3,1.0314351E-2,-2.3775361E-3,5.3085177E-3,-1.2845526E-3],"split_indices":[1,2,2,2,0,1,1,0,0,0,0,0,0],"split_type":[0,0,0,0,0,0,0,0,0,0,0,0,0],"sum_hessian":[1.357111E2,3.46461E1,1.0106501E2,3.353692E1,1.1091785E0,5.695002E0,9.537001E1,2.8694374E1,4.8425455E0,4.5046234E0,1.1903787E0,6.290269E0,8.907974E1],"tree_param":{"num_deleted":"0","num_feature":"4","num_nodes":"13","size_leaf_vector":"1"}},{"base_weights":[-1.3573214E-1,-4.5095205E-1,-2.4569886E-2,-4.8083812E-1,2.504117E-3,2.2865881E-1,-1.9657297E-1,-3.817136E-3,-7.924789E-3,6.722103E-4,1.1323392E-2,-3.0406378E-3,4.1452544E-3],"categories":[],"categories_nodes":[],"categories_segments":[],"categories_sizes":[],"default_left":[0,0,0,0,0,0,0,0,0,0,0,0,0],"id":36,"left_children":[1,3,5,7,-1,9,11,-1,-1,-1,-1,-1,-1],"loss_changes":[4.775141E0,8.6563635E-1,4.4893203E0,7.614684E-1,0E0,6.0126452E0,4.152817E0,0E0,0E0,0E0,0E0,0E0,0E0],"parents":[2147483647,0,0,1,1,2,2,3,3,5,5,6,6],"right_children":[2,4,6,8,-1,10,12,-1,-1,-1,-1,-1,-1],"split_conditions":[6.429534E-1,9.816972E1,6.979852E1,8.7671394E1,2.504117E-3,6.729388E1,9.604973E1,-3.817136E-3,-7.924789E-3,6.722103E-4,1.1323392E-2,-3.0406378E-3,4.1452544E-3],"split_indices":[1,2,2,2,0,2,2,0,0,0,0,0,0],"split_type":[0,0,0,0,0,0,0,0,0,0,0,0,0],"sum_hessian":[1.3559088E2,3.455304E1,1.0103784E2,3.3442432E1,1.1106044E0,4.073582E1,6.0302025E1,2.7060173E1,6.382261E0,3.5473118E1,5.262702E0,5.1708965E1,8.593058E0],"tree_param":{"num_deleted":"0","num_feature":"4","num_nodes":"13","size_leaf_vector":"1"}},{"base_weights":[-1.3446735E-1,-4.4787788E-1,-2.4205312E-2,-4.77684E-1,2.4892618E-3,5.0528234E-1,-1.05350316E-1,-3.903969E-3,-8.405751E-3,1.0551305E-2,-1.5017454E-3,-1.0508882E-2,-4.2913755E-4],"categories":[],"categories_nodes":[],"categories_segments":[],"categories_sizes":[],"default_left":[0,0,0,0,0,0,0,0,0,0,0,0,0],"id":37,"left_children":[1,3,5,7,-1,9,11,-1,-1,-1,-1,-1,-1],"loss_changes":[4.705283E0,8.5538244E-1,4.436222E0,7.5984716E-1,0E0,5.1062727E0,5.22587E0,0E0,0E0,0E0,0E0,0E0,0E0],"parents":[2147483647,0,0,1,1,2,2,3,3,5,5,6,6],"right_children":[2,4,6,8,-1,10,12,-1,-1,-1,-1,-1,-1],"split_conditions":[6.429534E-1,9.816972E1,5.580695E1,8.952549E1,2.4892618E-3,8.212826E-1,5.8151768E1,-3.903969E-3,-8.405751E-3,1.0551305E-2,-1.5017454E-3,-1.0508882E-2,-4.2913755E-4],"split_indices":[1,2,2,2,0,1,2,0,0,0,0,0,0],"split_type":[0,0,0,0,0,0,0,0,0,0,0,0,0],"sum_hessian":[1.3547264E2,3.4460278E1,1.0101237E2,3.3348255E1,1.112021E0,1.27286215E1,8.828375E1,2.8555523E1,4.7927322E0,6.590356E0,6.138266E0,4.4878936E0,8.379585E1],"tree_param":{"num_deleted":"0","num_feature":"4","num_nodes":"13","size_leaf_vector":"1"}},{"base_weights":[-1.333204E-1,-4.4483382E-1,-2.3989268E-2,-4.7455958E-1,2.474498E-3,1.5769327E-1,-2.5937915E-1,-3.8751669E-3,-8.373236E-3,6.5319915E-4,9.752653E-3,-5.054164E-3,2.5441565E-3],"categories":[],"categories_nodes":[],"categories_segments":[],"categories_sizes":[],"default_left":[0,0,0,0,0,0,0,0,0,0,0,0,0],"id":38,"left_children":[1,3,5,7,-1,9,11,-1,-1,-1,-1,-1,-1],"loss_changes":[4.6335707E0,8.452654E-1,4.40279E0,7.571635E-1,0E0,4.3305936E0,5.792885E0,0E0,0E0,0E0,0E0,0E0,0E0],"parents":[2147483647,0,0,1,1,2,2,3,3,5,5,6,6],"right_children":[2,4,6,8,-1,10,12,-1,-1,-1,-1,-1,-1],"split_conditions":[6.429534E-1,9.816972E1,7.7987785E1,8.952549E1,2.474498E-3,7.534602E1,9.368493E1,-3.8751669E-3,-8.373236E-3,6.5319915E-4,9.752653E-3,-5.054164E-3,2.5441565E-3],"split_indices":[1,2,2,2,0,2,2,0,0,0,0,0,0],"split_type":[0,0,0,0,0,0,0,0,0,0,0,0,0],"sum_hessian":[1.3536227E2,3.4368526E1,1.00993744E2,3.32551E1,1.1134284E0,5.7185757E1,4.3807987E1,2.8487858E1,4.767241E0,5.2350796E1,4.834958E0,2.9633776E1,1.4174212E1],"tree_param":{"num_deleted":"0","num_feature":"4","num_nodes":"13","size_leaf_vector":"1"}},{"base_weights":[-1.3211657E-1,-4.418066E-1,-2.3681127E-2,-4.7145158E-1,2.459826E-3,2.256465E-1,-1.9359726E-1,6.827873E-4,-5.1050014E-3,6.573778E-4,1.1169376E-2,-2.9999658E-3,4.0763007E-3],"categories":[],"categories_nodes":[],"categories_segments":[],"categories_sizes":[],"default_left":[0,0,0,0,0,0,0,0,0,0,0,0,0],"id":39,"left_children":[1,3,5,7,-1,9,11,-1,-1,-1,-1,-1,-1],"loss_changes":[4.5649204E0,8.352561E-1,4.36363E0,7.54858E-1,0E0,5.8826294E0,4.036029E0,0E0,0E0,0E0,0E0,0E0,0E0],"parents":[2147483647,0,0,1,1,2,2,3,3,5,5,6,6],"right_children":[2,4,6,8,-1,10,12,-1,-1,-1,-1,-1,-1],"split_conditions":[6.429534E-1,9.816972E1,6.979852E1,5.249895E1,2.459826E-3,6.729388E1,9.604973E1,6.827873E-4,-5.1050014E-3,6.573778E-4,1.1169376E-2,-2.9999658E-3,4.0763007E-3],"split_indices":[1,2,2,2,0,2,2,0,0,0,0,0,0],"split_type":[0,0,0,0,0,0,0,0,0,0,0,0,0],"sum_hessian":[1.352476E2,3.427742E1,1.00970184E2,3.3162594E1,1.1148267E0,4.0789474E1,6.0180706E1,2.186883E0,3.097571E1,3.549499E1,5.294486E0,5.155758E1,8.623128E0],"tree_param":{"num_deleted":"0","num_feature":"4","num_nodes":"13","size_leaf_vector":"1"}},{"base_weights":[-1.3083524E-1,-4.3863538E-1,-2.332687E-2,-6.600944E-1,-3.050793E-1,7.537879E-1,-7.743964E-2,-2.0436333E-3,-1.0470296E-2,-1.2818505E-3,-6.14935E-3,1.009145E-2,-2.368615E-3,5.248736E-3,-1.2553661E-3],"categories":[],"categories_nodes":[],"categories_segments":[],"categories_sizes":[],"default_left":[0,0,0,0,0,0,0,0,0,0,0,0,0,0,0],"id":40,"left_children":[1,3,5,7,9,11,13,-1,-1,-1,-1,-1,-1,-1,-1],"loss_changes":[4.494358E0,8.3920956E-1,4.345339E0,1.9684138E0,1.2260249E0,1.9414494E0,2.8531873E0,0E0,0E0,0E0,0E0,0E0,0E0,0E0,0E0],"parents":[2147483647,0,0,1,1,2,2,3,3,4,4,5,5,6,6],"right_children":[2,4,6,8,10,12,14,-1,-1,-1,-1,-1,-1,-1,-1],"split_conditions":[6.429534E-1,6.729388E1,5.2882378E1,5.8151768E1,8.7671394E1,8.9101404E-1,6.729415E-1,-2.0436333E-3,-1.0470296E-2,-1.2818505E-3,-6.14935E-3,1.009145E-2,-2.368615E-3,5.248736E-3,-1.2553661E-3],"split_indices":[1,2,2,2,2,1,1,0,0,0,0,0,0,0,0],"split_type":[0,0,0,0,0,0,0,0,0,0,0,0,0,0,0],"sum_hessian":[1.3512698E2,3.4182194E1,1.0094479E2,1.1376139E1,2.2806055E1,5.7297525E0,9.521504E1,5.925392E0,5.450747E0,1.5417827E1,7.3882275E0,4.5406504E0,1.1891019E0,6.3079867E0,8.890706E1],"tree_param":{"num_deleted":"0","num_feature":"4","num_nodes":"15","size_leaf_vector":"1"}},{"base_weights":[-1.2969454E-1,-4.358439E-1,-2.2986505E-2,-6.567631E-1,-3.0285424E-1,4.951846E-1,-1.0282357E-1,-2.0282806E-3,-1.0438785E-2,-1.2707558E-3,-6.115651E-3,1.0343168E-2,-1.5096214E-3,-1.04760835E-2,-4.064776E-4],"categories":[],"categories_nodes":[],"categories_segments":[],"categories_sizes":[],"default_left":[0,0,0,0,0,0,0,0,0,0,0,0,0,0,0],"id":41,"left_children":[1,3,5,7,9,11,13,-1,-1,-1,-1,-1,-1,-1,-1],"loss_changes":[4.433502E0,8.323293E-1,4.267199E0,1.9556446E0,1.211941E0,4.956013E0,5.19373E0,0E0,0E0,0E0,0E0,0E0,0E0,0E0,0E0],"parents":[2147483647,0,0,1,1,2,2,3,3,4,4,5,5,6,6],"right_children":[2,4,6,8,10,12,14,-1,-1,-1,-1,-1,-1,-1,-1],"split_conditions":[6.429534E-1,6.729388E1,5.580695E1,5.8151768E1,8.7671394E1,8.212826E-1,5.8151768E1,-2.0282806E-3,-1.0438785E-2,-1.2707558E-3,-6.115651E-3,1.0343168E-2,-1.5096214E-3,-1.04760835E-2,-4.064776E-4],"split_indices":[1,2,2,2,2,1,2,0,0,0,0,0,0,0,0],"split_type":[0,0,0,0,0,0,0,0,0,0,0,0,0,0,0],"sum_hessian":[1.350181E2,3.409986E1,1.0091824E2,1.1333868E1,2.2765991E1,1.2778536E1,8.813971E1,5.9181457E0,5.4157224E0,1.540569E1,7.3603015E0,6.638639E0,6.139897E0,4.4636555E0,8.367605E1],"tree_param":{"num_deleted":"0","num_feature":"4","num_nodes":"15","size_leaf_vector":"1"}},{"base_weights":[-1.2865776E-1,-4.3306905E-1,-2.278384E-2,-4.6289942E-1,2.517987E-3,1.5562077E-1,-2.548549E-1,-3.7608685E-3,-8.27385E-3,6.3685706E-4,9.679526E-3,-4.9899677E-3,2.5149758E-3],"categories":[],"categories_nodes":[],"categories_segments":[],"categories_sizes":[],"default_left":[0,0,0,0,0,0,0,0,0,0,0,0,0],"id":42,"left_children":[1,3,5,7,-1,9,11,-1,-1,-1,-1,-1,-1],"loss_changes":[4.370659E0,8.319702E-1,4.258574E0,7.617688E-1,0E0,4.287233E0,5.6474066E0,0E0,0E0,0E0,0E0,0E0,0E0],"parents":[2147483647,0,0,1,1,2,2,3,3,5,5,6,6],"right_children":[2,4,6,8,-1,10,12,-1,-1,-1,-1,-1,-1],"split_conditions":[6.429534E-1,9.816972E1,7.7987785E1,8.952549E1,2.517987E-3,7.534602E1,9.368493E1,-3.7608685E-3,-8.27385E-3,6.3685706E-4,9.679526E-3,-4.9899677E-3,2.5149758E-3],"split_indices":[1,2,2,2,0,2,2,0,0,0,0,0,0],"split_type":[0,0,0,0,0,0,0,0,0,0,0,0,0],"sum_hessian":[1.3491786E2,3.4018013E1,1.0089986E2,3.2908733E1,1.1092814E0,5.7232105E1,4.366775E1,2.8219332E1,4.6894016E0,5.2382187E1,4.8499174E0,2.947208E1,1.4195669E1],"tree_param":{"num_deleted":"0","num_feature":"4","num_nodes":"13","size_leaf_vector":"1"}},{"base_weights":[-1.2749285E-1,-4.301045E-1,-2.2487776E-2,-6.513712E-1,-2.9723573E-1,2.2227582E-1,-1.8993384E-1,-1.984731E-3,-1.0396306E-2,-1.2271414E-3,-6.051783E-3,6.3710136E-4,1.1029017E-2,-2.952627E-3,4.014982E-3],"categories":[],"categories_nodes":[],"categories_segments":[],"categories_sizes":[],"default_left":[0,0,0,0,0,0,0,0,0,0,0,0,0,0,0],"id":43,"left_children":[1,3,5,7,9,11,13,-1,-1,-1,-1,-1,-1,-1,-1],"loss_changes":[4.3056645E0,8.332944E-1,4.2175956E0,1.9505253E0,1.1974764E0,5.772791E0,3.9205203E0,0E0,0E0,0E0,0E0,0E0,0E0,0E0,0E0],"parents":[2147483647,0,0,1,1,2,2,3,3,4,4,5,5,6,6],"right_children":[2,4,6,8,10,12,14,-1,-1,-1,-1,-1,-1,-1,-1],"split_conditions":[6.429534E-1,6.729388E1,6.979852E1,5.8151768E1,8.7671394E1,6.729388E1,9.604973E1,-1.984731E-3,-1.0396306E-2,-1.2271414E-3,-6.051783E-3,6.3710136E-4,1.1029017E-2,-2.952627E-3,4.014982E-3],"split_indices":[1,2,2,2,2,2,2,0,0,0,0,0,0,0,0],"split_type":[0,0,0,0,0,0,0,0,0,0,0,0,0,0,0],"sum_hessian":[1.3480594E2,3.392944E1,1.00876495E2,1.1265918E1,2.2663525E1,4.084461E1,6.0031887E1,5.8976254E0,5.368292E0,1.5358075E1,7.305449E0,3.552103E1,5.323578E0,5.1381977E1,8.649912E0],"tree_param":{"num_deleted":"0","num_feature":"4","num_nodes":"15","size_leaf_vector":"1"}},{"base_weights":[-1.2637198E-1,-4.273619E-1,-2.2146735E-2,-6.4808565E-1,-2.9506135E-1,7.385492E-1,-7.5444296E-2,-1.96978E-3,-1.0365386E-2,-1.2164887E-3,-6.018513E-3,9.883301E-3,-2.356366E-3,5.191098E-3,-1.2312199E-3],"categories":[],"categories_nodes":[],"categories_segments":[],"categories_sizes":[],"default_left":[0,0,0,0,0,0,0,0,0,0,0,0,0,0,0],"id":44,"left_children":[1,3,5,7,9,11,13,-1,-1,-1,-1,-1,-1,-1,-1],"loss_changes":[4.247549E0,8.264227E-1,4.185104E0,1.9379234E0,1.1836374E0,1.8782005E0,2.7877676E0,0E0,0E0,0E0,0E0,0E0,0E0,0E0,0E0],"parents":[2147483647,0,0,1,1,2,2,3,3,4,4,5,5,6,6],"right_children":[2,4,6,8,10,12,14,-1,-1,-1,-1,-1,-1,-1,-1],"split_conditions":[6.429534E-1,6.729388E1,5.2882378E1,5.8151768E1,8.7671394E1,8.9101404E-1,6.729415E-1,-1.96978E-3,-1.0365386E-2,-1.2164887E-3,-6.018513E-3,9.883301E-3,-2.356366E-3,5.191098E-3,-1.2312199E-3],"split_indices":[1,2,2,2,2,1,1,0,0,0,0,0,0,0,0],"split_type":[0,0,0,0,0,0,0,0,0,0,0,0,0,0,0],"sum_hessian":[1.3470009E2,3.3848717E1,1.0085137E2,1.1224212E1,2.2624504E1,5.76157E0,9.50898E1,5.890592E0,5.333619E0,1.5346465E1,7.27804E0,4.5742216E0,1.1873485E0,6.3251762E0,8.8764626E1],"tree_param":{"num_deleted":"0","num_feature":"4","num_nodes":"15","size_leaf_vector":"1"}},{"base_weights":[-1.2526941E-1,-4.246355E-1,-2.1819875E-2,-3.4278262E-1,-8.142561E-3,1.5349245E-1,-2.5074616E-1,-3.9826706E-3,4.1837413E-3,6.2039885E-4,9.601681E-3,-4.9292888E-3,2.4817581E-3],"categories":[],"categories_nodes":[],"categories_segments":[],"categories_sizes":[],"default_left":[0,0,0,0,0,0,0,0,0,0,0,0,0],"id":45,"left_children":[1,3,5,7,-1,9,11,-1,-1,-1,-1,-1,-1],"loss_changes":[4.1899743E0,8.297081E-1,4.1251006E0,1.4529951E0,0E0,4.2402954E0,5.5040903E0,0E0,0E0,0E0,0E0,0E0,0E0],"parents":[2147483647,0,0,1,1,2,2,3,3,5,5,6,6],"right_children":[2,4,6,8,-1,10,12,-1,-1,-1,-1,-1,-1],"split_conditions":[6.429534E-1,6.210225E-1,7.7987785E1,6.1583585E-1,-8.142561E-3,7.534602E1,9.368493E1,-3.9826706E-3,4.1837413E-3,6.2039885E-4,9.601681E-3,-4.9292888E-3,2.4817581E-3],"split_indices":[1,1,2,1,0,2,2,0,0,0,0,0,0],"split_type":[0,0,0,0,0,0,0,0,0,0,0,0,0],"sum_hessian":[1.345937E2,3.3768475E1,1.00825226E2,2.9459341E1,4.3091354E0,5.728542E1,4.3539803E1,2.7902174E1,1.557166E0,5.241954E1,4.8658786E0,2.9319687E1,1.4220117E1],"tree_param":{"num_deleted":"0","num_feature":"4","num_nodes":"13","size_leaf_vector":"1"}},{"base_weights":[-1.2412258E-1,-4.2167112E-1,-2.1533705E-2,-4.5176572E-1,2.5983744E-3,7.297416E-1,-7.4356295E-2,-3.6521535E-3,-8.1781745E-3,9.762562E-3,-2.3482016E-3,5.1290547E-3,-1.2162082E-3],"categories":[],"categories_nodes":[],"categories_segments":[],"categories_sizes":[],"default_left":[0,0,0,0,0,0,0,0,0,0,0,0,0],"id":46,"left_children":[1,3,5,7,-1,9,11,-1,-1,-1,-1,-1,-1],"loss_changes":[4.1265955E0,8.287072E-1,4.094201E0,7.652159E-1,0E0,1.8413887E0,2.7276285E0,0E0,0E0,0E0,0E0,0E0,0E0],"parents":[2147483647,0,0,1,1,2,2,3,3,5,5,6,6],"right_children":[2,4,6,8,-1,10,12,-1,-1,-1,-1,-1,-1],"split_conditions":[6.429534E-1,9.816972E1,5.2882378E1,8.952549E1,2.5983744E-3,8.9101404E-1,6.729415E-1,-3.6521535E-3,-8.1781745E-3,9.762562E-3,-2.3482016E-3,5.1290547E-3,-1.2162082E-3],"split_indices":[1,2,2,2,0,1,1,0,0,0,0,0,0],"split_type":[0,0,0,0,0,0,0,0,0,0,0,0,0],"sum_hessian":[1.3448413E2,3.368216E1,1.0080196E2,3.258055E1,1.1016079E0,5.7800198E0,9.502194E1,2.7965923E1,4.614629E0,4.5938396E0,1.1861798E0,6.3441453E0,8.8677795E1],"tree_param":{"num_deleted":"0","num_feature":"4","num_nodes":"13","size_leaf_vector":"1"}},{"base_weights":[-1.2297053E-1,-4.187668E-1,-2.121423E-2,-6.405485E-1,-2.86281E-1,2.1860583E-1,-1.8596692E-1,-1.8963822E-3,-1.0312198E-2,-1.1386554E-3,-5.9313453E-3,6.1289524E-4,1.0896201E-2,-2.9021923E-3,3.9565084E-3],"categories":[],"categories_nodes":[],"categories_segments":[],"categories_sizes":[],"default_left":[0,0,0,0,0,0,0,0,0,0,0,0,0,0,0],"id":47,"left_children":[1,3,5,7,9,11,13,-1,-1,-1,-1,-1,-1,-1,-1],"loss_changes":[4.0656967E0,8.3315563E-1,4.0619254E0,1.9412036E0,1.1739728E0,5.675313E0,3.8057065E0,0E0,0E0,0E0,0E0,0E0,0E0,0E0,0E0],"parents":[2147483647,0,0,1,1,2,2,3,3,4,4,5,5,6,6],"right_children":[2,4,6,8,10,12,14,-1,-1,-1,-1,-1,-1,-1,-1],"split_conditions":[6.429534E-1,6.729388E1,6.979852E1,5.8151768E1,8.7671394E1,6.729388E1,9.604973E1,-1.8963822E-3,-1.0312198E-2,-1.1386554E-3,-5.9313453E-3,6.1289524E-4,1.0896201E-2,-2.9021923E-3,3.9565084E-3],"split_indices":[1,2,2,2,2,2,2,0,0,0,0,0,0,0,0],"split_type":[0,0,0,0,0,0,0,0,0,0,0,0,0,0,0],"sum_hessian":[1.3437204E2,3.359604E1,1.00776E2,1.1129824E1,2.2466215E1,4.0905533E1,5.987047E1,5.856131E0,5.2736926E0,1.5261902E1,7.204312E0,3.5554333E1,5.351201E0,5.119501E1,8.675458E0],"tree_param":{"num_deleted":"0","num_feature":"4","num_nodes":"15","size_leaf_vector":"1"}},{"base_weights":[-1.2188782E-1,5.1638174E-1,-1.6749865E-1,1.1389839E-1,1.2333972E-2,-4.4448882E-1,-7.3236085E-2,-5.7812273E-3,5.326393E-3,-7.886945E-3,-2.841774E-3,5.070916E-3,-1.2010612E-3],"categories":[],"categories_nodes":[],"categories_segments":[],"categories_sizes":[],"default_left":[0,0,0,0,0,0,0,0,0,0,0,0,0],"id":48,"left_children":[1,3,5,7,-1,9,11,-1,-1,-1,-1,-1,-1],"loss_changes":[4.024437E0,2.5337243E0,3.2834487E0,2.347031E0,0E0,1.5443435E0,2.6708262E0,0E0,0E0,0E0,0E0,0E0,0E0],"parents":[2147483647,0,0,1,1,2,2,3,3,5,5,6,6],"right_children":[2,4,6,8,-1,10,12,-1,-1,-1,-1,-1,-1],"split_conditions":[5.2882378E1,5.2101234E1,6.429534E-1,7.273699E-1,1.2333972E-2,6.729388E1,6.729415E-1,-5.7812273E-3,5.326393E-3,-7.886945E-3,-2.841774E-3,5.070916E-3,-1.2010612E-3],"split_indices":[2,2,1,1,0,2,1,0,0,0,0,0,0],"split_type":[0,0,0,0,0,0,0,0,0,0,0,0,0],"sum_hessian":[1.3426874E2,8.266559E0,1.26002174E2,6.0367765E0,2.2297819E0,3.1049093E1,9.495308E1,2.1322875E0,3.9044893E0,8.620403E0,2.242869E1,6.3620014E0,8.859108E1],"tree_param":{"num_deleted":"0","num_feature":"4","num_nodes":"13","size_leaf_vector":"1"}},{"base_weights":[-1.2073148E-1,5.1158744E-1,-1.6604264E-1,1.1264085E-1,1.2198321E-2,-4.415204E-1,-7.2495975E-2,-5.7537653E-3,5.2738106E-3,-7.851298E-3,-2.8193663E-3,5.015178E-3,-1.1899776E-3],"categories":[],"categories_nodes":[],"categories_segments":[],"categories_sizes":[],"default_left":[0,0,0,0,0,0,0,0,0,0,0,0,0],"id":49,"left_children":[1,3,5,7,-1,9,11,-1,-1,-1,-1,-1,-1],"loss_changes":[3.9574485E0,2.4854796E0,3.2376366E0,2.3122253E0,0E0,1.5315223E0,2.619803E0,0E0,0E0,0E0,0E0,0E0,0E0],"parents":[2147483647,0,0,1,1,2,2,3,3,5,5,6,6],"right_children":[2,4,6,8,-1,10,12,-1,-1,-1,-1,-1,-1],"split_conditions":[5.2882378E1,5.2101234E1,6.429534E-1,7.273699E-1,1.2198321E-2,6.729388E1,6.729415E-1,-5.7537653E-3,5.2738106E-3,-7.851298E-3,-2.8193663E-3,5.015178E-3,-1.1899776E-3],"split_indices":[2,2,1,1,0,2,1,0,0,0,0,0,0],"split_type":[0,0,0,0,0,0,0,0,0,0,0,0,0],"sum_hessian":[1.3416069E2,8.282839E0,1.2587785E2,6.039753E0,2.2430856E0,3.0966732E1,9.491112E1,2.1258454E0,3.9139078E0,8.5777025E0,2.2389029E1,6.3794055E0,8.8531715E1],"tree_param":{"num_deleted":"0","num_feature":"4","num_nodes":"13","size_leaf_vector":"1"}},{"base_weights":[-1.1958632E-1,-4.1060624E-1,-2.0090366E-2,-3.2831734E-1,-8.047062E-3,1.5164526E-1,-2.453659E-1,-3.8414374E-3,4.2679952E-3,6.0580374E-4,9.536681E-3,-4.8572877E-3,2.4629193E-3],"categories":[],"categories_nodes":[],"categories_segments":[],"categories_sizes":[],"default_left":[0,0,0,0,0,0,0,0,0,0,0,0,0],"id":50,"left_children":[1,3,5,7,-1,9,11,-1,-1,-1,-1,-1,-1],"loss_changes":[3.9022598E0,8.5001755E-1,3.9715972E0,1.4333365E0,0E0,4.2019205E0,5.3634224E0,0E0,0E0,0E0,0E0,0E0,0E0],"parents":[2147483647,0,0,1,1,2,2,3,3,5,5,6,6],"right_children":[2,4,6,8,-1,10,12,-1,-1,-1,-1,-1,-1],"split_conditions":[6.429534E-1,6.210225E-1,7.7987785E1,6.1583585E-1,-8.047062E-3,7.534602E1,9.368493E1,-3.8414374E-3,4.2679952E-3,6.0580374E-4,9.536681E-3,-4.8572877E-3,2.4629193E-3],"split_indices":[1,1,2,1,0,2,2,0,0,0,0,0,0],"split_type":[0,0,0,0,0,0,0,0,0,0,0,0,0],"sum_hessian":[1.3405328E2,3.3357536E1,1.0069574E2,2.9111977E1,4.245561E0,5.7323116E1,4.3372623E1,2.7565329E1,1.5466479E0,5.2443954E1,4.879163E0,2.9139093E1,1.423353E1],"tree_param":{"num_deleted":"0","num_feature":"4","num_nodes":"13","size_leaf_vector":"1"}},{"base_weights":[-1.1848674E-1,5.077126E-1,-1.6350682E-1,1.1185105E-1,1.2081287E-2,-4.3575048E-1,-7.1454056E-2,-5.715156E-3,5.215907E-3,-7.7980584E-3,-2.7651521E-3,-3.362654E-3,3.0674832E-4],"categories":[],"categories_nodes":[],"categories_segments":[],"categories_sizes":[],"default_left":[0,0,0,0,0,0,0,0,0,0,0,0,0],"id":51,"left_children":[1,3,5,7,-1,9,11,-1,-1,-1,-1,-1,-1],"loss_changes":[3.8873858E0,2.4420154E0,3.142873E0,2.269456E0,0E0,1.5269542E0,2.6024387E0,0E0,0E0,0E0,0E0,0E0,0E0],"parents":[2147483647,0,0,1,1,2,2,3,3,5,5,6,6],"right_children":[2,4,6,8,-1,10,12,-1,-1,-1,-1,-1,-1],"split_conditions":[5.2882378E1,5.2101234E1,6.429534E-1,7.273699E-1,1.2081287E-2,6.729388E1,2E0,-5.715156E-3,5.215907E-3,-7.7980584E-3,-2.7651521E-3,-3.362654E-3,3.0674832E-4],"split_indices":[2,2,1,1,0,2,3,0,0,0,0,0,0],"split_type":[0,0,0,0,0,0,0,0,0,0,0,0,0],"sum_hessian":[1.3394724E2,8.294789E0,1.2565245E2,6.0405054E0,2.254284E0,3.0807215E1,9.484524E1,2.1162248E0,3.9242806E0,8.514015E0,2.22932E1,2.5759785E1,6.908545E1],"tree_param":{"num_deleted":"0","num_feature":"4","num_nodes":"13","size_leaf_vector":"1"}},{"base_weights":[-1.1740862E-1,5.03017E-1,-1.6213207E-1,1.106116E-1,1.1949867E-2,-4.32829E-1,-7.0799515E-2,-5.6880447E-3,5.1646633E-3,-7.762788E-3,-2.7432484E-3,4.962058E-3,-1.169065E-3],"categories":[],"categories_nodes":[],"categories_segments":[],"categories_sizes":[],"default_left":[0,0,0,0,0,0,0,0,0,0,0,0,0],"id":52,"left_children":[1,3,5,7,-1,9,11,-1,-1,-1,-1,-1,-1],"loss_changes":[3.8231902E0,2.3959327E0,3.0977347E0,2.23592E0,0E0,1.5141864E0,2.5627184E0,0E0,0E0,0E0,0E0,0E0,0E0],"parents":[2147483647,0,0,1,1,2,2,3,3,5,5,6,6],"right_children":[2,4,6,8,-1,10,12,-1,-1,-1,-1,-1,-1],"split_conditions":[5.2882378E1,5.2101234E1,6.429534E-1,7.273699E-1,1.1949867E-2,6.729388E1,6.729415E-1,-5.6880447E-3,5.1646633E-3,-7.762788E-3,-2.7432484E-3,4.962058E-3,-1.169065E-3],"split_indices":[2,2,1,1,0,2,1,0,0,0,0,0,0],"split_type":[0,0,0,0,0,0,0,0,0,0,0,0,0],"sum_hessian":[1.3384546E2,8.310525E0,1.25534935E2,6.0433073E0,2.267217E0,3.0726587E1,9.480834E1,2.1098468E0,3.9334607E0,8.471927E0,2.2254662E1,6.3956127E0,8.8412735E1],"tree_param":{"num_deleted":"0","num_feature":"4","num_nodes":"13","size_leaf_vector":"1"}},{"base_weights":[-1.16293475E-1,4.9837393E-1,-1.6071957E-1,1.0938306E-1,1.1820607E-2,-4.2992353E-1,-7.008253E-2,-5.661077E-3,5.1140347E-3,-7.727664E-3,-2.721491E-3,-3.3301874E-3,3.110966E-4],"categories":[],"categories_nodes":[],"categories_segments":[],"categories_sizes":[],"default_left":[0,0,0,0,0,0,0,0,0,0,0,0,0],"id":53,"left_children":[1,3,5,7,-1,9,11,-1,-1,-1,-1,-1,-1],"loss_changes":[3.7594833E0,2.3509293E0,3.0543547E0,2.2029357E0,0E0,1.5015106E0,2.5584564E0,0E0,0E0,0E0,0E0,0E0,0E0],"parents":[2147483647,0,0,1,1,2,2,3,3,5,5,6,6],"right_children":[2,4,6,8,-1,10,12,-1,-1,-1,-1,-1,-1],"split_conditions":[5.2882378E1,5.2101234E1,6.429534E-1,7.273699E-1,1.1820607E-2,6.729388E1,2E0,-5.661077E-3,5.1140347E-3,-7.727664E-3,-2.721491E-3,-3.3301874E-3,3.110966E-4],"split_indices":[2,2,1,1,0,2,3,0,0,0,0,0,0],"split_type":[0,0,0,0,0,0,0,0,0,0,0,0,0],"sum_hessian":[1.3374007E2,8.325985E0,1.25414085E2,6.0460253E0,2.27996E0,3.0646524E1,9.476756E1,2.1034944E0,3.9425309E0,8.430083E0,2.221644E1,2.5699482E1,6.9068085E1],"tree_param":{"num_deleted":"0","num_feature":"4","num_nodes":"13","size_leaf_vector":"1"}},{"base_weights":[-1.15235895E-1,4.937825E-1,-1.593672E-1,1.0816537E-1,1.1693457E0,-4.2703384E-1,-6.944041E-2,-5.63425E-3,5.064014E-3,3.6032703E-3,1.3672262E-2,-7.6926854E-3,-2.6998774E-3,-3.3041276E-3,3.0797682E-4],"categories":[],"categories_nodes":[],"categories_segments":[],"categories_sizes":[],"default_left":[0,0,0,0,0,0,0,0,0,0,0,0,0,0,0],"id":54,"left_children":[1,3,5,7,9,11,13,-1,-1,-1,-1,-1,-1,-1,-1],"loss_changes":[3.6973686E0,2.3069746E0,3.0103984E0,2.1704938E0,3.4446716E-2,1.4889283E0,2.5144472E0,0E0,0E0,0E0,0E0,0E0,0E0,0E0,0E0],"parents":[2147483647,0,0,1,1,2,2,3,3,4,4,5,5,6,6],"right_children":[2,4,6,8,10,12,14,-1,-1,-1,-1,-1,-1,-1,-1],"split_conditions":[5.2882378E1,5.2101234E1,6.429534E-1,7.273699E-1,6.1583585E-1,6.729388E1,2E0,-5.63425E-3,5.064014E-3,3.6032703E-3,1.3672262E-2,-7.6926854E-3,-2.6998774E-3,-3.3041276E-3,3.0797682E-4],"split_indices":[2,2,1,1,1,2,3,0,0,0,0,0,0,0,0],"split_type":[0,0,0,0,0,0,0,0,0,0,0,0,0,0,0],"sum_hessian":[1.3363951E2,8.341174E0,1.2529833E2,6.04866E0,2.292514E0,3.056703E1,9.473131E1,2.0971675E0,3.951492E0,1.0049183E0,1.2875957E0,8.388488E0,2.2178543E1,2.565128E1,6.9080025E1],"tree_param":{"num_deleted":"0","num_feature":"4","num_nodes":"15","size_leaf_vector":"1"}},{"base_weights":[-1.14149645E-1,4.9003568E-1,-1.5802564E-1,1.0695845E-1,1.1598359E0,-4.2416006E-1,-6.880398E-2,-5.6075645E-3,5.0145905E-3,3.5814825E-3,1.3556132E-2,-7.6578497E-3,-2.6784092E-3,4.9205488E-3,-1.1457015E-3],"categories":[],"categories_nodes":[],"categories_segments":[],"categories_sizes":[],"default_left":[0,0,0,0,0,0,0,0,0,0,0,0,0,0,0],"id":55,"left_children":[1,3,5,7,9,11,13,-1,-1,-1,-1,-1,-1,-1,-1],"loss_changes":[3.6438777E0,2.275628E0,2.9670353E0,2.138584E0,3.261566E-2,1.4764347E0,2.512717E0,0E0,0E0,0E0,0E0,0E0,0E0,0E0,0E0],"parents":[2147483647,0,0,1,1,2,2,3,3,4,4,5,5,6,6],"right_children":[2,4,6,8,10,12,14,-1,-1,-1,-1,-1,-1,-1,-1],"split_conditions":[5.2882378E1,5.2101234E1,6.429534E-1,7.273699E-1,6.1583585E-1,6.729388E1,6.729415E-1,-5.6075645E-3,5.0145905E-3,3.5814825E-3,1.3556132E-2,-7.6578497E-3,-2.6784092E-3,4.9205488E-3,-1.1457015E-3],"split_indices":[2,2,1,1,1,2,1,0,0,0,0,0,0,0,0],"split_type":[0,0,0,0,0,0,0,0,0,0,0,0,0,0,0],"sum_hessian":[1.3353577E2,8.35238E0,1.2518339E2,6.051212E0,2.301168E0,3.0488094E1,9.46953E1,2.0908666E0,3.9603453E0,1.0069947E0,1.2941731E0,8.347137E0,2.2140959E1,6.408494E0,8.82868E1],"tree_param":{"num_deleted":"0","num_feature":"4","num_nodes":"15","size_leaf_vector":"1"}},{"base_weights":[-1.1302672E-1,4.8632374E-1,-1.566463E-1,1.0576212E-1,1.1504471E0,-4.2130193E-1,-6.81056E-2,-5.581019E-3,4.9657533E-3,3.5598334E-3,1.3441672E-2,-7.623154E-3,-2.6570836E-3,-3.272191E-3,3.1211195E-4],"categories":[],"categories_nodes":[],"categories_segments":[],"categories_sizes":[],"default_left":[0,0,0,0,0,0,0,0,0,0,0,0,0,0,0],"id":56,"left_children":[1,3,5,7,9,11,13,-1,-1,-1,-1,-1,-1,-1,-1],"loss_changes":[3.5906029E0,2.2448225E0,2.9253678E0,2.1071959E0,3.0870914E-2,1.4640307E0,2.4718423E0,0E0,0E0,0E0,0E0,0E0,0E0,0E0,0E0],"parents":[2147483647,0,0,1,1,2,2,3,3,4,4,5,5,6,6],"right_children":[2,4,6,8,10,12,14,-1,-1,-1,-1,-1,-1,-1,-1],"split_conditions":[5.2882378E1,5.2101234E1,6.429534E-1,7.273699E-1,6.1583585E-1,6.729388E1,2E0,-5.581019E-3,4.9657533E-3,3.5598334E-3,1.3441672E-2,-7.623154E-3,-2.6570836E-3,-3.272191E-3,3.1211195E-4],"split_indices":[2,2,1,1,1,2,3,0,0,0,0,0,0,0,0],"split_type":[0,0,0,0,0,0,0,0,0,0,0,0,0,0,0],"sum_hessian":[1.334286E2,8.363367E0,1.2506523E2,6.053684E0,2.3096828E0,3.0409721E1,9.465551E1,2.0845916E0,3.9690926E0,1.0090585E0,1.3006244E0,8.306034E0,2.2103687E1,2.5592089E1,6.906342E1],"tree_param":{"num_deleted":"0","num_feature":"4","num_nodes":"15","size_leaf_vector":"1"}},{"base_weights":[-1.1196109E-1,4.826463E-1,-1.5532658E-1,1.0457625E-1,1.1411773E0,-4.1845945E-1,-6.7481235E-2,-5.554611E-3,4.9174936E-3,3.5383233E-3,1.33288475E-2,-7.588598E-3,-2.6359006E-3,4.8730583E-3,-1.128964E-3],"categories":[],"categories_nodes":[],"categories_segments":[],"categories_sizes":[],"default_left":[0,0,0,0,0,0,0,0,0,0,0,0,0,0,0],"id":57,"left_children":[1,3,5,7,9,11,13,-1,-1,-1,-1,-1,-1,-1,-1],"loss_changes":[3.5386257E0,2.2145467E0,2.8831425E0,2.0763192E0,2.921009E-2,1.4517145E0,2.464235E0,0E0,0E0,0E0,0E0,0E0,0E0,0E0,0E0],"parents":[2147483647,0,0,1,1,2,2,3,3,4,4,5,5,6,6],"right_children":[2,4,6,8,10,12,14,-1,-1,-1,-1,-1,-1,-1,-1],"split_conditions":[5.2882378E1,5.2101234E1,6.429534E-1,7.273699E-1,6.1583585E-1,6.729388E1,6.729415E-1,-5.554611E-3,4.9174936E-3,3.5383233E-3,1.33288475E-2,-7.588598E-3,-2.6359006E-3,4.8730583E-3,-1.128964E-3],"split_indices":[2,2,1,1,1,2,1,0,0,0,0,0,0,0,0],"split_type":[0,0,0,0,0,0,0,0,0,0,0,0,0,0,0],"sum_hessian":[1.3332616E2,8.374137E0,1.2495202E2,6.056077E0,2.3180594E0,3.0331905E1,9.462012E1,2.0783427E0,3.9777346E0,1.0111094E0,1.30695E0,8.265178E0,2.2066729E1,6.42333E0,8.8196785E1],"tree_param":{"num_deleted":"0","num_feature":"4","num_nodes":"15","size_leaf_vector":"1"}},{"base_weights":[-1.1085896E-1,4.7900295E-1,-1.5396927E-1,1.0340082E-1,1.1320243E0,-4.1563246E-1,-6.679546E-2,-5.52834E-3,4.8698015E-3,3.5169513E-3,1.3217628E-2,-7.554178E-3,-2.6148593E-3,-3.2405658E-3,3.1607033E-4],"categories":[],"categories_nodes":[],"categories_segments":[],"categories_sizes":[],"default_left":[0,0,0,0,0,0,0,0,0,0,0,0,0,0,0],"id":58,"left_children":[1,3,5,7,9,11,13,-1,-1,-1,-1,-1,-1,-1,-1],"loss_changes":[3.4868577E0,2.18479E0,2.842571E0,2.045945E0,2.7628422E-2,1.4394841E0,2.4298882E0,0E0,0E0,0E0,0E0,0E0,0E0,0E0,0E0],"parents":[2147483647,0,0,1,1,2,2,3,3,4,4,5,5,6,6],"right_children":[2,4,6,8,10,12,14,-1,-1,-1,-1,-1,-1,-1,-1],"split_conditions":[5.2882378E1,5.2101234E1,6.429534E-1,7.273699E-1,6.1583585E-1,6.729388E1,2E0,-5.52834E-3,4.8698015E-3,3.5169513E-3,1.3217628E-2,-7.554178E-3,-2.6148593E-3,-3.2405658E-3,3.1607033E-4],"split_indices":[2,2,1,1,1,2,3,0,0,0,0,0,0,0,0],"split_type":[0,0,0,0,0,0,0,0,0,0,0,0,0,0,0],"sum_hessian":[1.3322032E2,8.384691E0,1.2483563E2,6.0583925E0,2.326299E0,3.0254644E1,9.4580986E1,2.0721197E0,3.9862728E0,1.013148E0,1.3131511E0,8.224568E0,2.2030077E1,2.553354E1,6.904745E1],"tree_param":{"num_deleted":"0","num_feature":"4","num_nodes":"15","size_leaf_vector":"1"}},{"base_weights":[-1.0981356E-1,4.7539333E-1,-1.5267108E-1,1.02235734E-1,1.1229863E0,-4.1282105E-1,-6.6182956E-2,-5.5022067E-3,4.82267E-3,3.495716E-3,1.3107982E-2,-7.5198943E-3,-2.5939606E-3,8.001056E-4,-2.38169E-3],"categories":[],"categories_nodes":[],"categories_segments":[],"categories_sizes":[],"default_left":[0,0,0,0,0,0,0,0,0,0,0,0,0,0,0],"id":59,"left_children":[1,3,5,7,9,11,13,-1,-1,-1,-1,-1,-1,-1,-1],"loss_changes":[3.4363573E0,2.15554E0,2.801457E0,2.0160642E0,2.6125908E-2,1.4273405E0,2.4213977E0,0E0,0E0,0E0,0E0,0E0,0E0,0E0,0E0],"parents":[2147483647,0,0,1,1,2,2,3,3,4,4,5,5,6,6],"right_children":[2,4,6,8,10,12,14,-1,-1,-1,-1,-1,-1,-1,-1],"split_conditions":[5.2882378E1,5.2101234E1,6.429534E-1,7.273699E-1,6.1583585E-1,6.729388E1,7.7987785E1,-5.5022067E-3,4.82267E-3,3.495716E-3,1.3107982E-2,-7.5198943E-3,-2.5939606E-3,8.001056E-4,-2.38169E-3],"split_indices":[2,2,1,1,1,2,2,0,0,0,0,0,0,0,0],"split_type":[0,0,0,0,0,0,0,0,0,0,0,0,0,0,0],"sum_hessian":[1.3311917E2,8.395034E0,1.2472414E2,6.0606318E0,2.3344018E0,3.0177942E1,9.4546196E1,2.0659235E0,3.9947085E0,1.0151739E0,1.319228E0,8.184207E0,2.1993736E1,5.1394257E1,4.315194E1],"tree_param":{"num_deleted":"0","num_feature":"4","num_nodes":"15","size_leaf_vector":"1"}},{"base_weights":[-1.0877073E-1,4.7181708E-1,-1.5137677E-1,1.0108091E-1,1.1140611E0,-4.1002503E-1,-6.5564424E-2,-5.476207E-3,4.776089E-3,3.4746164E-3,1.299988E-2,-7.4857436E-3,-2.5732021E-3,4.8323204E-3,-1.1064255E-3],"categories":[],"categories_nodes":[],"categories_segments":[],"categories_sizes":[],"default_left":[0,0,0,0,0,0,0,0,0,0,0,0,0,0,0],"id":60,"left_children":[1,3,5,7,9,11,13,-1,-1,-1,-1,-1,-1,-1,-1],"loss_changes":[3.3864996E0,2.1267886E0,2.7610626E0,1.9866669E0,2.469635E-2,1.4152808E0,2.4162214E0,0E0,0E0,0E0,0E0,0E0,0E0,0E0,0E0],"parents":[2147483647,0,0,1,1,2,2,3,3,4,4,5,5,6,6],"right_children":[2,4,6,8,10,12,14,-1,-1,-1,-1,-1,-1,-1,-1],"split_conditions":[5.2882378E1,5.2101234E1,6.429534E-1,7.273699E-1,6.1583585E-1,6.729388E1,6.729415E-1,-5.476207E-3,4.776089E-3,3.4746164E-3,1.299988E-2,-7.4857436E-3,-2.5732021E-3,4.8323204E-3,-1.1064255E-3],"split_indices":[2,2,1,1,1,2,1,0,0,0,0,0,0,0,0],"split_type":[0,0,0,0,0,0,0,0,0,0,0,0,0,0,0],"sum_hessian":[1.3301535E2,8.405166E0,1.2461019E2,6.062796E0,2.3423693E0,3.010179E1,9.45084E1,2.059753E0,4.003043E0,1.0171875E0,1.325182E0,8.144092E0,2.1957699E1,6.435884E0,8.807252E1],"tree_param":{"num_deleted":"0","num_feature":"4","num_nodes":"15","size_leaf_vector":"1"}},{"base_weights":[-1.0769862E-1,4.6827367E-1,-1.5005147E-1,9.9936165E-2,1.1052469E0,-4.0724432E-1,-6.4896494E-2,-5.4503414E-3,4.7300486E-3,3.453652E-3,1.2893289E-2,-7.4517247E-3,-2.552583E-3,-3.2030474E-3,3.25766E-4],"categories":[],"categories_nodes":[],"categories_segments":[],"categories_sizes":[],"default_left":[0,0,0,0,0,0,0,0,0,0,0,0,0,0,0],"id":61,"left_children":[1,3,5,7,9,11,13,-1,-1,-1,-1,-1,-1,-1,-1],"loss_changes":[3.3369122E0,2.098525E0,2.7221003E0,1.9577445E0,2.3338318E-2,1.4033046E0,2.387207E0,0E0,0E0,0E0,0E0,0E0,0E0,0E0,0E0],"parents":[2147483647,0,0,1,1,2,2,3,3,4,4,5,5,6,6],"right_children":[2,4,6,8,10,12,14,-1,-1,-1,-1,-1,-1,-1,-1],"split_conditions":[5.2882378E1,5.2101234E1,6.429534E-1,7.273699E-1,6.1583585E-1,6.729388E1,2E0,-5.4503414E-3,4.7300486E-3,3.453652E-3,1.2893289E-2,-7.4517247E-3,-2.552583E-3,-3.2030474E-3,3.25766E-4],"split_indices":[2,2,1,1,1,2,3,0,0,0,0,0,0,0,0],"split_type":[0,0,0,0,0,0,0,0,0,0,0,0,0,0,0],"sum_hessian":[1.3291151E2,8.41509E0,1.2449642E2,6.064887E0,2.350202E0,3.0026188E1,9.447024E1,2.053609E0,4.011278E0,1.0191886E0,1.3310134E0,8.104224E0,2.1921965E1,2.546316E1,6.900707E1],"tree_param":{"num_deleted":"0","num_feature":"4","num_nodes":"15","size_leaf_vector":"1"}},{"base_weights":[-1.0668278E-1,4.6476293E-1,-1.4878492E-1,9.880158E-2,1.0965419E0,-3.224613E-1,-2.4980366E-2,-5.4246085E-3,4.6845437E-3,3.432822E-3,1.2788183E-2,-3.8818913E-3,2.3075398E-3,-3.5687783E-3,1.0397459E-3],"categories":[],"categories_nodes":[],"categories_segments":[],"categories_sizes":[],"default_left":[0,0,0,0,0,0,0,0,0,0,0,0,0,0,0],"id":62,"left_children":[1,3,5,7,9,11,13,-1,-1,-1,-1,-1,-1,-1,-1],"loss_changes":[3.2885518E0,2.0707383E0,2.688018E0,1.929289E0,2.2049427E-2,1.9839935E0,3.216626E0,0E0,0E0,0E0,0E0,0E0,0E0,0E0,0E0],"parents":[2147483647,0,0,1,1,2,2,3,3,4,4,5,5,6,6],"right_children":[2,4,6,8,10,12,14,-1,-1,-1,-1,-1,-1,-1,-1],"split_conditions":[5.2882378E1,5.2101234E1,7.3026973E-1,7.273699E-1,6.1583585E-1,9.604973E1,2E0,-5.4246085E-3,4.6845437E-3,3.432822E-3,1.2788183E-2,-3.8818913E-3,2.3075398E-3,-3.5687783E-3,1.0397459E-3],"split_indices":[2,2,1,1,1,2,3,0,0,0,0,0,0,0,0],"split_type":[0,0,0,0,0,0,0,0,0,0,0,0,0,0,0],"sum_hessian":[1.328123E2,8.424808E0,1.24387505E2,6.066906E0,2.3579013E0,5.109935E1,7.3288155E1,2.0474918E0,4.019414E0,1.0211775E0,1.3367238E0,4.593955E1,5.159801E0,2.00128E1,5.3275352E1],"tree_param":{"num_deleted":"0","num_feature":"4","num_nodes":"15","size_leaf_vector":"1"}},{"base_weights":[-1.0561404E-1,4.6128434E-1,-1.4746305E-1,9.767694E-2,1.0879441E0,-4.0202698E-1,-6.349727E-2,-5.399008E-3,4.6395636E-3,3.4121242E-3,1.2684533E-2,-7.400171E-3,-2.5059592E-3,4.8184753E-3,-1.0839775E-3],"categories":[],"categories_nodes":[],"categories_segments":[],"categories_sizes":[],"default_left":[0,0,0,0,0,0,0,0,0,0,0,0,0,0,0],"id":63,"left_children":[1,3,5,7,9,11,13,-1,-1,-1,-1,-1,-1,-1,-1],"loss_changes":[3.2401905E0,2.0434198E0,2.6522098E0,1.901291E0,2.0826101E-2,1.3953066E0,2.38801E0,0E0,0E0,0E0,0E0,0E0,0E0,0E0,0E0],"parents":[2147483647,0,0,1,1,2,2,3,3,4,4,5,5,6,6],"right_children":[2,4,6,8,10,12,14,-1,-1,-1,-1,-1,-1,-1,-1],"split_conditions":[5.2882378E1,5.2101234E1,6.429534E-1,7.273699E-1,6.1583585E-1,6.729388E1,6.729415E-1,-5.399008E-3,4.6395636E-3,3.4121242E-3,1.2684533E-2,-7.400171E-3,-2.5059592E-3,4.8184753E-3,-1.0839775E-3],"split_indices":[2,2,1,1,1,2,1,0,0,0,0,0,0,0,0],"split_type":[0,0,0,0,0,0,0,0,0,0,0,0,0,0,0],"sum_hessian":[1.3271057E2,8.434321E0,1.24276245E2,6.068854E0,2.3654675E0,2.9884794E1,9.439145E1,2.041401E0,4.027453E0,1.0231541E0,1.3423134E0,8.043991E0,2.1840803E1,6.440162E0,8.795129E1],"tree_param":{"num_deleted":"0","num_feature":"4","num_nodes":"15","size_leaf_vector":"1"}},{"base_weights":[-1.0457145E-1,4.578375E-1,-1.461694E-1,9.656216E-2,1.0794517E0,-3.1839916E-1,-2.3714257E-2,-5.3735366E-3,4.5951E-3,3.3915585E-3,1.2582309E-2,-3.837703E-3,2.2920414E-3,-3.5334518E-3,1.0402052E-3],"categories":[],"categories_nodes":[],"categories_segments":[],"categories_sizes":[],"default_left":[0,0,0,0,0,0,0,0,0,0,0,0,0,0,0],"id":64,"left_children":[1,3,5,7,9,11,13,-1,-1,-1,-1,-1,-1,-1,-1],"loss_changes":[3.192707E0,2.0165591E0,2.632235E0,1.8737423E0,1.966548E-2,1.9469743E0,3.1623914E0,0E0,0E0,0E0,0E0,0E0,0E0,0E0,0E0],"parents":[2147483647,0,0,1,1,2,2,3,3,4,4,5,5,6,6],"right_children":[2,4,6,8,10,12,14,-1,-1,-1,-1,-1,-1,-1,-1],"split_conditions":[5.2882378E1,5.2101234E1,7.3026973E-1,7.273699E-1,6.1583585E-1,9.604973E1,2E0,-5.3735366E-3,4.5951E-3,3.3915585E-3,1.2582309E-2,-3.837703E-3,2.2920414E-3,-3.5334518E-3,1.0402052E-3],"split_indices":[2,2,1,1,1,2,3,0,0,0,0,0,0,0,0],"split_type":[0,0,0,0,0,0,0,0,0,0,0,0,0,0,0],"sum_hessian":[1.3260878E2,8.443634E0,1.24165146E2,6.070732E0,2.372902E0,5.09314E1,7.323374E1,2.0353367E0,4.035395E0,1.0251185E0,1.3477836E0,4.5767056E1,5.164345E0,1.9959707E1,5.3274036E1],"tree_param":{"num_deleted":"0","num_feature":"4","num_nodes":"15","size_leaf_vector":"1"}},{"base_weights":[-1.0352282E-1,4.544221E-1,-1.4486915E-1,9.545714E-2,1.0710629E0,-2.4862055E-1,5.4351736E-2,-5.3481967E-3,4.5511466E-3,3.3711242E-3,1.24814855E-2,-1.7225563E-3,-5.4046554E-3,2.4164738E-3,-3.1744777E-3],"categories":[],"categories_nodes":[],"categories_segments":[],"categories_sizes":[],"default_left":[0,0,0,0,0,0,0,0,0,0,0,0,0,0,0],"id":65,"left_children":[1,3,5,7,9,11,13,-1,-1,-1,-1,-1,-1,-1,-1],"loss_changes":[3.1457324E0,1.990148E0,2.5983427E0,1.846635E0,1.8566132E-2,1.743557E0,3.116013E0,0E0,0E0,0E0,0E0,0E0,0E0,0E0,0E0],"parents":[2147483647,0,0,1,1,2,2,3,3,4,4,5,5,6,6],"right_children":[2,4,6,8,10,12,14,-1,-1,-1,-1,-1,-1,-1,-1],"split_conditions":[5.2882378E1,5.2101234E1,8.4749097E-1,7.273699E-1,6.1583585E-1,7.912113E-1,8.5192856E1,-5.3481967E-3,4.5511466E-3,3.3711242E-3,1.24814855E-2,-1.7225563E-3,-5.4046554E-3,2.4164738E-3,-3.1744777E-3],"split_indices":[2,2,1,1,1,1,2,0,0,0,0,0,0,0,0],"split_type":[0,0,0,0,0,0,0,0,0,0,0,0,0,0,0],"sum_hessian":[1.3250835E2,8.452747E0,1.2405559E2,6.0725417E0,2.3802056E0,8.14103E1,4.264529E1,2.0292993E0,4.0432425E0,1.0270706E0,1.3531349E0,6.578663E1,1.5623673E1,2.8592003E1,1.40532875E1],"tree_param":{"num_deleted":"0","num_feature":"4","num_nodes":"15","size_leaf_vector":"1"}},{"base_weights":[-1.02508694E-1,-3.686838E-1,-1.4352371E-2,-2.8469983E-1,-7.778948E-3,1.4935797E-1,-2.3128834E-1,-3.4269895E-3,4.7215745E-3,5.836428E-4,9.499069E-3,-4.713868E-3,2.5550926E-3],"categories":[],"categories_nodes":[],"categories_segments":[],"categories_sizes":[],"default_left":[0,0,0,0,0,0,0,0,0,0,0,0,0],"id":66,"left_children":[1,3,5,7,-1,9,11,-1,-1,-1,-1,-1,-1],"loss_changes":[3.125276E0,9.178896E-1,3.6308234E0,1.4385252E0,0E0,4.1927447E0,5.256541E0,0E0,0E0,0E0,0E0,0E0,0E0],"parents":[2147483647,0,0,1,1,2,2,3,3,5,5,6,6],"right_children":[2,4,6,8,-1,10,12,-1,-1,-1,-1,-1,-1],"split_conditions":[6.429534E-1,6.210225E-1,7.7987785E1,6.1583585E-1,-7.778948E-3,7.534602E1,9.368493E1,-3.4269895E-3,4.7215745E-3,5.836428E-4,9.499069E-3,-4.713868E-3,2.5550926E-3],"split_indices":[1,1,2,1,0,2,2,0,0,0,0,0,0],"split_type":[0,0,0,0,0,0,0,0,0,0,0,0,0],"sum_hessian":[1.3241426E2,3.215246E1,1.002618E2,2.8084332E1,4.068127E0,5.731822E1,4.294358E1,2.6593628E1,1.4907029E0,5.2431538E1,4.8866796E0,2.878024E1,1.4163341E1],"tree_param":{"num_deleted":"0","num_feature":"4","num_nodes":"13","size_leaf_vector":"1"}},{"base_weights":[-1.0154863E-1,4.5172697E-1,-1.4264509E-1,9.469358E-2,1.0641251E0,-3.1280574E-1,-2.207661E-2,-5.3129904E-3,4.502127E-3,3.371461E-3,1.2377396E-2,-3.77819E-3,2.2866195E-3,-3.4916566E-3,1.0428303E-3],"categories":[],"categories_nodes":[],"categories_segments":[],"categories_sizes":[],"default_left":[0,0,0,0,0,0,0,0,0,0,0,0,0,0,0],"id":67,"left_children":[1,3,5,7,9,11,13,-1,-1,-1,-1,-1,-1,-1,-1],"loss_changes":[3.0958183E0,1.9672107E0,2.5547583E0,1.8131831E0,1.0017872E-2,1.9065628E0,3.1013498E0,0E0,0E0,0E0,0E0,0E0,0E0,0E0,0E0],"parents":[2147483647,0,0,1,1,2,2,3,3,4,4,5,5,6,6],"right_children":[2,4,6,8,10,12,14,-1,-1,-1,-1,-1,-1,-1,-1],"split_conditions":[5.2882378E1,5.2101234E1,7.3026973E-1,7.273699E-1,6.1583585E-1,9.604973E1,2E0,-5.3129904E-3,4.502127E-3,3.371461E-3,1.2377396E-2,-3.77819E-3,2.2866195E-3,-3.4916566E-3,1.0428303E-3],"split_indices":[2,2,1,1,1,2,3,0,0,0,0,0,0,0,0],"split_type":[0,0,0,0,0,0,0,0,0,0,0,0,0,0,0],"sum_hessian":[1.323198E2,8.458077E0,1.23861725E2,6.0724277E0,2.3856502E0,5.070556E1,7.3156166E1,2.0204387E0,4.051989E0,1.0270386E0,1.3586116E0,4.553988E1,5.16568E0,1.98946E1,5.3261562E1],"tree_param":{"num_deleted":"0","num_feature":"4","num_nodes":"15","size_leaf_vector":"1"}},{"base_weights":[-1.0052765E-1,4.4836798E-1,-1.4137398E-1,9.3605086E-2,1.0559257E0,-3.906191E-1,-5.980904E-2,-5.2879555E-3,4.459231E-3,3.3511543E-3,1.2279353E-2,-7.3078643E-3,-2.3910597E-3,4.8439326E-3,-1.0470856E-3],"categories":[],"categories_nodes":[],"categories_segments":[],"categories_sizes":[],"default_left":[0,0,0,0,0,0,0,0,0,0,0,0,0,0,0],"id":68,"left_children":[1,3,5,7,9,11,13,-1,-1,-1,-1,-1,-1,-1,-1],"loss_changes":[3.050258E0,1.9416257E0,2.512854E0,1.7870331E0,9.148359E-3,1.4012918E0,2.376283E0,0E0,0E0,0E0,0E0,0E0,0E0,0E0,0E0],"parents":[2147483647,0,0,1,1,2,2,3,3,4,4,5,5,6,6],"right_children":[2,4,6,8,10,12,14,-1,-1,-1,-1,-1,-1,-1,-1],"split_conditions":[5.2882378E1,5.2101234E1,6.429534E-1,7.273699E-1,6.1583585E-1,6.729388E1,6.729415E-1,-5.2879555E-3,4.459231E-3,3.3511543E-3,1.2279353E-2,-7.3078643E-3,-2.3910597E-3,4.8439326E-3,-1.0470856E-3],"split_indices":[2,2,1,1,1,2,1,0,0,0,0,0,0,0,0],"split_type":[0,0,0,0,0,0,0,0,0,0,0,0,0,0,0],"sum_hessian":[1.322213E2,8.466808E0,1.2375449E2,6.0741057E0,2.392702E0,2.9578825E1,9.417567E1,2.014468E0,4.059638E0,1.0289788E0,1.3637233E0,7.936672E0,2.1642153E1,6.4317384E0,8.774393E1],"tree_param":{"num_deleted":"0","num_feature":"4","num_nodes":"15","size_leaf_vector":"1"}},{"base_weights":[-9.953133E-2,4.450395E-1,-1.4012949E-1,9.252623E-2,1.047825E0,-3.0886784E-1,-2.0872105E-2,-5.2630473E-3,4.4168225E-3,3.330978E-3,1.2182629E-2,-3.7351798E-3,2.2706385E-3,-3.4570652E-3,1.0428742E-3],"categories":[],"categories_nodes":[],"categories_segments":[],"categories_sizes":[],"default_left":[0,0,0,0,0,0,0,0,0,0,0,0,0,0,0],"id":69,"left_children":[1,3,5,7,9,11,13,-1,-1,-1,-1,-1,-1,-1,-1],"loss_changes":[3.0055232E0,1.9164641E0,2.5018752E0,1.7612998E0,8.330345E-3,1.8706913E0,3.0488443E0,0E0,0E0,0E0,0E0,0E0,0E0,0E0,0E0],"parents":[2147483647,0,0,1,1,2,2,3,3,4,4,5,5,6,6],"right_children":[2,4,6,8,10,12,14,-1,-1,-1,-1,-1,-1,-1,-1],"split_conditions":[5.2882378E1,5.2101234E1,7.3026973E-1,7.273699E-1,6.1583585E-1,9.604973E1,2E0,-5.2630473E-3,4.4168225E-3,3.330978E-3,1.2182629E-2,-3.7351798E-3,2.2706385E-3,-3.4570652E-3,1.0428742E-3],"split_indices":[2,2,1,1,1,2,3,0,0,0,0,0,0,0,0],"split_type":[0,0,0,0,0,0,0,0,0,0,0,0,0,0,0],"sum_hessian":[1.32123E2,8.475347E0,1.2364766E2,6.07572E0,2.3996265E0,5.054341E1,7.310425E1,2.0085244E0,4.0671954E0,1.0309072E0,1.3687193E0,4.537305E1,5.1703615E0,1.9842815E1,5.3261436E1],"tree_param":{"num_deleted":"0","num_feature":"4","num_nodes":"15","size_leaf_vector":"1"}},{"base_weights":[-9.852955E-2,4.4174096E-1,-1.3887921E-1,9.145677E-2,1.0398211E0,-2.4051571E-1,5.5187766E-2,-5.238264E-3,4.3748906E-3,3.3109295E-3,1.20872E-2,-1.6335669E-3,-5.353748E-3,2.4027058E-3,-3.135826E-3],"categories":[],"categories_nodes":[],"categories_segments":[],"categories_sizes":[],"default_left":[0,0,0,0,0,0,0,0,0,0,0,0,0,0,0],"id":70,"left_children":[1,3,5,7,9,11,13,-1,-1,-1,-1,-1,-1,-1,-1],"loss_changes":[2.9612746E0,1.8917168E0,2.4697776E0,1.7359748E0,7.5614452E-3,1.7763596E0,3.052532E0,0E0,0E0,0E0,0E0,0E0,0E0,0E0,0E0],"parents":[2147483647,0,0,1,1,2,2,3,3,4,4,5,5,6,6],"right_children":[2,4,6,8,10,12,14,-1,-1,-1,-1,-1,-1,-1,-1],"split_conditions":[5.2882378E1,5.2101234E1,8.4749097E-1,7.273699E-1,6.1583585E-1,7.912113E-1,8.5192856E1,-5.238264E-3,4.3748906E-3,3.3109295E-3,1.20872E-2,-1.6335669E-3,-5.353748E-3,2.4027058E-3,-3.135826E-3],"split_indices":[2,2,1,1,1,1,2,0,0,0,0,0,0,0,0],"split_type":[0,0,0,0,0,0,0,0,0,0,0,0,0,0,0],"sum_hessian":[1.3202577E2,8.483695E0,1.2354208E2,6.0772705E0,2.4064243E0,8.092225E1,4.2619835E1,2.0026076E0,4.0746627E0,1.0328236E0,1.3736007E0,6.537014E1,1.5552106E1,2.8609444E1,1.4010391E1],"tree_param":{"num_deleted":"0","num_feature":"4","num_nodes":"15","size_leaf_vector":"1"}},{"base_weights":[-9.7562015E-2,-3.574688E-1,-1.2177546E-2,-2.7343166E-1,-7.6942234E-3,1.4839777E-1,-2.2583124E-1,-3.317633E-3,4.793527E-3,5.79911E-4,9.411271E-3,-4.646694E-3,2.5552595E-3],"categories":[],"categories_nodes":[],"categories_segments":[],"categories_sizes":[],"default_left":[0,0,0,0,0,0,0,0,0,0,0,0,0],"id":71,"left_children":[1,3,5,7,-1,9,11,-1,-1,-1,-1,-1,-1],"loss_changes":[2.945743E0,9.264207E-1,3.501928E0,1.4247625E0,0E0,4.1252403E0,5.151497E0,0E0,0E0,0E0,0E0,0E0,0E0],"parents":[2147483647,0,0,1,1,2,2,3,3,5,5,6,6],"right_children":[2,4,6,8,-1,10,12,-1,-1,-1,-1,-1,-1],"split_conditions":[6.429534E-1,6.210225E-1,7.7987785E1,6.1583585E-1,-7.6942234E-3,7.534602E1,9.368493E1,-3.317633E-3,4.793527E-3,5.79911E-4,9.411271E-3,-4.646694E-3,2.5552595E-3],"split_indices":[1,1,2,1,0,2,2,0,0,0,0,0,0],"split_type":[0,0,0,0,0,0,0,0,0,0,0,0,0],"sum_hessian":[1.3193507E2,3.1837246E1,1.0009783E2,2.782482E1,4.0124254E0,5.7321926E1,4.277591E1,2.6342854E1,1.4819658E0,5.241717E1,4.9047537E0,2.861332E1,1.416259E1],"tree_param":{"num_deleted":"0","num_feature":"4","num_nodes":"13","size_leaf_vector":"1"}},{"base_weights":[-9.664395E-2,4.3911487E-1,-1.367455E-1,9.06952E-2,1.0331922E-2,-3.034525E-1,-1.93178E-2,-5.203975E-3,4.32794E-3,-3.6773458E-3,2.2640792E-3,-3.4162072E-3,1.0448814E-3],"categories":[],"categories_nodes":[],"categories_segments":[],"categories_sizes":[],"default_left":[0,0,0,0,0,0,0,0,0,0,0,0,0],"id":72,"left_children":[1,3,5,7,-1,9,11,-1,-1,-1,-1,-1,-1],"loss_changes":[2.9141665E0,1.8702811E0,2.4285228E0,1.7046969E0,0E0,1.8314447E0,2.9896996E0,0E0,0E0,0E0,0E0,0E0,0E0],"parents":[2147483647,0,0,1,1,2,2,3,3,5,5,6,6],"right_children":[2,4,6,8,-1,10,12,-1,-1,-1,-1,-1,-1],"split_conditions":[5.2882378E1,5.2101234E1,7.3026973E-1,7.273699E-1,1.0331922E-2,9.604973E1,2E0,-5.203975E-3,4.32794E-3,-3.6773458E-3,2.2640792E-3,-3.4162072E-3,1.0448814E-3],"split_indices":[2,2,1,1,0,2,3,0,0,0,0,0,0],"split_type":[0,0,0,0,0,0,0,0,0,0,0,0,0],"sum_hessian":[1.3184387E2,8.488397E0,1.2335547E2,6.0769815E0,2.411415E0,5.0325867E1,7.30296E1,1.9939638E0,4.0830173E0,4.515383E1,5.1720366E0,1.9779217E1,5.3250385E1],"tree_param":{"num_deleted":"0","num_feature":"4","num_nodes":"13","size_leaf_vector":"1"}},{"base_weights":[-9.570376E-2,-3.5273284E-1,-1.1567501E-2,-2.6896402E-1,-7.6484215E-3,2.089814E-1,-1.6561984E-1,-6.495216E-3,-1.3028693E-3,5.052692E-4,1.090837E-2,-2.680034E-3,3.950272E-3],"categories":[],"categories_nodes":[],"categories_segments":[],"categories_sizes":[],"default_left":[0,0,0,0,0,0,0,0,0,0,0,0,0],"id":73,"left_children":[1,3,5,7,-1,9,11,-1,-1,-1,-1,-1,-1],"loss_changes":[2.8667412E0,9.2331076E-1,3.4678013E0,1.4311798E0,0E0,5.8133135E0,3.5528088E0,0E0,0E0,0E0,0E0,0E0,0E0],"parents":[2147483647,0,0,1,1,2,2,3,3,5,5,6,6],"right_children":[2,4,6,8,-1,10,12,-1,-1,-1,-1,-1,-1],"split_conditions":[6.429534E-1,6.210225E-1,6.979852E1,5.292755E-1,-7.6484215E-3,6.729388E1,9.604973E1,-6.495216E-3,-1.3028693E-3,5.052692E-4,1.090837E-2,-2.680034E-3,3.950272E-3],"split_indices":[1,1,2,1,0,2,2,0,0,0,0,0,0],"split_type":[0,0,0,0,0,0,0,0,0,0,0,0,0],"sum_hessian":[1.317519E2,3.1704617E1,1.0004729E2,2.7722218E1,3.9823995E0,4.0997166E1,5.905012E1,6.4202027E0,2.1302013E1,3.5648952E1,5.348215E0,5.037312E1,8.677003E0],"tree_param":{"num_deleted":"0","num_feature":"4","num_nodes":"13","size_leaf_vector":"1"}},{"base_weights":[-9.483187E-2,4.3593296E-1,-1.3465802E-1,9.008746E-2,1.0240626E0,-2.9964042E-1,-1.875259E-2,-5.1682238E-3,4.282232E-3,3.2669553E-3,1.1904572E-2,-3.6337813E-3,2.2294633E-3,-3.386746E-3,1.038258E-3],"categories":[],"categories_nodes":[],"categories_segments":[],"categories_sizes":[],"default_left":[0,0,0,0,0,0,0,0,0,0,0,0,0,0,0],"id":74,"left_children":[1,3,5,7,9,11,13,-1,-1,-1,-1,-1,-1,-1,-1],"loss_changes":[2.8630586E0,1.8392292E0,2.368825E0,1.6734531E0,7.911921E-3,1.7854466E0,2.9371095E0,0E0,0E0,0E0,0E0,0E0,0E0,0E0,0E0],"parents":[2147483647,0,0,1,1,2,2,3,3,4,4,5,5,6,6],"right_children":[2,4,6,8,10,12,14,-1,-1,-1,-1,-1,-1,-1,-1],"split_conditions":[5.2882378E1,5.2101234E1,7.3026973E-1,7.273699E-1,6.1583585E-1,9.604973E1,2E0,-5.1682238E-3,4.282232E-3,3.2669553E-3,1.1904572E-2,-3.6337813E-3,2.2294633E-3,-3.386746E-3,1.038258E-3],"split_indices":[2,2,1,1,1,2,3,0,0,0,0,0,0,0,0],"split_type":[0,0,0,0,0,0,0,0,0,0,0,0,0,0,0],"sum_hessian":[1.3166696E2,8.495896E0,1.2317107E2,6.076078E0,2.4198182E0,5.017113E1,7.299993E1,1.9849333E0,4.0911446E0,1.0370159E0,1.3828022E0,4.4988705E1,5.182429E0,1.9733582E1,5.3266354E1],"tree_param":{"num_deleted":"0","num_feature":"4","num_nodes":"15","size_leaf_vector":"1"}},{"base_weights":[-9.387334E-2,4.3271613E-1,-1.334535E-1,8.903979E-2,1.0163394E0,-2.3272462E-1,5.500049E-2,-5.1439134E-3,4.2418065E-3,3.2473148E-3,1.1812819E-2,-1.5478156E-3,-5.3055882E-3,-5.9727984E-3,1.5895484E-3],"categories":[],"categories_nodes":[],"categories_segments":[],"categories_sizes":[],"default_left":[0,0,0,0,0,0,0,0,0,0,0,0,0,0,0],"id":75,"left_children":[1,3,5,7,9,11,13,-1,-1,-1,-1,-1,-1,-1,-1],"loss_changes":[2.820895E0,1.8157337E0,2.3338892E0,1.6494995E0,7.2512627E-3,1.8087568E0,3.0523756E0,0E0,0E0,0E0,0E0,0E0,0E0,0E0,0E0],"parents":[2147483647,0,0,1,1,2,2,3,3,4,4,5,5,6,6],"right_children":[2,4,6,8,10,12,14,-1,-1,-1,-1,-1,-1,-1,-1],"split_conditions":[5.2882378E1,5.2101234E1,8.4749097E-1,7.273699E-1,6.1583585E-1,7.912113E-1,5.8151768E1,-5.1439134E-3,4.2418065E-3,3.2473148E-3,1.1812819E-2,-1.5478156E-3,-5.3055882E-3,-5.9727984E-3,1.5895484E-3],"split_indices":[2,2,1,1,1,1,2,0,0,0,0,0,0,0,0],"split_type":[0,0,0,0,0,0,0,0,0,0,0,0,0,0,0],"sum_hessian":[1.3157277E2,8.503697E0,1.2306907E2,6.077452E0,2.4262455E0,8.045383E1,4.261524E1,1.9791259E0,4.098326E0,1.0388939E0,1.3873515E0,6.497072E1,1.5483111E1,5.2056775E0,3.740956E1],"tree_param":{"num_deleted":"0","num_feature":"4","num_nodes":"15","size_leaf_vector":"1"}},{"base_weights":[-9.297338E-2,-3.4692973E-1,-1.0178941E-2,-2.6339853E-1,-7.595695E-3,1.4786692E-1,-2.2118844E-1,-6.440049E-3,-1.2523726E-3,5.782135E-4,9.356383E-3,-4.5742695E-3,2.5096068E-3],"categories":[],"categories_nodes":[],"categories_segments":[],"categories_sizes":[],"default_left":[0,0,0,0,0,0,0,0,0,0,0,0,0],"id":76,"left_children":[1,3,5,7,-1,9,11,-1,-1,-1,-1,-1,-1],"loss_changes":[2.7822134E0,9.2166567E-1,3.399154E0,1.4230692E0,0E0,4.082526E0,4.9812756E0,0E0,0E0,0E0,0E0,0E0,0E0],"parents":[2147483647,0,0,1,1,2,2,3,3,5,5,6,6],"right_children":[2,4,6,8,-1,10,12,-1,-1,-1,-1,-1,-1],"split_conditions":[6.429534E-1,6.210225E-1,7.7987785E1,5.292755E-1,-7.595695E-3,7.534602E1,9.368493E1,-6.440049E-3,-1.2523726E-3,5.782135E-4,9.356383E-3,-4.5742695E-3,2.5096068E-3],"split_indices":[1,1,2,1,0,2,2,0,0,0,0,0,0],"split_type":[0,0,0,0,0,0,0,0,0,0,0,0,0],"sum_hessian":[1.314894E2,3.1543966E1,9.9945435E1,2.7596E1,3.9479668E0,5.731546E1,4.262997E1,6.374442E0,2.1221558E1,5.239939E1,4.9160714E0,2.8434185E1,1.41957855E1],"tree_param":{"num_deleted":"0","num_feature":"4","num_nodes":"13","size_leaf_vector":"1"}},{"base_weights":[-9.216044E-2,4.3019077E-1,-1.3150024E-1,8.83767E-2,1.0098089E0,-2.945509E-1,-1.7315736E-2,-5.108781E-3,4.1963863E-3,3.2455882E-3,1.1717846E-2,-3.5787646E-3,2.2174066E-3,-3.3449798E-3,1.0382298E-3],"categories":[],"categories_nodes":[],"categories_segments":[],"categories_sizes":[],"default_left":[0,0,0,0,0,0,0,0,0,0,0,0,0,0,0],"id":77,"left_children":[1,3,5,7,9,11,13,-1,-1,-1,-1,-1,-1,-1,-1],"loss_changes":[2.7774334E0,1.7944328E0,2.3016443E0,1.6191676E0,5.1283836E-4,1.7457247E0,2.8754091E0,0E0,0E0,0E0,0E0,0E0,0E0,0E0,0E0],"parents":[2147483647,0,0,1,1,2,2,3,3,4,4,5,5,6,6],"right_children":[2,4,6,8,10,12,14,-1,-1,-1,-1,-1,-1,-1,-1],"split_conditions":[5.2882378E1,5.2101234E1,7.3026973E-1,7.273699E-1,6.1583585E-1,9.604973E1,2E0,-5.108781E-3,4.1963863E-3,3.2455882E-3,1.1717846E-2,-3.5787646E-3,2.2174066E-3,-3.3449798E-3,1.0382298E-3],"split_indices":[2,2,1,1,1,2,3,0,0,0,0,0,0,0,0],"split_type":[0,0,0,0,0,0,0,0,0,0,0,0,0,0,0],"sum_hessian":[1.3140727E2,8.507677E0,1.2289959E2,6.0766253E0,2.4310513E0,4.9967915E1,7.293167E1,1.9702369E0,4.1063886E0,1.0390453E0,1.3920058E0,4.4782024E1,5.1858926E0,1.9669355E1,5.3262318E1],"tree_param":{"num_deleted":"0","num_feature":"4","num_nodes":"15","size_leaf_vector":"1"}},{"base_weights":[-9.122653E-2,4.2702594E-1,-1.3032205E-1,8.734427E-2,1.0022556E0,-2.9216695E-1,-1.717651E-2,-5.084766E-3,4.1569127E-3,3.2260837E-3,1.1628526E-2,-3.551492E-3,2.1964929E-3,-3.3193023E-3,1.0274511E-3],"categories":[],"categories_nodes":[],"categories_segments":[],"categories_sizes":[],"default_left":[0,0,0,0,0,0,0,0,0,0,0,0,0,0,0],"id":78,"left_children":[1,3,5,7,9,11,13,-1,-1,-1,-1,-1,-1,-1,-1],"loss_changes":[2.7365274E0,1.7716672E0,2.2620046E0,1.596059E0,2.6464462E-5,1.7179885E0,2.8244395E0,0E0,0E0,0E0,0E0,0E0,0E0,0E0,0E0],"parents":[2147483647,0,0,1,1,2,2,3,3,4,4,5,5,6,6],"right_children":[2,4,6,8,10,12,14,-1,-1,-1,-1,-1,-1,-1,-1],"split_conditions":[5.2882378E1,5.2101234E1,7.3026973E-1,7.273699E-1,6.1583585E-1,9.604973E1,2E0,-5.084766E-3,4.1569127E-3,3.2260837E-3,1.1628526E-2,-3.551492E-3,2.1964929E-3,-3.3193023E-3,1.0274511E-3],"split_indices":[2,2,1,1,1,2,3,0,0,0,0,0,0,0,0],"split_type":[0,0,0,0,0,0,0,0,0,0,0,0,0,0,0],"sum_hessian":[1.313148E2,8.515128E0,1.22799675E2,6.0778875E0,2.4372408E0,4.987524E1,7.292444E1,1.9644988E0,4.113389E0,1.0409106E0,1.3963304E0,4.4682835E1,5.1924067E0,1.9631222E1,5.3293217E1],"tree_param":{"num_deleted":"0","num_feature":"4","num_nodes":"15","size_leaf_vector":"1"}},{"base_weights":[-9.030172E-2,4.2388928E-1,-1.291539E-1,8.6320914E-2,9.9479E-3,-3.6695817E-1,-5.2608903E-2,-5.0608693E-3,4.1178744E-3,-7.133156E-3,-2.1426012E-3,4.96579E-3,-9.796098E-4],"categories":[],"categories_nodes":[],"categories_segments":[],"categories_sizes":[],"default_left":[0,0,0,0,0,0,0,0,0,0,0,0,0],"id":79,"left_children":[1,3,5,7,-1,9,11,-1,-1,-1,-1,-1,-1],"loss_changes":[2.6962218E0,1.7492676E0,2.232381E0,1.5733128E0,0E0,1.4313798E0,2.4084764E0,0E0,0E0,0E0,0E0,0E0,0E0],"parents":[2147483647,0,0,1,1,2,2,3,3,5,5,6,6],"right_children":[2,4,6,8,-1,10,12,-1,-1,-1,-1,-1,-1],"split_conditions":[5.2882378E1,5.2101234E1,6.429534E-1,7.273699E-1,9.9479E-3,6.729388E1,6.729415E-1,-5.0608693E-3,4.1178744E-3,-7.133156E-3,-2.1426012E-3,4.96579E-3,-9.796098E-4],"split_indices":[2,2,1,1,0,2,1,0,0,0,0,0,0],"split_type":[0,0,0,0,0,0,0,0,0,0,0,0,0],"sum_hessian":[1.3122289E2,8.522404E0,1.2270048E2,6.0790935E0,2.4433107E0,2.8954082E1,9.37464E1,1.9587878E0,4.1203055E0,7.735842E0,2.121824E1,6.392113E0,8.735429E1],"tree_param":{"num_deleted":"0","num_feature":"4","num_nodes":"13","size_leaf_vector":"1"}},{"base_weights":[-8.9432195E-2,4.2012894E-1,-1.2800847E-1,8.530669E-2,9.8506886E-1,-2.2522613E-1,5.5559877E-2,-5.0370903E-3,4.079266E-3,3.1469825E-3,1.1465308E-2,-1.4660571E-3,-5.2567064E-3,-5.9344736E-3,1.5862789E-3],"categories":[],"categories_nodes":[],"categories_segments":[],"categories_sizes":[],"default_left":[0,0,0,0,0,0,0,0,0,0,0,0,0,0,0],"id":80,"left_children":[1,3,5,7,9,11,13,-1,-1,-1,-1,-1,-1,-1,-1],"loss_changes":[2.6511579E0,1.7191412E0,2.218332E0,1.5509226E0,1.2892723E-2,1.8363566E0,3.0104544E0,0E0,0E0,0E0,0E0,0E0,0E0,0E0,0E0],"parents":[2147483647,0,0,1,1,2,2,3,3,4,4,5,5,6,6],"right_children":[2,4,6,8,10,12,14,-1,-1,-1,-1,-1,-1,-1,-1],"split_conditions":[5.2882378E1,5.2101234E1,8.4749097E-1,7.273699E-1,6.1583585E-1,7.912113E-1,5.8151768E1,-5.0370903E-3,4.079266E-3,3.1469825E-3,1.1465308E-2,-1.4660571E-3,-5.2567064E-3,-5.9344736E-3,1.5862789E-3],"split_indices":[2,2,1,1,1,1,2,0,0,0,0,0,0,0,0],"split_type":[0,0,0,0,0,0,0,0,0,0,0,0,0,0,0],"sum_hessian":[1.311352E2,8.532814E0,1.2260237E2,6.080244E0,2.45257E0,8.0004906E1,4.259747E1,1.9531037E0,4.1271405E0,1.0484768E0,1.4040931E0,6.459074E1,1.5414165E1,5.185727E0,3.7411743E1],"tree_param":{"num_deleted":"0","num_feature":"4","num_nodes":"15","size_leaf_vector":"1"}},{"base_weights":[-8.857441E-2,-3.366884E-1,-8.2864575E-3,-2.5322607E-1,-7.515043E-1,2.0815846E-1,-1.6001964E-1,-6.3572405E-3,-1.150822E-3,-8.5855145E-3,-2.8009927E-3,5.059979E-4,1.0811652E-2,-2.6080203E-3,3.867624E-3],"categories":[],"categories_nodes":[],"categories_segments":[],"categories_sizes":[],"default_left":[0,0,0,0,0,0,0,0,0,0,0,0,0,0,0],"id":81,"left_children":[1,3,5,7,9,11,13,-1,-1,-1,-1,-1,-1,-1,-1],"loss_changes":[2.627818E0,9.265766E-1,3.3436143E0,1.4256023E0,6.551504E-3,5.7188435E0,3.3973641E0,0E0,0E0,0E0,0E0,0E0,0E0,0E0,0E0],"parents":[2147483647,0,0,1,1,2,2,3,3,4,4,5,5,6,6],"right_children":[2,4,6,8,10,12,14,-1,-1,-1,-1,-1,-1,-1,-1],"split_conditions":[6.429534E-1,6.210225E-1,6.979852E1,5.292755E-1,6.335141E-1,6.729388E1,9.604973E1,-6.3572405E-3,-1.150822E-3,-8.5855145E-3,-2.8009927E-3,5.059979E-4,1.0811652E-2,-2.6080203E-3,3.867624E-3],"split_indices":[1,1,2,1,1,2,2,0,0,0,0,0,0,0,0],"split_type":[0,0,0,0,0,0,0,0,0,0,0,0,0,0,0],"sum_hessian":[1.3105489E2,3.1259644E1,9.979524E1,2.736431E1,3.8953347E0,4.097426E1,5.8820984E1,6.3049703E0,2.105934E1,2.505192E0,1.3901426E0,3.5606094E1,5.3681626E0,5.010812E1,8.712862E0],"tree_param":{"num_deleted":"0","num_feature":"4","num_nodes":"15","size_leaf_vector":"1"}},{"base_weights":[-8.779151E-2,4.176521E-1,-1.2612823E-1,8.4612794E-2,9.788743E-1,-2.8607625E-1,-1.4715402E-2,-5.003946E-3,4.0363474E-3,3.1452735E-3,1.1375444E-2,-3.4853974E-3,2.180276E-3,-3.2729162E-3,1.0401326E-3],"categories":[],"categories_nodes":[],"categories_segments":[],"categories_sizes":[],"default_left":[0,0,0,0,0,0,0,0,0,0,0,0,0,0,0],"id":82,"left_children":[1,3,5,7,9,11,13,-1,-1,-1,-1,-1,-1,-1,-1],"loss_changes":[2.6100087E0,1.6996138E0,2.1955395E0,1.5232226E0,6.611109E-3,1.6701393E0,2.7734072E0,0E0,0E0,0E0,0E0,0E0,0E0,0E0,0E0],"parents":[2147483647,0,0,1,1,2,2,3,3,4,4,5,5,6,6],"right_children":[2,4,6,8,10,12,14,-1,-1,-1,-1,-1,-1,-1,-1],"split_conditions":[5.2882378E1,5.2101234E1,7.3026973E-1,7.273699E-1,6.1583585E-1,9.604973E1,2E0,-5.003946E-3,4.0363474E-3,3.1452735E-3,1.1375444E-2,-3.4853974E-3,2.180276E-3,-3.2729162E-3,1.0401326E-3],"split_indices":[2,2,1,1,1,2,3,0,0,0,0,0,0,0,0],"split_type":[0,0,0,0,0,0,0,0,0,0,0,0,0,0,0],"sum_hessian":[1.3097733E2,8.536398E0,1.22440926E2,6.079487E0,2.456911E0,4.9627007E1,7.281392E1,1.9447566E0,4.1347303E0,1.0486243E0,1.4082867E0,4.443025E1,5.1967573E0,1.9560493E1,5.3253426E1],"tree_param":{"num_deleted":"0","num_feature":"4","num_nodes":"15","size_leaf_vector":"1"}},{"base_weights":[-8.689896E-2,4.1459736E-1,-1.2499515E-1,8.361375E-2,9.7167283E-1,-2.8374895E-1,-1.4600784E-2,-4.980447E-3,3.9986297E-3,3.1264056E-3,1.1290507E-2,-3.4586845E-3,2.1597496E-3,-3.2477002E-3,1.0293331E-3],"categories":[],"categories_nodes":[],"categories_segments":[],"categories_sizes":[],"default_left":[0,0,0,0,0,0,0,0,0,0,0,0,0,0,0],"id":83,"left_children":[1,3,5,7,9,11,13,-1,-1,-1,-1,-1,-1,-1,-1],"loss_changes":[2.5715513E0,1.6783496E0,2.1575363E0,1.501607E0,6.146431E-3,1.6435003E0,2.724119E0,0E0,0E0,0E0,0E0,0E0,0E0,0E0,0E0],"parents":[2147483647,0,0,1,1,2,2,3,3,4,4,5,5,6,6],"right_children":[2,4,6,8,10,12,14,-1,-1,-1,-1,-1,-1,-1,-1],"split_conditions":[5.2882378E1,5.2101234E1,7.3026973E-1,7.273699E-1,6.1583585E-1,9.604973E1,2E0,-4.980447E-3,3.9986297E-3,3.1264056E-3,1.1290507E-2,-3.4586845E-3,2.1597496E-3,-3.2477002E-3,1.0293331E-3],"split_indices":[2,2,1,1,1,2,3,0,0,0,0,0,0,0,0],"split_type":[0,0,0,0,0,0,0,0,0,0,0,0,0,0,0],"sum_hessian":[1.3088776E2,8.543159E0,1.22344604E2,6.080534E0,2.4626245E0,4.953703E1,7.280757E1,1.9391401E0,4.1413937E0,1.0504292E0,1.4121952E0,4.433387E1,5.203159E0,1.9523197E1,5.3284378E1],"tree_param":{"num_deleted":"0","num_feature":"4","num_nodes":"15","size_leaf_vector":"1"}},{"base_weights":[-8.601508E-2,4.1156948E-1,-1.2387174E-1,8.26235E-2,9.645532E-1,-2.8143755E-1,-1.4487113E-2,-4.9570617E-3,3.9613214E-3,3.107657E-3,1.1206642E-2,-4.176289E-3,-4.3074045E-4,-3.2226457E-3,1.0186516E-3],"categories":[],"categories_nodes":[],"categories_segments":[],"categories_sizes":[],"default_left":[0,0,0,0,0,0,0,0,0,0,0,0,0,0,0],"id":84,"left_children":[1,3,5,7,9,11,13,-1,-1,-1,-1,-1,-1,-1,-1],"loss_changes":[2.5336595E0,1.6574218E0,2.1201527E0,1.480327E0,5.7148933E-3,1.6197E0,2.6756933E0,0E0,0E0,0E0,0E0,0E0,0E0,0E0,0E0],"parents":[2147483647,0,0,1,1,2,2,3,3,4,4,5,5,6,6],"right_children":[2,4,6,8,10,12,14,-1,-1,-1,-1,-1,-1,-1,-1],"split_conditions":[5.2882378E1,5.2101234E1,7.3026973E-1,7.273699E-1,6.1583585E-1,2E0,2E0,-4.9570617E-3,3.9613214E-3,3.107657E-3,1.1206642E-2,-4.176289E-3,-4.3074045E-4,-3.2226457E-3,1.0186516E-3],"split_indices":[2,2,1,1,1,0,3,0,0,0,0,0,0,0,0],"split_type":[0,0,0,0,0,0,0,0,0,0,0,0,0,0,0],"sum_hessian":[1.3079872E2,8.549751E0,1.2224897E2,6.0815287E0,